tree
version=v4
num_class=1
num_tree_per_iteration=1
label_index=0
max_feature_idx=4
objective=binary sigmoid:1
feature_names=text_similarity industry_overlap stage_fit place_fit check_fit
monotone_constraints=1 1 1 1 1
feature_infos=[-0.015314814634621143:0.1997627317905426] none none [0:1] [2.4999968750039061e-06:1]
tree_sizes=1588 1649 1653 1219 1660 1664 1110 1550 1116 1439 1329 1115 1442 1445 1339 1118 1443 1338 1120 1335 1124 1341 1125 1015 1128 1342 1122 1235 1237 1236 1238 1229 1129 1234 1232 1347 1235 1232 698 1237 701 703 703 704 1242 707 705 704 707 704 1239 705 705 706 706 708 705 588 487 488 589 814 374 373 373 373 374 372 374 374 373 372 374 374 371 374 373 373 372 374 372 373 373 374 374 373 374 374 373 373 374 374 373 372 369 374 374 374 374 373 374 374 374 374 373 374 375 374 374 373 374 375 375 375 374 375 374 375 375 375 374 374 374 375 375 375 374 374 374 375 375 374 375 374 373 374 375 373 374 374 375 375 371 375 374 375 375 375 373 375 375 375 373 375 375 373 375 374 374 375 374 375 373 375 374 374 375 374 375 375 375 374 374 375 375 375 374 375 373 375 374 374 375 373 375 375 374 372 374 374 375 374 374 374 373 374 373 375 375 375

Tree=0
num_leaves=14
num_cat=0
split_feature=4 0 4 0 4 0 0 0 3 0 3 4 3
split_gain=3.63177 3.51397 1.25863 2.39092 0.916049 0.289033 0.169941 0.163553 0.0438516 0.146545 0.0301869 0.0136554 0.00781063
threshold=0.12408357771260999 0.09985037520527841 0.011461704253155678 0.054049726575613029 0.00048987992944177791 0.022913071326911453 0.13164734095335009 0.12011111527681352 1.0000000180025095e-35 0.064877890050411238 1.0000000180025095e-35 0.0036981395686060299 1.0000000180025095e-35
decision_type=2 2 2 2 2 2 2 2 2 2 2 2 2
left_child=2 12 3 4 -1 -4 8 -7 9 -5 -3 -6 -2
right_child=1 10 5 6 11 7 -8 -9 -10 -11 -12 -13 -14
leaf_value=-1.7298883116199257 -1.6685894431110062 -1.6461785226527821 -1.6771201198110495 -1.6910803251638935 -1.6972671056134059 -1.6721738702237754 -1.6771201198110495 -1.6685894431110062 -1.679119864225614 -1.68065100954228 -1.6420886826874843 -1.6923739247124281 -1.6655779340642154
leaf_weight=2.7989261895418149 30.654905885457993 16.127146139740947 3.7319015860557547 3.8651837855577531 3.0654905885457993 45.04938343167305 8.2634963691234571 11.195704758167265 3.5986193865537635 19.192636728286743 6.2642633765935889 2.6656439900398254 9.3297539651393873
leaf_count=21 230 121 28 29 23 338 62 84 27 144 47 20 70
internal_value=-1.67048 -1.66095 -1.67623 -1.68271 -1.70644 -1.67153 -1.67712 -1.67033 -1.68112 -1.68218 -1.64503 -1.69499 -1.66859
internal_weight=165.803 62.3761 103.427 43.45 8.53006 59.977 34.9199 56.2451 26.6564 23.0578 22.3914 5.73113 39.9847
internal_count=1244 468 776 326 64 450 262 422 200 173 168 43 300
is_linear=0
shrinkage=1


Tree=1
num_leaves=14
num_cat=0
split_feature=4 0 4 0 4 0 0 0 3 0 3 4 3
split_gain=3.20653 3.11808 1.12522 2.2699 0.9003 0.273273 0.156154 0.1495 0.0419569 0.136624 0.0257813 0.0129799 0.00552588
threshold=0.12408357771260999 0.09985037520527841 0.011461704253155678 0.054049726575613029 0.00048987992944177791 0.022913071326911453 0.13164734095335009 0.12011111527681352 1.0000000180025095e-35 0.064877890050411238 1.0000000180025095e-35 0.0036981395686060299 1.0000000180025095e-35
decision_type=2 2 2 2 2 2 2 2 2 2 2 2 2
left_child=2 12 3 4 -1 -4 8 -7 9 -5 -3 -6 -2
right_child=1 10 5 6 11 7 -8 -9 -10 -11 -12 -13 -14
leaf_value=-0.058865211298007196 0.0017519246003555541 0.022698519837625289 -0.0062867787835544408 -0.019855708977336017 -0.025932250437948196 -0.0016106351218511746 -0.0062867787835544408 0.0017519246003555541 -0.0082170075606150198 -0.0097082274793975493 0.026443320201929844 -0.021121883316971297 0.0046414506023482668
leaf_weight=2.6863397508859617 30.694525092840195 16.395874902606014 3.7149873971939078 3.8109462559223237 3.0096079707145691 44.997269809246063 8.2260435223579389 11.210174381732939 3.5774032473564139 19.059461832046509 6.3862826526165 2.6258975267410278 9.3610286712646467
leaf_count=21 230 121 28 29 23 338 62 84 27 144 47 20 70
internal_value=1.89206e-05 0.0089189 -0.00541505 -0.011587 -0.0350453 -0.00098651 -0.00628678 0.000202002 -0.0101472 -0.0111994 0.0237483 -0.0236908 0.00175192
internal_weight=165.756 62.8377 102.918 42.9957 8.32185 59.9224 34.6739 56.2074 26.4478 22.8704 22.7822 5.63551 40.0556
internal_count=1244 468 776 326 64 450 262 422 200 173 168 43 300
is_linear=0
shrinkage=0.05


Tree=2
num_leaves=14
num_cat=0
split_feature=4 0 4 0 4 0 0 0 3 0 3 4 3
split_gain=2.82896 2.77288 1.00387 2.1535 0.885303 0.258302 0.143214 0.136706 0.0401627 0.127248 0.0221207 0.0123258 0.00315861
threshold=0.12408357771260999 0.09985037520527841 0.011461704253155678 0.054049726575613029 0.00048987992944177791 0.022913071326911453 0.13164734095335009 0.12011111527681352 1.0000000180025095e-35 0.064877890050411238 1.0000000180025095e-35 0.0036981395686060299 1.0000000180025095e-35
decision_type=2 2 2 2 2 2 2 2 2 2 2 2 2
left_child=2 12 3 4 -1 -4 8 -7 9 -5 -3 -6 -2
right_child=1 10 5 6 11 7 -8 -9 -10 -11 -12 -13 -14
leaf_value=-0.058358418642814706 0.0016263209930078933 0.02122776924792269 -0.005945927390440791 -0.019130506461123208 -0.025094631305880306 -0.0015318302431851897 -0.005945927390440791 0.0016263209930078933 -0.0078098744115169018 -0.009262783057346324 0.024667049120293775 -0.020368940389937751 0.0043950899296092538
leaf_weight=2.5769528076052648 30.731251686811447 16.648511528968815 3.6990032196044913 3.7589912563562455 2.9559493064880371 44.947729885578156 8.1906499862670881 11.223587572574614 3.557275414466857 18.932717800140381 6.5007850229740134 2.5878047943115234 9.3906803429126722
leaf_count=21 230 121 28 29 23 338 62 84 27 144 47 20 70
internal_value=3.73803e-05 0.00834987 -0.00509723 -0.010968 -0.0341443 -0.000923821 -0.00594593 0.000249119 -0.00967382 -0.0107157 0.0221936 -0.0228887 0.00162632
internal_weight=165.702 63.2712 102.431 42.5603 8.12071 59.8703 34.4396 56.1713 26.249 22.6917 23.1493 5.54375 40.1219
internal_count=1244 468 776 326 64 450 262 422 200 173 168 43 300
is_linear=0
shrinkage=0.05


Tree=3
num_leaves=10
num_cat=0
split_feature=4 0 0 4 0 4 3 3 3
split_gain=2.49368 2.47089 0.901755 1.28283 0.585168 0.707861 0.434113 0.0190587 0.000752405
threshold=0.12408357771260999 0.09985037520527841 0.030189990997314457 0.0046406488055324097 0.12540419399738315 0.019811783061455823 1.0000000180025095e-35 1.0000000180025095e-35 1.0000000180025095e-35
decision_type=2 2 2 2 2 2 2 2 2
left_child=2 8 3 -1 5 6 -4 -3 -2
right_child=1 7 4 -5 -6 -7 -8 -9 -10
leaf_value=-0.043809851227996834 0.0015127096835001474 0.019875133374083555 -0.010340105237140315 -0.010340105237140315 0.0015127096835001474 -0.0019109088406617522 -0.006125507038901034 0.02304243611613983 0.0041625419941854931
leaf_weight=3.4336793124675742 30.765359848737717 16.886134237051014 30.616622805595398 8.6580439507961255 18.445261970162392 35.478046253323555 5.3323505222797385 6.608293652534484 9.4187934696674329
leaf_count=28 230 121 235 66 139 267 41 47 70
internal_value=5.52788e-05 0.00781831 -0.00479289 -0.0176121 -0.00306816 -0.00533453 -0.0103401 0.020766 0.00151271
internal_weight=165.643 63.6786 101.964 12.0917 89.8723 71.427 35.949 23.4944 40.1842
internal_count=1244 468 776 94 682 543 276 168 300
is_linear=0
shrinkage=0.05


Tree=4
num_leaves=14
num_cat=0
split_feature=4 0 4 0 4 0 4 0 0 3 0 4 3
split_gain=2.24137 1.96987 0.880597 0.855786 2.18199 0.289162 0.205857 0.288913 0.0508908 0.048534 0.119386 0.00859957 0.00178574
threshold=0.011461704253155678 0.054049726575613029 0.00048987992944177791 0.09985037520527841 0.12035595596921821 0.13164734095335009 0.03180738310019305 -0.013490689918398855 0.074515648186206832 1.0000000180025095e-35 0.064877890050411238 0.0036981395686060299 1.0000000180025095e-35
decision_type=2 2 2 2 2 2 2 2 2 2 2 2 2
left_child=1 2 -1 6 -5 9 8 -8 -2 10 -3 -4 -9
right_child=3 5 11 4 -6 -7 7 12 -10 -11 -12 -13 -14
leaf_value=-0.057663110783748819 -0.0032407715474879108 -0.018039127460047752 -0.023221879887341375 0.0044539952521594223 0.020654897236420569 -0.0032407715474879108 -0.00086593385697000401 0.003216961557766543 -0.00086593385697000401 -0.0060202648617228502 -0.0081888535635571014 -0.019213696848588865 0.0038474070450819002
leaf_weight=2.4193581864237776 10.434437677264212 3.6824884712696138 2.839940033853054 23.298574566841125 24.085597515106201 8.1657313108444196 2.6527442485094062 44.699316471815109 3.5736294835805884 3.5246353894472113 18.680089890956879 2.5306753069162369 15.001831591129301
leaf_count=21 79 29 23 175 170 62 20 335 27 27 144 20 112
internal_value=6.9816e-05 -0.009934 -0.0326163 0.00345246 0.00873094 -0.00474519 0.000177054 0.0015089 -0.00324077 -0.00879976 -0.00981092 -0.0213332 0.00337538
internal_weight=165.589 41.8429 7.78997 123.746 47.3842 34.0529 76.362 62.3539 14.0081 25.8872 22.3626 5.37062 59.7011
internal_count=1244 326 64 918 345 262 573 467 106 200 173 43 447
is_linear=0
shrinkage=0.05


Tree=5
num_leaves=14
num_cat=0
split_feature=4 0 4 0 4 0 4 0 0 3 0 4 3
split_gain=1.9525 1.86198 0.865998 0.744331 1.98474 0.263269 0.187599 0.275606 0.0465361 0.0455824 0.110627 0.00814806 0.0015999
threshold=0.011461704253155678 0.054049726575613029 0.00048987992944177791 0.09985037520527841 0.12035595596921821 0.13164734095335009 0.03180738310019305 -0.013490689918398855 0.074515648186206832 1.0000000180025095e-35 0.064877890050411238 0.0036981395686060299 1.0000000180025095e-35
decision_type=2 2 2 2 2 2 2 2 2 2 2 2 2
left_child=1 2 -1 6 -5 9 8 -8 -2 10 -3 -4 -9
right_child=3 5 11 4 -6 -7 7 12 -10 -11 -12 -13 -14
leaf_value=-0.05723376129311164 -0.0031349395913735437 -0.017361882100315168 -0.022439437566297547 0.0040478169884716588 0.019351430989305016 -0.0031349395913735437 -0.00089445398332227736 0.0030492336912491874 -0.00089445398332227736 -0.0057629228204301693 -0.0078249619579328338 -0.018508561518225507 0.0036452244023729551
leaf_weight=2.3181909620761862 10.411225438117979 3.6360341012477937 2.7932280302047729 23.369568735361099 24.413797199726105 8.1475365757942182 2.6511708945035926 44.797552481293678 3.5715068876743308 3.509981468319892 18.574126362800598 2.4966188445687294 15.041175648570059
leaf_count=21 79 29 23 175 170 62 20 335 27 27 144 20 112
internal_value=-5.95439e-06 -0.00939938 -0.0317514 0.0031295 0.00802514 -0.00437821 7.04974e-05 0.00134603 -0.00313494 -0.00839091 -0.00938625 -0.0205842 0.00319904
internal_weight=165.732 41.4757 7.60804 124.256 47.7834 33.8677 76.4726 62.4899 13.9827 25.7201 22.2102 5.28985 59.8387
internal_count=1244 326 64 918 345 262 573 467 106 200 173 43 447
is_linear=0
shrinkage=0.05


Tree=6
num_leaves=9
num_cat=0
split_feature=4 0 0 4 0 4 3 3
split_gain=1.728 1.76696 0.724971 1.11507 0.474878 0.527398 0.386328 0.0160924
threshold=0.12408357771260999 0.09985037520527841 0.030189990997314457 0.0046406488055324097 0.12540419399738315 0.019811783061455823 1.0000000180025095e-35 1.0000000180025095e-35
decision_type=2 2 2 2 2 2 2 2
left_child=2 -2 3 -1 5 6 -4 -3
right_child=1 7 4 -5 -6 -7 -8 -9
leaf_value=-0.041610775709868104 0.0010632124185126917 0.016173044977499797 -0.0092515402970351161 -0.0092515402970351161 0.0010632124185126917 -0.001851846534521067 -0.0055419229022901466 0.019024930862370358
leaf_weight=3.1516411751508704 40.413724213838577 17.562867626547817 30.015842027962208 8.5460598021745664 18.483183428645134 35.558547705411911 5.2394913807511321 6.8858322650194159
leaf_count=28 300 121 235 66 139 267 41 47
internal_value=-7.5975e-05 0.00629239 -0.00416597 -0.0158704 -0.00263272 -0.00476691 -0.009232 0.0169763
internal_weight=165.857 64.8624 100.995 11.6977 89.2971 70.8139 35.2553 24.4487
internal_count=1244 468 776 94 682 543 276 168
is_linear=0
shrinkage=0.05


Tree=7
num_leaves=13
num_cat=0
split_feature=4 0 4 0 4 0 0 4 3 0 4 3
split_gain=1.54323 1.69294 0.861326 0.565042 1.62611 0.217926 0.163786 0.283611 0.0401959 0.102974 0.00529185 0.00154536
threshold=0.011461704253155678 0.054049726575613029 0.00048987992944177791 0.09985037520527841 0.12035595596921821 0.13164734095335009 -0.013490689918398855 0.03180738310019305 1.0000000180025095e-35 0.064877890050411238 0.0036981395686060299 1.0000000180025095e-35
decision_type=2 2 2 2 2 2 2 2 2 2 2 2
left_child=1 2 -1 6 -5 8 -2 -8 9 -3 -4 -9
right_child=3 5 10 4 -6 -7 7 11 -10 -11 -12 -13
leaf_value=-0.056655251386139374 -0.0028842555173146434 -0.016349424643650506 -0.020645125107417769 0.0034897689555052668 0.017118378220579322 -0.0028842555173146434 -0.00098584138618790554 0.002899099852948164 -0.0052500265697208344 -0.0070663741520605554 -0.01743135375378765 0.0034842442353267898
leaf_weight=2.1751048788428298 2.772339552640914 3.5680363550782266 2.6895075663924217 23.408693179488182 24.991203218698502 8.1359151899814588 13.774363934993742 44.885526895523071 3.4837294071912757 18.355921506881714 2.445697546005249 15.072482019662855
leaf_count=21 21 29 23 175 170 62 105 335 27 144 20 112
internal_value=-4.59929e-05 -0.00848167 -0.0302844 0.00271315 0.00694123 -0.0037301 3.83068e-05 0.000912573 -0.0076158 -0.00857715 -0.0191145 0.0030462
internal_weight=165.759 40.8539 7.31031 124.905 48.3999 33.5436 76.5047 73.7324 25.4077 21.924 5.13521 59.958
internal_count=1244 326 64 918 345 262 573 552 200 173 43 447
is_linear=0
shrinkage=0.05


Tree=8
num_leaves=9
num_cat=0
split_feature=4 0 0 4 0 4 3 3
split_gain=1.34902 1.42077 0.622046 1.01352 0.41226 0.437468 0.354999 0.0139021
threshold=0.12408357771260999 0.09985037520527841 0.030189990997314457 0.0046406488055324097 0.12540419399738315 0.019811783061455823 1.0000000180025095e-35 1.0000000180025095e-35
decision_type=2 2 2 2 2 2 2 2
left_child=2 -2 3 -1 5 6 -4 -3
right_child=1 7 4 -5 -6 -7 -8 -9
leaf_value=-0.040143249623449839 0.00085502986900214096 0.014183717111611855 -0.0085364811479151908 -0.0085364811479151908 0.00085502986900214096 -0.0017701176614418031 -0.0051360692963866878 0.016804655145196561
leaf_weight=2.9756256416440001 40.520259097218513 17.942728593945507 29.65304247289896 8.4707097858190519 18.502831175923347 35.574732825160027 5.1876847594976416 7.0464781969785681
leaf_count=28 300 121 235 66 139 267 41 47
internal_value=-0.000114107 0.00546711 -0.00375705 -0.0147282 -0.00234474 -0.00439527 -0.00850202 0.0149228
internal_weight=165.874 65.5095 100.365 11.4463 88.9183 70.4155 34.8407 24.9892
internal_count=1244 468 776 94 682 543 276 168
is_linear=0
shrinkage=0.05


Tree=9
num_leaves=12
num_cat=0
split_feature=4 0 4 4 0 0 0 3 0 3 4
split_gain=1.20997 1.53705 0.855835 0.432206 1.18828 0.209673 0.178729 0.035476 0.0348036 0.0121862 0.00312414
threshold=0.011461704253155678 0.054049726575613029 0.00048987992944177791 0.12408357771260999 0.09985037520527841 0.12011111527681352 0.13164734095335009 1.0000000180025095e-35 0.022913071326911453 1.0000000180025095e-35 0.0036981395686060299
decision_type=2 2 2 2 2 2 2 2 2 2 2
left_child=1 2 -1 5 -5 8 7 -3 -2 -6 -4
right_child=3 6 10 4 9 -7 -8 -9 -10 -11 -12
leaf_value=-0.05613755765898637 -0.0026418709203600201 -0.0078255859624629231 -0.018908858826654797 0.0021964136583138734 0.013350393565240239 0.0021964136583138734 -0.0026418709203600201 -0.0047691152284079141 -0.0012318466602376061 0.015791834341998233 -0.01640538118525409
leaf_weight=2.0408001020550719 3.6099643260240546 21.662676110863689 2.5939240083098412 40.543753728270531 18.105252861976627 11.347546517848967 8.1245386302471143 3.4596803188323966 44.758626788854599 7.1214945763349524 2.3984726890921593
leaf_count=21 28 173 23 300 121 84 62 27 338 47 20
internal_value=-8.20646e-05 -0.0076219 -0.0288577 0.00233815 0.00513422 -0.000741388 -0.00312959 -0.00689636 -0.00243961 0.0140396 -0.0177061
internal_weight=165.767 40.2801 7.0332 125.487 65.7705 59.7161 33.2469 25.1224 48.3686 25.2267 4.9924
internal_count=1244 326 64 918 468 450 262 200 366 168 43
is_linear=0
shrinkage=0.05


Tree=10
num_leaves=11
num_cat=0
split_feature=4 0 4 0 4 0 0 4 3 4
split_gain=1.05906 1.44865 0.84023 0.378552 1.2265 0.163522 0.140415 0.245033 0.0335713 0.00294908
threshold=0.011461704253155678 0.054049726575613029 0.00048987992944177791 0.09985037520527841 0.12035595596921821 0.13164734095335009 -0.013490689918398855 0.03180738310019305 1.0000000180025095e-35 0.0036981395686060299
decision_type=2 2 2 2 2 2 2 2 2 2
left_child=1 2 -1 6 -5 8 -2 -8 -3 -4
right_child=3 5 9 4 -6 -7 7 -9 -10 -11
leaf_value=-0.055802661809037181 -0.0024988574360845181 -0.0074766605632476217 -0.018224096302162096 0.002784688965194551 0.01437274557759307 -0.0024988574360845181 -0.00083314444976623117 0.002784688965194551 -0.004530104498067883 -0.01577601850295577
leaf_weight=1.9526243358850468 2.759888529777526 21.543093986809257 2.5577592328190804 23.446056336164474 25.727716311812401 8.1097391247749311 13.702515140175818 60.107285216450691 3.4481699913740149 2.370185025036335
leaf_count=21 21 173 23 175 170 62 105 447 27 20
internal_value=-8.15733e-05 -0.00716998 -0.0280451 0.00217227 0.00559562 -0.00283075 -2.62415e-05 0.000832569 -0.00656135 -0.0170466
internal_weight=165.725 39.9816 6.88057 125.743 49.1738 33.101 76.5697 73.8098 24.9913 4.92794
internal_count=1244 326 64 918 345 262 573 552 200 43
is_linear=0
shrinkage=0.05


Tree=11
num_leaves=9
num_cat=0
split_feature=4 0 0 4 0 4 3 3
split_gain=0.911706 1.04298 0.502377 0.879449 0.33127 0.33372 0.314552 0.0106208
threshold=0.12408357771260999 0.09985037520527841 0.030189990997314457 0.0046406488055324097 0.12540419399738315 0.019811783061455823 1.0000000180025095e-35 1.0000000180025095e-35
decision_type=2 2 2 2 2 2 2 2
left_child=2 -2 3 -1 5 6 -4 -3
right_child=1 7 4 -5 -6 -7 -8 -9
leaf_value=-0.038059820974952509 0.0006137380871812561 0.011745288262969261 -0.0075490269484645919 -0.0075490269484645919 0.0006137380871812561 -0.0016175481779841482 -0.0045537669137590085 0.014003643457100066
leaf_weight=2.7415266036987296 40.675422191619873 18.42396911978722 29.164385437965393 8.3731067925691587 18.514867648482323 35.557919442653656 5.1100172102451316 7.2565971761941901
leaf_count=28 300 121 235 66 139 267 41 47
internal_value=-0.000141681 0.00439742 -0.00316995 -0.0131885 -0.00190955 -0.00384883 -0.00748999 0.0123834
internal_weight=165.818 66.356 99.4618 11.1146 88.3472 69.8323 34.2744 25.6806
internal_count=1244 468 776 94 682 543 276 168
is_linear=0
shrinkage=0.05


Tree=12
num_leaves=12
num_cat=0
split_feature=4 0 4 4 0 0 0 3 0 3 4
split_gain=0.818765 1.31171 0.833499 0.289721 0.870765 0.174971 0.132001 0.0296961 0.023725 0.00936295 0.00146027
threshold=0.011461704253155678 0.054049726575613029 0.00048987992944177791 0.12408357771260999 0.09985037520527841 0.12011111527681352 0.13164734095335009 1.0000000180025095e-35 0.022913071326911453 1.0000000180025095e-35 0.0036981395686060299
decision_type=2 2 2 2 2 2 2 2 2 2 2
left_child=1 2 -1 5 -5 8 7 -3 -2 -6 -4
right_child=3 6 10 4 9 -7 -8 -9 -10 -11 -12
leaf_value=-0.055367662786758233 -0.002268140223289208 -0.0068059685202263498 -0.016572005886650136 0.0017256649548256177 0.011074468194273953 0.0017256649548256177 -0.002268140223289208 -0.0040942214367528625 -0.0011156708940141525 0.01318614256531154 -0.014827230140817408
leaf_weight=1.8319240137934674 3.583755910396575 21.315880939364437 2.472868986427784 40.692312344908714 18.559379264712337 11.388916581869124 8.0991857349872571 3.4272232502698889 44.685517683625221 7.3194883167743674 2.3283217027783394
leaf_count=21 28 173 23 300 121 84 62 27 338 47 20
internal_value=-0.000108417 -0.00639333 -0.0266741 0.00185705 0.00412467 -0.000673343 -0.00229725 -0.0059203 -0.00226814 0.0116717 -0.0157259
internal_weight=165.705 39.4754 6.63311 126.229 66.5712 59.6582 32.8423 24.7431 48.2693 25.8789 4.80119
internal_count=1244 326 64 918 468 450 262 200 366 168 43
is_linear=0
shrinkage=0.05


Tree=13
num_leaves=12
num_cat=0
split_feature=4 0 4 4 0 0 0 3 0 3 4
split_gain=0.711594 1.23395 0.817048 0.252073 0.78998 0.163907 0.120006 0.0281535 0.0203352 0.00826738 0.00137561
threshold=0.011461704253155678 0.054049726575613029 0.00048987992944177791 0.12408357771260999 0.09985037520527841 0.12011111527681352 0.13164734095335009 1.0000000180025095e-35 0.022913071326911453 1.0000000180025095e-35 0.0036981395686060299
decision_type=2 2 2 2 2 2 2 2 2 2 2
left_child=1 2 -1 5 -5 8 7 -3 -2 -6 -4
right_child=3 6 10 4 9 -7 -8 -9 -10 -11 -12
leaf_value=-0.055078758576840914 -0.0021333006739282265 -0.0064979450820199999 -0.015947099149219796 0.0015945854285262047 0.010446869908170004 0.0015945854285262047 -0.0021333006739282265 -0.0038792641783191128 -0.0010607226857724864 0.012423503135822316 -0.014243750440293563
leaf_weight=1.7514889910817135 3.5780796557664862 21.212711244821552 2.4420835822820663 40.739817500114441 18.687240079045299 11.402215227484701 8.0864963531494123 3.4173852801322928 44.651305243372917 7.3787950426340094 2.3031691983342171
leaf_count=21 28 173 23 300 121 84 62 27 338 47 20
internal_value=-0.000103557 -0.00598807 -0.0258929 0.00172147 0.00383071 -0.000641538 -0.0021333 -0.00562523 -0.0021333 0.0110064 -0.0151204
internal_weight=165.651 39.2133 6.49674 126.437 66.8059 59.6316 32.7166 24.6301 48.2294 26.066 4.74525
internal_count=1244 326 64 918 468 450 262 200 366 168 43
is_linear=0
shrinkage=0.05


Tree=14
num_leaves=11
num_cat=0
split_feature=4 0 4 0 4 0 4 0 3 4
split_gain=0.616526 1.15975 0.800552 0.220853 0.862686 0.112376 0.195082 0.108834 0.0267067 0.00129385
threshold=0.011461704253155678 0.054049726575613029 0.00048987992944177791 0.09985037520527841 0.12035595596921821 -0.013490689918398855 0.03180738310019305 0.13164734095335009 1.0000000180025095e-35 0.0036981395686060299
decision_type=2 2 2 2 2 2 2 2 2 2
left_child=1 2 -1 5 -5 -2 -7 8 -3 -4
right_child=3 7 9 4 -6 6 -8 -9 -10 -11
leaf_value=-0.054806784574200212 -0.0020021676792643245 -0.0062025296817566277 -0.015339190632317187 0.0020433189641457898 0.011525743006685546 -0.00062516726353662637 0.0020433189641457898 -0.0020021676792643245 -0.0036723406806770304 -0.013677900161736319
leaf_weight=1.6741263270378102 2.7484255880117408 21.11445385217667 2.4126878529787064 23.474455296993256 26.522419884800911 13.628226637840269 60.258997112512589 8.0745700895786268 3.4080766439437857 2.2791537344455719
leaf_count=21 21 173 23 175 170 105 447 62 27 20
internal_value=-9.82835e-05 -0.00559834 -0.0251236 0.00159401 0.0041792 -9.25631e-05 0.000751833 -0.00200217 -0.00534251 -0.0145322
internal_weight=165.596 38.9631 6.36597 126.633 49.9969 76.6356 73.8872 32.5971 24.5225 4.69184
internal_count=1244 326 64 918 345 573 552 262 200 43
is_linear=0
shrinkage=0.05


Tree=15
num_leaves=9
num_cat=0
split_feature=4 0 0 4 0 4 3 3
split_gain=0.524223 0.701799 0.382711 0.726994 0.245101 0.234857 0.267571 0.00726822
threshold=0.12408357771260999 0.09985037520527841 0.030189990997314457 0.0046406488055324097 0.12540419399738315 0.019811783061455823 1.0000000180025095e-35 1.0000000180025095e-35
decision_type=2 2 2 2 2 2 2 2
left_child=2 -2 3 -1 5 6 -4 -3
right_child=1 7 4 -5 -6 -7 -8 -9
leaf_value=-0.03541711986787964 0.00039538513476027742 0.0092154246404047395 -0.0063776716993669174 -0.0063776716993669174 0.00039538513476027742 -0.0013966850548005677 -0.003849554446042327 0.011055627464123823
leaf_weight=2.4736220315098754 40.83596707880497 18.9414146989584 28.606262341141701 8.2629883736371976 18.518115341663361 35.50969985127449 5.015979751944541 7.4866937696933737
leaf_count=28 300 121 235 66 139 267 41 47
internal_value=-0.000142659 0.00325914 -0.00246837 -0.0113784 -0.00137694 -0.00318876 -0.00630242 0.00973673
internal_weight=165.651 67.2641 98.3867 10.7366 87.6501 69.1319 33.6222 26.4281
internal_count=1244 468 776 94 682 543 276 168
is_linear=0
shrinkage=0.05


Tree=16
num_leaves=12
num_cat=0
split_feature=4 0 4 4 0 4 0 0 0 3 3
split_gain=0.465911 1.04377 0.219791 0.540777 0.168042 0.18312 0.483155 0.0854567 0.0813347 0.0237418 0.00644392
threshold=0.011461704253155678 0.054049726575613029 0.0046406488055324097 0.00048987992944177791 -0.013490689918398855 0.12408357771260999 0.09985037520527841 0.13164734095335009 0.12011111527681352 1.0000000180025095e-35 1.0000000180025095e-35
decision_type=2 2 2 2 2 2 2 2 2 2 2
left_child=1 2 3 -1 -2 8 -7 9 -6 -3 -8
right_child=4 7 -4 -5 5 6 10 -9 -10 -11 -12
leaf_value=-0.054462034600385116 -0.0017871815335868909 -0.0056306005631672814 -0.012805902914830788 -0.021796179234662524 4.632167588965557e-05 0.0018680455740408533 0.0087042892449811227 -0.0017871815335868909 0.0018680455740408533 -0.0032921538753786701 0.010431510078917863
leaf_weight=1.5707892850041378 2.7393553256988517 20.926102474331859 2.1437110677361488 2.4400953277945518 46.875391140580177 39.370525494217873 19.04818715155125 8.0655928254127485 11.431949660181997 3.3908214420080176 7.5365702211856833
leaf_count=21 21 173 19 24 356 289 121 62 84 27 47
internal_value=-0.00011005 -0.0049255 -0.0238246 -0.0307865 0.00135114 0.00187982 0.00368977 -0.00178718 4.63217e-05 -0.00479713 0.00919394
internal_weight=165.539 38.5371 6.1546 4.01088 127.002 124.263 65.9553 32.3825 58.3073 24.3169 26.5848
internal_count=1244 326 64 45 918 897 457 262 440 200 168
is_linear=0
shrinkage=0.05


Tree=17
num_leaves=11
num_cat=0
split_feature=4 0 4 0 4 0 0 0 3 3
split_gain=0.392228 0.967113 0.208823 0.154732 0.161814 0.439633 0.076438 0.0754489 0.0225507 0.00571978
threshold=0.011461704253155678 0.054049726575613029 0.0046406488055324097 -0.013490689918398855 0.12408357771260999 0.09985037520527841 0.13164734095335009 0.12011111527681352 1.0000000180025095e-35 1.0000000180025095e-35
decision_type=2 2 2 2 2 2 2 2 2 2
left_child=1 2 -1 -2 7 -6 8 -5 -3 -7
right_child=3 6 -4 4 5 9 -8 -9 -10 -11
leaf_value=-0.029913989794458307 -0.0016693502413434305 -0.0053713384960338518 -0.012327127759579668 3.4889347016855454e-05 0.0017363779243816685 0.0082243415184244297 -0.0016693502413434305 0.0017363779243816685 -0.0031095276877533442 0.0098467781858983788
leaf_weight=3.8999386653304091 2.735972821712493 20.841555051505569 2.1234332919120789 46.876886129379272 39.420153439044952 19.149121358990673 8.055612236261366 11.446368634700773 3.3829511106014243 7.5836627632379523
leaf_count=45 21 173 19 356 289 121 62 84 27 47
internal_value=-0.000119283 -0.00455501 -0.0229849 0.00121631 0.00173913 0.00343787 -0.00166935 3.48893e-05 -0.00454971 0.0086846
internal_weight=165.516 38.3035 6.02337 127.212 124.476 66.1529 32.2801 58.3233 24.2245 26.7328
internal_count=1244 326 64 918 897 457 262 440 200 168
is_linear=0
shrinkage=0.05


Tree=18
num_leaves=9
num_cat=0
split_feature=4 0 0 4 0 4 3 3
split_gain=0.337232 0.532057 0.305952 0.613822 0.1944 0.180341 0.231076 0.00508245
threshold=0.12408357771260999 0.09985037520527841 0.030189990997314457 0.0046406488055324097 0.12540419399738315 0.019811783061455823 1.0000000180025095e-35 1.0000000180025095e-35
decision_type=2 2 2 2 2 2 2 2
left_child=2 -2 3 -1 5 6 -4 -3
right_child=1 7 4 -5 -6 -7 -8 -9
leaf_value=-0.03323660217414471 0.00028254360389118414 0.0077733588460412841 -0.0055637251006528075 -0.0055637251006528075 0.00028254360389118414 -0.0012425748137686226 -0.003386606413362421 0.0092984607926418026
leaf_weight=2.2835900932550421 40.939171150326729 19.244556292891506 28.249579779803753 8.193869084119795 18.524926230311394 35.480978146195412 4.9590355008840552 7.6281401813030234
leaf_count=28 300 121 235 66 139 267 41 47
internal_value=-0.000131742 0.00257725 -0.00201216 -0.0100851 -0.00104232 -0.00276769 -0.00553064 0.00820628
internal_weight=165.504 67.8119 97.692 10.4775 87.2145 68.6896 33.2086 26.8727
internal_count=1244 468 776 94 682 543 276 168
is_linear=0
shrinkage=0.05


Tree=19
num_leaves=11
num_cat=0
split_feature=4 0 4 0 4 0 0 0 3 3
split_gain=0.291643 0.863333 0.191218 0.13428 0.121168 0.35948 0.0662145 0.0590088 0.020221 0.00452058
threshold=0.011461704253155678 0.054049726575613029 0.0046406488055324097 -0.013490689918398855 0.12408357771260999 0.09985037520527841 0.12011111527681352 0.13164734095335009 1.0000000180025095e-35 1.0000000180025095e-35
decision_type=2 2 2 2 2 2 2 2 2 2
left_child=1 2 -1 -2 6 -6 -5 8 -3 -7
right_child=3 7 -4 4 5 9 -8 -9 -10 -11
leaf_value=-0.028549361095430111 -0.0014533194496953621 -0.0048682214555354486 -0.011582096048359662 5.1925947475376864e-05 0.0015358482766561394 0.007349315813582104 0.0015358482766561394 -0.0014533194496953621 -0.0027619908994232626 0.0087838690414038835
leaf_weight=3.7401909455656996 2.7281664609909049 20.678913429379467 2.0956576392054558 46.801398351788521 39.473816141486168 19.334814697504047 11.460030823945997 8.0478720366954786 3.3681024312973014 7.6701586544513694
leaf_count=45 21 173 19 356 289 121 84 62 27 47
internal_value=-0.000101533 -0.00395042 -0.0217109 0.00104378 0.00155717 0.00301977 5.19259e-05 -0.00145332 -0.00407066 0.00775677
internal_weight=165.399 37.9307 5.83585 127.468 124.74 66.4788 58.2614 32.0949 24.047 27.005
internal_count=1244 326 64 918 897 457 440 262 200 168
is_linear=0
shrinkage=0.05


Tree=20
num_leaves=9
num_cat=0
split_feature=4 4 0 0 4 0 4 3
split_gain=0.247241 0.821076 0.441977 0.288411 0.547509 0.162281 0.129493 0.00402458
threshold=0.12408357771260999 7.8461230533753345e-06 0.09985037520527841 0.030189990997314457 0.0046406488055324097 0.12540419399738315 0.019811783061455823 1.0000000180025095e-35
decision_type=2 2 2 2 2 2 2 2
left_child=1 -1 -2 4 -3 6 -5 -4
right_child=2 3 7 5 -6 -7 -8 -9
leaf_value=-0.058679032894699584 0.00023391123629876878 -0.030019265493309744 0.0069503478627828286 -0.0046818513910951457 -0.004837606980266574 0.00023391123629876878 -0.0010392440214559444 0.0083005711408118913
leaf_weight=0.62883202731609245 40.986348479986191 2.1708461716771117 19.420192271471027 32.727649375796318 8.1472062915563566 18.140338957309723 35.453431561589241 7.7098645567893973
leaf_count=5 300 28 121 274 66 136 267 47
internal_value=-0.000112273 -0.00173006 0.00219789 -0.0013595 -0.00926008 -0.000415137 -0.0023124 0.00733406
internal_weight=165.385 97.2683 68.1164 96.6395 10.3181 86.3214 68.1811 27.1301
internal_count=1244 776 468 771 94 677 541 168
is_linear=0
shrinkage=0.05


Tree=21
num_leaves=11
num_cat=0
split_feature=4 0 4 0 4 0 0 0 3 3
split_gain=0.209083 0.773606 0.175104 0.114997 0.0899665 0.294445 0.0573984 0.0432007 0.0184443 0.00358607
threshold=0.011461704253155678 0.054049726575613029 0.0046406488055324097 -0.013490689918398855 0.12408357771260999 0.09985037520527841 0.12011111527681352 0.13164734095335009 1.0000000180025095e-35 1.0000000180025095e-35
decision_type=2 2 2 2 2 2 2 2 2 2
left_child=1 2 -1 -2 6 -6 -5 8 -3 -7
right_child=3 7 -4 4 5 9 -8 -9 -10 -11
leaf_value=-0.027237179255679297 -0.0012341705549196794 -0.0043967655907528099 -0.010867411707606814 7.9206925260604923e-05 0.0013634701625862321 0.0065747588755043808 0.0013634701625862321 -0.0012341705549196794 -0.0024238177476262465 0.0078463396174557939
leaf_weight=3.5957263484597197 2.7213771417736998 20.52818068116904 2.0700949355959892 46.736758410930634 39.520879790186882 19.500970289111141 11.472090899944304 8.0253222882747632 3.3512558415532103 7.7473944574594489
leaf_count=45 21 173 19 356 289 121 84 62 27 47
internal_value=-7.71332e-05 -0.00335584 -0.0205007 0.000887498 0.00139258 0.00264773 7.92069e-05 -0.00123417 -0.00361346 0.0069363
internal_weight=165.27 37.5706 5.66582 127.699 124.978 66.7692 58.2088 31.9048 23.8794 27.2484
internal_count=1244 326 64 918 897 457 440 262 200 168
is_linear=0
shrinkage=0.05


Tree=22
num_leaves=9
num_cat=0
split_feature=4 4 0 0 4 0 4 3
split_gain=0.176835 0.779183 0.367608 0.249679 0.491016 0.134916 0.108095 0.00319787
threshold=0.12408357771260999 7.8461230533753345e-06 0.09985037520527841 0.030189990997314457 0.0046406488055324097 0.12540419399738315 0.019811783061455823 1.0000000180025095e-35
decision_type=2 2 2 2 2 2 2 2
left_child=1 -1 -2 4 -3 6 -5 -4
right_child=2 3 7 5 -6 -7 -8 -9
leaf_value=-0.058165990154996343 0.0001993508732940838 -0.02963622172193793 0.0062209889802088258 -0.0042615361698519075 -0.0043718955328533489 0.0001993508732940838 -0.00094070243405647725 0.0074191445245294103
leaf_weight=0.60204755514860053 41.027839854359627 2.0702212229371062 19.577413797378544 32.512392647564411 8.1060486510395986 18.144641950726509 35.431305527687073 7.7828765213489524
leaf_count=5 300 28 121 274 66 136 267 47
internal_value=-8.67948e-05 -0.00146109 0.00185979 -0.00110645 -0.00851282 -0.000230966 -0.00208076 0.00656181
internal_weight=165.255 96.8667 68.3881 96.2646 10.1763 86.0883 67.9437 27.3603
internal_count=1244 776 468 771 94 677 541 168
is_linear=0
shrinkage=0.05


Tree=23
num_leaves=8
num_cat=0
split_feature=4 0 4 4 0 0 0
split_gain=0.148477 0.137803 0.455234 0.197413 0.174191 0.161895 0.144818
threshold=0.00014965559032361012 0.09985037520527841 0.12035595596921821 0.03180738310019305 -0.013490689918398855 0.12540419399738315 0.074515648186206832
decision_type=2 2 2 2 2 2 2
left_child=-1 3 5 6 -5 -3 -2
right_child=1 2 -4 4 -6 -7 -8
leaf_value=-0.0077529056793972251 -0.0037572242825702241 0.00053932001224482661 0.007335368193695878 -0.0016089521351626988 0.00053932001224482661 0.0039373441029703525 -0.0016089521351626988
leaf_weight=6.0328207314014426 23.216677986085415 18.771649174392223 27.748310402035713 2.5913058817386618 60.453593730926514 17.099418818950653 9.2313996255397779
leaf_count=57 201 146 170 20 447 128 75
internal_value=-5.34706e-05 0.000238457 0.00204122 -0.000962581 0.00053932 0.00053932 -0.00375722
internal_weight=165.145 159.112 63.6194 95.493 63.0449 35.8711 32.4481
internal_count=1244 1187 444 743 467 274 276
is_linear=0
shrinkage=0.05


Tree=24
num_leaves=9
num_cat=0
split_feature=4 0 4 4 0 0 0 4
split_gain=0.132914 0.114793 0.422024 0.184128 0.220125 0.147957 0.0984451 0.0452144
threshold=0.00014965559032361012 0.09985037520527841 0.12035595596921821 0.0099362796559520263 0.064877890050411238 0.12540419399738315 -0.013490689918398855 0.03180738310019305
decision_type=2 2 2 2 2 2 2 2
left_child=-1 3 5 4 -2 -3 -5 -8
right_child=1 2 -4 6 -6 -7 7 -9
leaf_value=-0.0074088764777240929 -0.0036179574726319316 0.00044520553788865013 0.0069378351391214538 -0.0016949241979713787 -0.0016949241979713787 0.0036915203385050523 -0.00062485933004136421 0.00044520553788865013
leaf_weight=5.9982117079198352 7.0408105105161694 18.778694286942482 27.86818790435791 2.712168686091899 10.475720897316931 17.145359545946121 14.733906105160711 60.475679367780685
leaf_count=57 71 146 170 21 88 128 116 447
internal_value=-0.000102278 0.000172962 0.00181503 -0.00092462 -0.00361796 0.000445206 0.000228109 0.000445206
internal_weight=165.229 159.231 63.7922 95.4383 17.5165 35.9241 77.9218 75.2096
internal_count=1244 1187 444 743 159 274 584 563
is_linear=0
shrinkage=0.05


Tree=25
num_leaves=11
num_cat=0
split_feature=3 0 4 4 4 0 4 4 4 4
split_gain=0.124887 0.601186 0.464659 0.39634 0.153279 0.131023 0.0551511 0.0431412 0.0122807 0.000771122
threshold=1.0000000180025095e-35 0.034362651407718665 0.094157072590670784 0.01273046382955661 0.0046406488055324097 0.09985037520527841 0.19707268599347191 0.081357791995186154 5.3814340741928654e-05 0.0055153037444235298
decision_type=2 2 2 2 2 2 2 2 2 2
left_child=1 2 4 8 -1 6 -2 -7 -3 -10
right_child=5 3 -4 -5 -6 7 -8 -9 9 -11
leaf_value=-0.030219998128661642 0.00073412273582852217 -0.0048772604018106729 -0.0048772604018106729 0.00073412273582852217 -0.014645531677639632 0.0033577490787309039 0.0033577490787309039 0.0082125313959957452 -0.0039496020339747006 -0.0033665857598853717
leaf_weight=2.0528192073106748 13.615559689700605 2.5848505124449757 6.6228452473878852 82.972249463200569 6.8556150197982788 6.4434346854686728 8.401523679494856 9.1220442205667478 18.480579636991028 8.1827807053923589
leaf_count=28 109 22 49 591 56 49 61 56 156 67
internal_value=-0.000160005 -0.000905351 -0.0101252 0.000370673 -0.0182344 0.0023736 0.000734123 0.00598138 -0.00487726 -0.00377068
internal_weight=165.334 127.752 15.5313 112.22 8.90843 37.5826 22.0171 15.5655 29.2482 26.6634
internal_count=1244 969 133 836 84 275 170 105 245 223
is_linear=0
shrinkage=0.05


Tree=26
num_leaves=9
num_cat=0
split_feature=4 0 4 4 0 0 0 4
split_gain=0.110896 0.0857794 0.37489 0.162027 0.209019 0.130859 0.0873537 0.0327248
threshold=0.00014965559032361012 0.09985037520527841 0.12035595596921821 0.0099362796559520263 0.064877890050411238 0.12540419399738315 -0.013490689918398855 0.03180738310019305
decision_type=2 2 2 2 2 2 2 2
left_child=-1 3 5 4 -2 -3 -5 -8
right_child=1 2 -4 6 -6 -7 7 -9
leaf_value=-0.0068351169186952002 -0.0033558414470668744 0.00035591326719443825 0.0064086937029392416 -0.001551581210404265 -0.001551581210404265 0.0033823034850668401 -0.00059783397160491326 0.00035591326719443825
leaf_weight=5.9390545785427085 6.9636598676443127 18.782032400369644 28.028107166290283 2.69841144979 10.438028775155543 17.189444527029991 14.693568877875803 60.50094810128212
leaf_count=57 71 146 170 21 88 128 116 447
internal_value=-0.00012668 0.000123434 0.00153925 -0.000827425 -0.00335584 0.000355913 0.000252679 0.000355913
internal_weight=165.233 159.294 63.9996 95.2946 17.4017 35.9715 77.8929 75.1945
internal_count=1244 1187 444 743 159 274 584 563
is_linear=0
shrinkage=0.05


Tree=27
num_leaves=10
num_cat=0
split_feature=3 4 0 4 4 0 4 4 4
split_gain=0.102519 0.565092 0.464461 0.298177 0.186017 0.111355 0.0509267 0.0352509 0.000585087
threshold=1.0000000180025095e-35 5.3814340741928654e-05 0.034362651407718665 0.094157072590670784 0.01273046382955661 0.09985037520527841 0.19707268599347191 0.081357791995186154 0.0055153037444235298
decision_type=2 2 2 2 2 2 2 2 2
left_child=1 -1 3 -3 8 6 -2 -7 -4
right_child=5 2 4 -5 -6 7 -8 -9 -10
leaf_value=-0.022702564571506163 0.00062805309809235818 -0.011525820851097076 -0.0037227119265222167 -0.0039842514305406546 0.00062805309809235818 0.0030298381099239033 0.0030298381099239033 0.0074347726607404052 -0.0032141846046518981
leaf_weight=2.8928494825959197 13.615477651357653 8.4441939517855626 18.415533177554611 6.6010229587554923 83.110995084047318 6.4639180377125731 8.421918258070944 9.1980912387371045 8.1637771651148778
leaf_count=28 109 78 156 49 591 49 61 56 67
internal_value=-0.00017905 -0.000855746 -0.000349077 -0.00859656 0.000628053 0.00211185 0.000628053 0.00543162 -0.00356652
internal_weight=165.328 127.628 124.736 15.0452 109.69 37.6994 22.0374 15.662 26.5793
internal_count=1244 969 941 127 814 275 170 105 223
is_linear=0
shrinkage=0.05


Tree=28
num_leaves=10
num_cat=0
split_feature=3 4 0 4 4 0 4 4 4
split_gain=0.0857382 0.522025 0.428041 0.284532 0.166585 0.101955 0.0463898 0.0318359 0.000532423
threshold=1.0000000180025095e-35 5.3814340741928654e-05 0.034362651407718665 0.094157072590670784 0.01273046382955661 0.09985037520527841 0.19707268599347191 0.081357791995186154 0.0055153037444235298
decision_type=2 2 2 2 2 2 2 2 2
left_child=1 -1 3 -3 8 6 -2 -7 -4
right_child=5 2 4 -5 -6 7 -8 -9 -10
leaf_value=-0.021947532528064119 0.00058970903330952853 -0.011115246290264764 -0.0035463733227811493 -0.0038232523296227814 0.00058970903330952853 0.0028612499497975841 0.0028612499497975841 0.0070317939845205048 -0.0030606843676610641
leaf_weight=2.8440149798989287 13.621470637619497 8.3725031577050668 18.36595451831818 6.5831801891326895 83.145283401012421 6.4773681089282027 8.4389988481998426 9.2379042506217939 8.1450410410761815
leaf_count=28 109 78 156 49 591 49 61 56 67
internal_value=-0.000146313 -0.000766377 -0.00028296 -0.00823621 0.000589709 0.00194579 0.000589709 0.00513279 -0.00339715
internal_weight=165.232 127.456 124.612 14.9557 109.656 37.7757 22.0605 15.7153 26.511
internal_count=1244 969 941 127 814 275 170 105 223
is_linear=0
shrinkage=0.05


Tree=29
num_leaves=10
num_cat=0
split_feature=3 4 0 4 4 0 4 4 4
split_gain=0.0711797 0.482052 0.394066 0.271418 0.148803 0.0933516 0.0421449 0.0287713 0.000484322
threshold=1.0000000180025095e-35 5.3814340741928654e-05 0.034362651407718665 0.094157072590670784 0.01273046382955661 0.09985037520527841 0.19707268599347191 0.081357791995186154 0.0055153037444235298
decision_type=2 2 2 2 2 2 2 2 2
left_child=1 -1 3 -3 8 6 -2 -7 -4
right_child=5 2 4 -5 -6 7 -8 -9 -10
leaf_value=-0.021207562666721729 0.00055416733080981362 -0.010713521915963798 -0.0033779572962156605 -0.0036667301905068243 0.00055416733080981362 0.0027026442267329706 0.0027026442267329706 0.0066523681700134023 -0.0029141925400414589
leaf_weight=2.7972960323095313 13.62709851562977 8.3037111274898034 18.318793013691906 6.566078081727027 83.177482277154922 6.490081198513507 8.4551410973072034 9.2755620628595334 8.127220578491686
leaf_count=28 109 78 156 49 591 49 61 56 67
internal_value=-0.000114669 -0.000680708 -0.000219481 -0.00788763 0.000554167 0.00178904 0.000554167 0.00485112 -0.00323544
internal_weight=165.138 127.291 124.493 14.8698 109.623 37.8479 22.0822 15.7656 26.446
internal_count=1244 969 941 127 814 275 170 105 223
is_linear=0
shrinkage=0.05


Tree=30
num_leaves=10
num_cat=0
split_feature=3 4 0 4 4 0 4 4 4
split_gain=0.0585988 0.444968 0.362399 0.258821 0.132524 0.0854669 0.0381701 0.026019 0.000440407
threshold=1.0000000180025095e-35 5.3814340741928654e-05 0.034362651407718665 0.094157072590670784 0.01273046382955661 0.09985037520527841 0.19707268599347191 0.081357791995186154 0.0055153037444235298
decision_type=2 2 2 2 2 2 2 2 2
left_child=1 -1 3 -3 8 6 -2 -7 -4
right_child=5 2 4 -5 -6 7 -8 -9 -10
leaf_value=-0.020482823638867956 0.00052119939002202474 -0.010320698474568589 -0.0032171466371507767 -0.0035147258917115282 0.00052119939002202474 0.0025533574690625076 0.0025533574690625076 0.0062949338875085111 -0.002774420428541141
leaf_weight=2.7526169493794432 13.632388386875393 8.2377286069095117 18.27393259853125 6.5496931523084632 83.207746163010597 6.5020993798971167 8.4703994989395124 9.3111888468265516 8.1102721542119962
leaf_count=28 109 78 156 49 591 49 61 56 67
internal_value=-8.41171e-05 -0.000598627 -0.000158573 -0.00755065 0.000521199 0.00164103 0.000521199 0.00458552 -0.00308106
internal_weight=165.048 127.132 124.379 14.7874 109.592 37.9161 22.1028 15.8133 26.3842
internal_count=1244 969 941 127 814 275 170 105 223
is_linear=0
shrinkage=0.05


Tree=31
num_leaves=10
num_cat=0
split_feature=3 4 0 4 4 0 4 4 4
split_gain=0.0477757 0.410582 0.332903 0.246726 0.117613 0.0782324 0.0344457 0.023545 0.000400324
threshold=1.0000000180025095e-35 5.3814340741928654e-05 0.034362651407718665 0.094157072590670784 0.01273046382955661 0.09985037520527841 0.19707268599347191 0.081357791995186154 0.0055153037444235298
decision_type=2 2 2 2 2 2 2 2 2
left_child=1 -1 3 -3 8 6 -2 -7 -4
right_child=5 2 4 -5 -6 7 -8 -9 -10
leaf_value=-0.0197734801700831 0.00049059570976917814 -0.0099368235504186803 -0.0030636286797054869 -0.0033672599015434771 0.00049059570976917814 0.002412774902813 0.002412774902813 0.0059580458876143886 -0.0026410873650374134
leaf_weight=2.7099030539393416 13.637364726513626 8.1744676008820516 18.231265075504783 6.5340038537979117 83.236211240291595 6.5134625881910315 8.4848240017890912 9.3449003994464857 8.0941538736224157
leaf_count=28 109 78 156 49 591 49 61 56 67
internal_value=-5.46505e-05 -0.000520019 -0.000100167 -0.00722512 0.000490596 0.00150121 0.000490596 0.00433495 -0.00293371
internal_weight=164.961 126.98 124.27 14.7085 109.562 37.9806 22.1222 15.8584 26.3254
internal_count=1244 969 941 127 814 275 170 105 223
is_linear=0
shrinkage=0.05


Tree=32
num_leaves=9
num_cat=0
split_feature=4 4 0 0 4 0 0 0
split_gain=0.0401237 0.66036 0.184768 0.121532 0.0977354 1.22791 0.00946624 0.000441204
threshold=0.12408357771260999 7.8461230533753345e-06 0.09985037520527841 0.12540419399738315 0.0099362796559520263 0.057844016700983054 0.032049620524048812 0.022913071326911453
decision_type=2 2 2 2 2 2 2 2
left_child=1 -1 -2 4 5 6 -3 -6
right_child=2 3 -4 -5 7 -7 -8 -9
leaf_value=-0.056746013288008545 0.00010102473528187496 -0.026526679966473201 0.0043461536034857364 0.00010102473528187496 -0.002090258916524364 -0.0026817204227908478 -0.022685090598155062 -0.00092808787824790471
leaf_weight=0.52250246703624625 41.131628155708313 3.5021674036979702 28.029257595539093 18.238111682236195 3.5739693641662589 20.028778530657291 2.9580529853701591 46.891489520668983
leaf_count=5 300 45 168 136 30 172 30 358
internal_value=-2.62595e-05 -0.000689288 0.000891337 -0.000381598 -0.0019572 -0.00443535 -0.0247677 -0.000928088
internal_weight=164.876 95.7151 69.1609 95.1926 76.9545 26.489 6.46022 50.4655
internal_count=1244 776 468 771 635 247 75 388
is_linear=0
shrinkage=0.05


Tree=33
num_leaves=10
num_cat=0
split_feature=3 4 0 4 4 0 4 4 4
split_gain=0.0365516 0.353709 0.287836 0.223073 0.0952081 0.0659724 0.0303262 0.0188698 0.000301531
threshold=1.0000000180025095e-35 5.3814340741928654e-05 0.034362651407718665 0.094157072590670784 0.01273046382955661 0.09985037520527841 0.19707268599347191 0.081357791995186154 0.0055153037444235298
decision_type=2 2 2 2 2 2 2 2 2
left_child=1 -1 3 -3 8 6 -2 -7 -4
right_child=5 2 4 -5 -6 7 -8 -9 -10
leaf_value=-0.018511450397326989 0.00049927003547080317 -0.0092554694203637582 -0.0027316458636881379 -0.0030889773509238314 0.00049927003547080317 0.0022476479633875596 0.0022476479633875596 0.005441211918667338 -0.002364105093982044
leaf_weight=2.6351727321743956 13.609584055840971 8.0527068823575956 18.137619651854042 6.5185849890112868 83.295915275812149 6.521416760981082 8.4990341663360578 9.3964126706123334 8.0601950660347921
leaf_count=28 109 78 156 49 591 49 61 56 67
internal_value=2.35241e-05 -0.000384509 5.11557e-07 -0.00667722 0.00049927 0.00138305 0.00049927 0.00399603 -0.00261857
internal_weight=164.727 126.7 124.065 14.5713 109.494 38.0264 22.1086 15.9178 26.1978
internal_count=1244 969 941 127 814 275 170 105 223
is_linear=0
shrinkage=0.05


Tree=34
num_leaves=10
num_cat=0
split_feature=3 4 0 4 4 0 4 4 4
split_gain=0.0291705 0.325945 0.263767 0.212421 0.0837665 0.0603796 0.027228 0.0170832 0.000273805
threshold=1.0000000180025095e-35 5.3814340741928654e-05 0.034362651407718665 0.094157072590670784 0.01273046382955661 0.09985037520527841 0.19707268599347191 0.081357791995186154 0.0055153037444235298
decision_type=2 2 2 2 2 2 2 2 2
left_child=1 -1 3 -3 8 6 -2 -7 -4
right_child=5 2 4 -5 -6 7 -8 -9 -10
leaf_value=-0.017846405176821799 0.00047132008045672912 -0.0088984797081608849 -0.0026003710679387494 -0.002956268119625564 0.00047132008045672912 0.0021255622641141807 0.0021255622641141807 0.005152754175197948 -0.0022498220938801067
leaf_weight=2.5976775661110869 13.614344045519831 7.9968216121196729 18.101547837257389 6.504823736846447 83.323183327913284 6.5314315631985655 8.5117471963167173 9.4255413860082609 8.0465072914957982
leaf_count=28 109 78 156 49 591 49 61 56 67
internal_value=4.72124e-05 -0.000317841 4.94458e-05 -0.00638386 0.00047132 0.00126048 0.00047132 0.0037798 -0.0024925
internal_weight=164.654 126.571 123.973 14.5016 109.471 38.0831 22.1261 15.957 26.1481
internal_count=1244 969 941 127 814 275 170 105 223
is_linear=0
shrinkage=0.05


Tree=35
num_leaves=11
num_cat=0
split_feature=3 0 4 4 4 0 4 4 4 4
split_gain=0.0229272 0.301446 0.319765 0.149911 0.138168 0.0552291 0.0243188 0.0154746 0.00848135 0.000248556
threshold=1.0000000180025095e-35 0.034362651407718665 0.094157072590670784 0.01273046382955661 0.0046406488055324097 0.09985037520527841 0.19707268599347191 0.081357791995186154 5.3814340741928654e-05 0.0055153037444235298
decision_type=2 2 2 2 2 2 2 2 2 2
left_child=1 2 4 8 -1 6 -2 -7 -3 -10
right_child=5 3 -4 -5 -6 7 -8 -9 9 -11
leaf_value=-0.026487782760206469 0.00044524234853684412 -0.0032763989258375922 -0.0032763989258375922 0.00044524234853684412 -0.010869003898010536 0.0020104023903295977 0.0020104023903295977 0.0048804589457022854 -0.0024751648006073471 -0.0021408845221949683
leaf_weight=1.8174742162227611 13.618838265538217 2.2780826613307026 6.4916656762361518 83.348933279514313 6.4096361175179482 6.5409081876277915 8.5237762182950956 9.4531215429306013 18.067246638238434 8.0334926992654783
leaf_count=28 109 22 49 591 56 49 61 56 156 67
internal_value=7.00037e-05 -0.00025409 -0.00699804 0.000445242 -0.0143194 0.00114457 0.000445242 0.00357556 -0.00320812 -0.00237228
internal_weight=164.583 126.447 14.7188 111.728 8.22711 38.1366 22.1426 15.994 28.3788 26.1007
internal_count=1244 969 133 836 84 275 170 105 245 223
is_linear=0
shrinkage=0.05


Tree=36
num_leaves=10
num_cat=0
split_feature=3 4 0 4 4 0 4 4 4
split_gain=0.01751 0.29383 0.210688 0.196265 0.0639601 0.0504205 0.0214677 0.0140226 0.000225576
threshold=1.0000000180025095e-35 5.3814340741928654e-05 0.034362651407718665 0.094157072590670784 0.01273046382955661 0.09985037520527841 0.19707268599347191 0.081357791995186154 0.0055153037444235298
decision_type=2 2 2 2 2 2 2 2 2
left_child=1 -1 3 -3 8 6 -2 -7 -4
right_child=5 2 4 -5 -6 7 -8 -9 -10
leaf_value=-0.0169890448998299 0.00042402540660610948 -0.0084149108878557883 -0.0023557717459140046 -0.002631624543398044 0.00042402540660610948 0.0019033021602624734 0.0019033021602624734 0.0046233252057174701 -0.0020370606982933674
leaf_weight=2.5494735538959494 13.623084828257563 7.8583258502185327 18.034630954265598 6.4770958796143532 83.373260334134102 6.5498770922422436 8.5351593643426877 9.4792401641607267 8.0211186036467534
leaf_count=28 109 78 156 49 591 49 61 56 67
internal_value=9.67454e-05 -0.000186891 0.000159223 -0.00568727 0.000424025 0.00103494 0.000424025 0.00338258 -0.00225766
internal_weight=164.501 126.314 123.764 14.3354 109.429 38.1874 22.1582 16.0291 26.0557
internal_count=1244 969 941 127 814 275 170 105 223
is_linear=0
shrinkage=0.05


Tree=37
num_leaves=10
num_cat=0
split_feature=3 4 0 4 4 0 4 4 4
split_gain=0.0131639 0.27058 0.191624 0.186675 0.0551645 0.0460301 0.0188816 0.0127163 0.000204666
threshold=1.0000000180025095e-35 5.3814340741928654e-05 0.034362651407718665 0.094157072590670784 0.01273046382955661 0.09985037520527841 0.19707268599347191 0.081357791995186154 0.0055153037444235298
decision_type=2 2 2 2 2 2 2 2 2
left_child=1 -1 3 -3 8 6 -2 -7 -4
right_child=5 2 4 -5 -6 7 -8 -9 -10
leaf_value=-0.016361040919799914 0.000401629574452754 -0.0080793571743465516 -0.0022419392461182916 -0.0025098366868737594 0.000401629574452754 0.0018008877343354398 0.0018008877343354398 0.0043804234841456633 -0.0019381239062362767
leaf_weight=2.5158404931426039 13.627129599452021 7.8083171807229501 18.003619529306892 6.4654039591550827 83.396427944302559 6.5583727210760143 8.5459411293268186 9.5039793252944929 8.009354539215563
leaf_count=28 109 78 156 49 591 49 61 56 67
internal_value=0.000118374 -0.000127873 0.000202327 -0.0054213 0.00040163 0.000931132 0.00040163 0.00320015 -0.00214839
internal_weight=164.434 126.199 123.683 14.2737 109.409 38.2354 22.1731 16.0624 26.013
internal_count=1244 969 941 127 814 275 170 105 223
is_linear=0
shrinkage=0.05


Tree=38
num_leaves=5
num_cat=0
split_feature=0 4 3 4
split_gain=0.00998206 0.0466727 0.0376736 0.0133183
threshold=-0.013490689918398855 0.011461704253155678 1.0000000180025095e-35 0.12408357771260999
decision_type=2 2 2 2
left_child=-1 2 -2 -3
right_child=1 3 -4 -5
leaf_value=-0.0028786674806800566 -0.0013446296859283757 8.5427267884283719e-05 -0.00035161168727603349 0.0011165447171299311
leaf_weight=2.695308454334735 29.48118557035923 58.079416617751122 6.1530838273465625 67.96112060546875
leaf_count=22 272 440 53 457
internal_value=0.000139098 0.000189408 -0.00134463 0.000641406
internal_weight=164.37 161.675 35.6343 126.041
internal_count=1244 1222 325 897
is_linear=0
shrinkage=0.05


Tree=39
num_leaves=10
num_cat=0
split_feature=3 4 0 4 4 0 4 4 4
split_gain=0.00928382 0.247035 0.172527 0.176223 0.043132 0.041625 0.0159625 0.0110996 0.000169108
threshold=1.0000000180025095e-35 5.3814340741928654e-05 0.034362651407718665 0.094157072590670784 0.01273046382955661 0.09985037520527841 0.19707268599347191 0.081357791995186154 0.0055153037444235298
decision_type=2 2 2 2 2 2 2 2 2
left_child=1 -1 3 -3 8 6 -2 -7 -4
right_child=5 2 4 -5 -6 7 -8 -9 -10
leaf_value=-0.01569855470227317 0.00036696201971773182 -0.0077312608412417787 -0.002068264083162658 -0.0023942884103268901 0.00036696201971773182 0.0016835896028478744 0.0016835896028478744 0.0040998920646509104 -0.001791779950884808
leaf_weight=2.4811158031225196 13.630709107965233 7.7563228681683523 17.956464119255546 6.4556436687707901 83.452825874090195 6.5658943057060268 8.5613754242658597 9.5325154066085798 7.9919485896825782
leaf_count=28 109 78 156 49 591 49 61 56 67
internal_value=0.000129555 -7.75065e-05 0.000236033 -0.00515554 0.000366962 0.000811431 0.000366962 0.00300022 -0.00198311
internal_weight=164.385 126.094 123.613 14.212 109.401 38.2905 22.1921 16.0984 25.9484
internal_count=1244 969 941 127 814 275 170 105 223
is_linear=0
shrinkage=0.05


Tree=40
num_leaves=5
num_cat=0
split_feature=0 4 3 4
split_gain=0.00826565 0.0361016 0.0335554 0.0108593
threshold=-0.013490689918398855 0.011461704253155678 1.0000000180025095e-35 0.12408357771260999
decision_type=2 2 2 2
left_child=-1 2 -2 -3
right_child=1 3 -4 -5
leaf_value=-0.0026024826557491565 -0.0012036832700060016 8.9517372590952805e-05 -0.00030598233599897392 0.0010203662166111307
leaf_weight=2.6841000691056243 29.36948424205184 58.074252873659134 6.1558717228472224 68.039479732513428
leaf_count=22 272 440 53 457
internal_value=0.000149419 0.000195116 -0.00120368 0.000591719
internal_weight=164.323 161.639 35.5254 126.114
internal_count=1244 1222 325 897
is_linear=0
shrinkage=0.05


Tree=41
num_leaves=5
num_cat=0
split_feature=0 4 3 4
split_gain=0.0074622 0.0329032 0.0318482 0.00978967
threshold=-0.013490689918398855 0.011461704253155678 1.0000000180025095e-35 0.12408357771260999
decision_type=2 2 2 2
left_child=-1 2 -2 -3
right_child=1 3 -4 -5
leaf_value=-0.0024770557142743403 -0.0011467697626077629 8.5035946548497638e-05 -0.00029242854600863795 0.00096870874147651504
leaf_weight=2.6791402474045745 29.343201287090778 58.077818684279919 6.1545139439404002 68.083154916763306
leaf_count=22 272 440 53 457
internal_value=0.000140142 0.000183516 -0.00114677 0.000561913
internal_weight=164.338 161.659 35.4977 126.161
internal_count=1244 1222 325 897
is_linear=0
shrinkage=0.05


Tree=42
num_leaves=5
num_cat=0
split_feature=0 4 3 4
split_gain=0.00673599 0.0299968 0.0302293 0.00882594
threshold=-0.013490689918398855 0.011461704253155678 1.0000000180025095e-35 0.12408357771260999
decision_type=2 2 2 2
left_child=-1 2 -2 -3
right_child=1 3 -4 -5
leaf_value=-0.0023574620435107916 -0.0010924687795011432 8.0780215599819149e-05 -0.00027942412451695042 0.00091969987692317378
leaf_weight=2.6744238287210456 29.318173661828041 58.081206656992435 6.153216339647769 68.124628141522408
leaf_count=22 272 440 53 457
internal_value=0.000131355 0.000172524 -0.00109247 0.000533621
internal_weight=164.352 161.677 35.4714 126.206
internal_count=1244 1222 325 897
is_linear=0
shrinkage=0.05


Tree=43
num_leaves=5
num_cat=0
split_feature=0 4 3 4
split_gain=0.00607967 0.0273552 0.0286939 0.00795752
threshold=-0.013490689918398855 0.011461704253155678 1.0000000180025095e-35 0.12408357771260999
decision_type=2 2 2 2
left_child=-1 2 -2 -3
right_child=1 3 -4 -5
leaf_value=-0.0022434504355634561 -0.0010406718342675964 7.6735994280959489e-05 -0.00026695543698075939 0.00087319704528847342
leaf_weight=2.6699392572045317 29.294343426823616 58.084424234926701 6.1519764177501193 68.164008900523186
leaf_count=22 272 440 53 457
internal_value=0.000123031 0.000162107 -0.00104067 0.000506761
internal_weight=164.365 161.695 35.4463 126.248
internal_count=1244 1222 325 897
is_linear=0
shrinkage=0.05


Tree=44
num_leaves=10
num_cat=0
split_feature=3 4 0 4 0 4 4 4 4
split_gain=0.00563679 0.220748 0.151603 0.163301 0.0367789 0.0242578 0.0121523 0.00872274 0.000105685
threshold=1.0000000180025095e-35 5.3814340741928654e-05 0.034362651407718665 0.094157072590670784 0.09985037520527841 0.01273046382955661 0.19707268599347191 0.081357791995186154 0.0055153037444235298
decision_type=2 2 2 2 2 2 2 2 2
left_child=1 -1 3 -3 6 8 -2 -6 -4
right_child=4 2 5 -5 7 -7 -8 -9 -10
leaf_value=-0.014933197190593609 0.00029968295523259236 -0.0073427114342844036 -0.0017498322872285578 -0.0022894514244291989 0.0015224105657980504 0.00029968295523259236 0.0015224105657980504 0.0037132569880975255 -0.001530803999485407
leaf_weight=2.4419433176517478 13.633757650852205 7.6970472037792188 17.870502665638927 6.4497964307665825 6.5718498378992107 83.590724483132362 8.5886736363172513 9.5717487484216672 7.9609659388661376
leaf_count=28 109 78 156 49 49 591 61 56 67
internal_value=0.000115145 -4.64149e-05 0.000247774 -0.00487859 0.000645781 0.000299683 0.000299683 0.00274514 -0.00168233
internal_weight=164.377 126.011 123.569 14.1468 38.366 109.422 22.2224 16.1436 25.8315
internal_count=1244 969 941 127 275 814 170 105 223
is_linear=0
shrinkage=0.05


Tree=45
num_leaves=5
num_cat=0
split_feature=0 4 3 4
split_gain=0.00493514 0.0206585 0.0366888 0.00658322
threshold=-0.013490689918398855 0.0099362796559520263 1.0000000180025095e-35 0.12408357771260999
decision_type=2 2 2 2
left_child=-1 2 -2 -3
right_child=1 3 -4 -5
leaf_value=-0.0020017141871788249 -0.00091610524026505878 7.6241602149366966e-05 -0.00022847332272902168 0.00079484210090883872
leaf_weight=2.6602448746561995 27.827471237629652 59.811704099178314 5.7907821498811236 68.227712839841843
leaf_count=22 260 455 50 457
internal_value=0.000134353 0.000169504 -0.000916105 0.000459159
internal_weight=164.318 161.658 33.6183 128.039
internal_count=1244 1222 310 912
is_linear=0
shrinkage=0.05


Tree=46
num_leaves=5
num_cat=0
split_feature=0 4 3 4
split_gain=0.00445355 0.0188378 0.0348573 0.00593625
threshold=-0.013490689918398855 0.0099362796559520263 1.0000000180025095e-35 0.12408357771260999
decision_type=2 2 2 2
left_child=-1 2 -2 -3
right_child=1 3 -4 -5
leaf_value=-0.0019044177768609224 -0.00087241392838985409 7.2425282322042005e-05 -0.00021817266185971383 0.00075471359592087694
leaf_weight=2.6564479470252982 27.808462675660849 59.81483843177557 5.7898277193307868 68.261755779385567
leaf_count=22 260 455 50 457
internal_value=0.000126225 0.00015959 -0.000872414 0.000436069
internal_weight=164.331 161.675 33.5983 128.077
internal_count=1244 1222 310 912
is_linear=0
shrinkage=0.05


Tree=47
num_leaves=5
num_cat=0
split_feature=0 4 3 4
split_gain=0.00401849 0.017183 0.0331178 0.0053531
threshold=-0.013490689918398855 0.0099362796559520263 1.0000000180025095e-35 0.12408357771260999
decision_type=2 2 2 2
left_child=-1 2 -2 -3
right_child=1 3 -4 -5
leaf_value=-0.0018117226749144934 -0.00083076612286948556 6.8801213848583285e-05 -0.00020830951167077785 0.00071663063391314463
leaf_weight=2.6528382003307334 27.790368553251028 59.817815251648426 5.7889164164662352 68.294085592031479
leaf_count=22 260 455 50 457
internal_value=0.000118521 0.00015019 -0.000830766 0.000414147
internal_weight=164.344 161.691 33.5793 128.112
internal_count=1244 1222 310 912
is_linear=0
shrinkage=0.05


Tree=48
num_leaves=5
num_cat=0
split_feature=0 4 3 4
split_gain=0.00362551 0.0156787 0.0314657 0.00482742
threshold=-0.013490689918398855 0.0099362796559520263 1.0000000180025095e-35 0.12408357771260999
decision_type=2 2 2 2
left_child=-1 2 -2 -3
right_child=1 3 -4 -5
leaf_value=-0.0017234249151324482 -0.00079107429216184106 6.5357933803549112e-05 -0.00019887103623057032 0.00068048471789796978
leaf_weight=2.6494065746664992 27.773144442588091 59.820643156766891 5.7880463041365138 68.324785068631172
leaf_count=22 260 455 50 457
internal_value=0.000111217 0.000141276 -0.000791074 0.000393332
internal_weight=164.356 161.707 33.5612 128.145
internal_count=1244 1222 310 912
is_linear=0
shrinkage=0.05


Tree=49
num_leaves=5
num_cat=0
split_feature=0 4 3 4
split_gain=0.00327058 0.0143111 0.0298966 0.00435353
threshold=-0.013490689918398855 0.0099362796559520263 1.0000000180025095e-35 0.12408357771260999
decision_type=2 2 2 2
left_child=-1 2 -2 -3
right_child=1 3 -4 -5
leaf_value=-0.0016393243497449556 -0.00075325031763662253 6.2087667318918931e-05 -0.00018984071540272993 0.0006461770788603995
leaf_weight=2.6461444050073615 27.756749361753464 59.823329925537109 5.7872156538069239 68.353939116001129
leaf_count=22 260 455 50 457
internal_value=0.000104294 0.000132824 -0.00075325 0.000373569
internal_weight=164.367 161.721 33.544 128.177
internal_count=1244 1222 310 912
is_linear=0
shrinkage=0.05


Tree=50
num_leaves=10
num_cat=0
split_feature=3 4 0 4 0 4 4 4 4
split_gain=0.00310991 0.1971 0.132774 0.151606 0.0324773 0.00987691 0.00880585 0.00676939 3.93115e-05
threshold=1.0000000180025095e-35 5.3814340741928654e-05 0.034362651407718665 0.094157072590670784 0.09985037520527841 0.01273046382955661 0.19707268599347191 0.081357791995186154 0.0055153037444235298
decision_type=2 2 2 2 2 2 2 2 2
left_child=1 -1 3 -3 6 8 -2 -6 -4
right_child=4 2 5 -5 7 -7 -8 -9 -10
leaf_value=-0.014198716198577514 0.00023449306637898511 -0.0069821115660992639 -0.0014611257515059622 -0.0021928186881151933 0.0013717209239827147 0.00023449306637898511 0.0013717209239827147 0.0033566709826811586 -0.0013273127587811336
leaf_weight=2.4052801430225363 13.636748589575292 7.6421066969633085 17.793119281530384 6.4443175494670868 6.5774535983800915 83.719884186983109 8.6142415255308133 9.6080518811941129 7.936916969716548
leaf_count=28 109 78 156 49 49 591 61 56 67
internal_value=9.77299e-05 -2.24161e-05 0.000234493 -0.00462013 0.000491402 0.000234493 0.000234493 0.00250895 -0.00141985
internal_weight=164.378 125.942 123.536 14.0864 38.4365 109.45 22.251 16.1855 25.73
internal_count=1244 969 941 127 275 814 170 105 223
is_linear=0
shrinkage=0.05


Tree=51
num_leaves=5
num_cat=0
split_feature=0 4 3 4
split_gain=0.00256743 0.0102896 0.0261841 0.00334525
threshold=-0.013490689918398855 0.0099362796559520263 1.0000000180025095e-35 0.12408357771260999
decision_type=2 2 2 2
left_child=-1 2 -2 -3
right_child=1 3 -4 -5
leaf_value=-0.0014307304978555791 -0.00064445159554651248 7.248912892421335e-05 -0.00014665013718172845 0.00058442925307800031
leaf_weight=2.6378685161471358 27.676624238491058 59.812821432948112 5.7896486707031718 68.403899371623993
leaf_count=22 260 455 50 457
internal_value=0.000116583 0.000141827 -0.000638911 0.00034561
internal_weight=164.321 161.683 33.4663 128.217
internal_count=1244 1222 310 912
is_linear=0
shrinkage=0.05


Tree=52
num_leaves=5
num_cat=0
split_feature=0 4 3 4
split_gain=0.00231657 0.0093676 0.0247967 0.00301713
threshold=-0.013490689918398855 0.0099362796559520263 1.0000000180025095e-35 0.12408357771260999
decision_type=2 2 2 2
left_child=-1 2 -2 -3
right_child=1 3 -4 -5
leaf_value=-0.0013606231319664951 -0.00061336792699467294 6.8862404373735809e-05 -0.00014149991090188282 0.0005549999592950075
leaf_weight=2.6351668536663047 27.663299027830362 59.815800122916698 5.7890360616147509 68.42894159257412
leaf_count=22 260 455 50 457
internal_value=0.000109922 0.000133887 -0.000611256 0.000328256
internal_weight=164.332 161.697 33.4523 128.245
internal_count=1244 1222 310 912
is_linear=0
shrinkage=0.05


Tree=53
num_leaves=5
num_cat=0
split_feature=0 4 3 4
split_gain=0.00209005 0.00853069 0.0235086 0.00272131
threshold=-0.013490689918398855 0.0099362796559520263 1.0000000180025095e-35 0.12408357771260999
decision_type=2 2 2 2
left_child=-1 2 -2 -3
right_child=1 3 -4 -5
leaf_value=-0.0012938866483775402 -0.00058376490695212556 6.541603929890915e-05 -0.00013599419465418834 0.00052706298850926437
leaf_weight=2.6325990408658972 27.650619886815548 59.818629659712315 5.7884451225399962 68.452727928757668
leaf_count=22 260 455 50 457
internal_value=0.000103606 0.000126357 -0.000583765 0.000311777
internal_weight=164.343 161.71 33.4391 128.271
internal_count=1244 1222 310 912
is_linear=0
shrinkage=0.05


Tree=54
num_leaves=5
num_cat=0
split_feature=0 4 3 4
split_gain=0.00188552 0.00777078 0.0223369 0.00245455
threshold=-0.013490689918398855 0.0099362796559520263 1.0000000180025095e-35 0.12408357771260999
decision_type=2 2 2 2
left_child=-1 2 -2 -3
right_child=1 3 -4 -5
leaf_value=-0.0012303635374105338 -0.00055557496599037306 6.2142277149625016e-05 -0.00012972402287898227 0.00050054028521460047
leaf_weight=2.6301583275198928 27.638555899262428 59.82131789624691 5.787877243012189 68.475315779447556
leaf_count=22 260 455 50 457
internal_value=9.76162e-05 0.000119214 -0.000555575 0.000296127
internal_weight=164.353 161.723 33.4264 128.297
internal_count=1244 1222 310 912
is_linear=0
shrinkage=0.05


Tree=55
num_leaves=5
num_cat=0
split_feature=0 4 3 4
split_gain=0.00170084 0.00708081 0.0212241 0.00221399
threshold=-0.013490689918398855 0.0099362796559520263 1.0000000180025095e-35 0.12408357771260999
decision_type=2 2 2 2
left_child=-1 2 -2 -3
right_child=1 3 -4 -5
leaf_value=-0.0011699025738777515 -0.00052873346507097726 5.9033292036487219e-05 -0.00012373400395505546 0.00047535911308574066
leaf_weight=2.6278386414051047 27.627078115940094 59.823872946202755 5.7873353585600844 68.496771559119225
leaf_count=22 260 455 50 457
internal_value=9.19336e-05 0.000112436 -0.000528733 0.000281265
internal_weight=164.363 161.735 33.4144 128.321
internal_count=1244 1222 310 912
is_linear=0
shrinkage=0.05


Tree=56
num_leaves=5
num_cat=0
split_feature=0 4 3 4
split_gain=0.00153412 0.00645418 0.0201671 0.00199708
threshold=-0.013490689918398855 0.0099362796559520263 1.0000000180025095e-35 0.12408357771260999
decision_type=2 2 2 2
left_child=-1 2 -2 -3
right_child=1 3 -4 -5
leaf_value=-0.0011123664507561362 -0.00050318072089798398 5.6078813736226257e-05 -0.00011801409133591125 0.00045145326246926295
leaf_weight=2.6256339177489272 27.616156689822674 59.8262989372015 5.7868186160922042 68.517146587371826
leaf_count=22 260 455 50 457
internal_value=8.65431e-05 0.000106005 -0.000503181 0.000267153
internal_weight=164.372 161.746 33.403 128.343
internal_count=1244 1222 310 912
is_linear=0
shrinkage=0.05


Tree=57
num_leaves=4
num_cat=0
split_feature=3 0 0
split_gain=0.00148347 0.165775 0.0287292
threshold=1.0000000180025095e-35 0.034362651407718665 0.09985037520527841
decision_type=2 2 2
left_child=1 -1 -2
right_child=2 -3 -4
leaf_value=-0.0052361064422213549 0.00017569754729798796 0.00017569754729798796 0.002297443876827994
leaf_weight=14.2857697494328 22.276638027280569 111.59513428062201 16.223190933465958
leaf_count=133 170 836 105
internal_value=8.14299e-05 -1.63811e-06 0.000353033
internal_weight=164.381 125.881 38.4998
internal_count=1244 969 275
is_linear=0
shrinkage=0.05


Tree=58
num_leaves=3
num_cat=0
split_feature=0 3
split_gain=0.00098917 0.000187924
threshold=-0.013490689918398855 1.0000000180025095e-35
decision_type=2 2
left_child=-1 -2
right_child=1 -3
leaf_value=-0.00087874170217501165 7.1512618606449176e-05 0.00019892962060032989
leaf_weight=2.6166024804115287 124.00091809406877 37.746805809438229
leaf_count=22 953 269
internal_value=8.56468e-05 0.000101248
internal_weight=164.364 161.748
internal_count=1244 1222
is_linear=0
shrinkage=0.05


Tree=59
num_leaves=3
num_cat=0
split_feature=0 3
split_gain=0.000893198 0.000169561
threshold=-0.013490689918398855 1.0000000180025095e-35
decision_type=2 2
left_child=-1 -2
right_child=1 -3
leaf_value=-0.00083534545564370108 6.7934203832044753e-05 0.00018895933757484237
leaf_weight=2.6149503886699668 124.00694375857711 37.751680299639702
leaf_count=22 953 269
internal_value=8.13601e-05 9.61794e-05
internal_weight=164.374 161.759
internal_count=1244 1222
is_linear=0
shrinkage=0.05


Tree=60
num_leaves=4
num_cat=0
split_feature=3 0 0
split_gain=0.000843522 0.149342 0.0260175
threshold=1.0000000180025095e-35 0.034362651407718665 0.09985037520527841
decision_type=2 2 2
left_child=1 -1 -2
right_child=2 -3 -4
leaf_value=-0.0049893404089365071 0.00014829604528698748 0.00014829604528698748 0.0021595592182135884
leaf_weight=14.229908984154461 22.28408832103014 111.6188216432929 16.249543935060501
leaf_count=133 170 836 105
internal_value=7.72883e-05 1.46145e-05 0.000281978
internal_weight=164.382 125.849 38.5336
internal_count=1244 969 275
is_linear=0
shrinkage=0.05


Tree=61
num_leaves=6
num_cat=0
split_feature=3 4 4 4 4
split_gain=0.000452477 0.175427 0.00683229 0.00611036 0.000201906
threshold=1.0000000180025095e-35 5.3814340741928654e-05 0.01273046382955661 0.12829004388245707 0.00014965559032361012
decision_type=2 2 2 2 2
left_child=1 -1 4 -2 -3
right_child=3 2 -4 -5 -6
leaf_value=-0.01348723893198904 0.00013409463246283394 -0.0012263813130358602 0.00013409463246283394 0.0010637668709832218 -0.00067974274144811948
leaf_weight=2.3702213466167441 20.455113250762224 1.8047716319561029 95.247244127094746 18.10197551548481 26.385505367070436
leaf_count=28 159 19 684 116 238
internal_value=8.21313e-05 3.6205e-05 0.000134095 0.000231984 -0.000714739
internal_weight=164.365 125.808 123.438 38.5571 28.1903
internal_count=1244 969 941 275 257
is_linear=0
shrinkage=0.05


Tree=62
num_leaves=2
num_cat=0
split_feature=3
split_gain=0.000271335
threshold=1.0000000180025095e-35
decision_type=2
left_child=-1
right_child=-2
leaf_value=5.1784465782497923e-05 0.00020337652171633142
leaf_weight=125.77584200724959 38.570598740130663
leaf_count=969 275
internal_value=8.73617e-05
internal_weight=164.346
internal_count=1244
is_linear=0
shrinkage=0.05


Tree=63
num_leaves=2
num_cat=0
split_feature=3
split_gain=0.000244825
threshold=1.0000000180025095e-35
decision_type=2
left_child=-1
right_child=-2
leaf_value=4.9193116219918524e-05 0.00019318160741687269
leaf_weight=125.78027180209756 38.57569257542491
leaf_count=969 275
internal_value=8.29884e-05
internal_weight=164.356
internal_count=1244
is_linear=0
shrinkage=0.05


Tree=64
num_leaves=2
num_cat=0
split_feature=3
split_gain=0.000220906
threshold=1.0000000180025095e-35
decision_type=2
left_child=-1
right_child=-2
leaf_value=4.6731449974071984e-05 0.00018349836995044586
leaf_weight=125.78448206186295 38.580533135682344
leaf_count=969 275
internal_value=7.8834e-05
internal_weight=164.365
internal_count=1244
is_linear=0
shrinkage=0.05


Tree=65
num_leaves=2
num_cat=0
split_feature=3
split_gain=0.000199322
threshold=1.0000000180025095e-35
decision_type=2
left_child=-1
right_child=-2
leaf_value=4.4394773708866495e-05 0.00017430189156292797
leaf_weight=125.78848123550415 38.58513044193387
leaf_count=969 275
internal_value=7.48892e-05
internal_weight=164.374
internal_count=1244
is_linear=0
shrinkage=0.05


Tree=66
num_leaves=2
num_cat=0
split_feature=3
split_gain=0.000179855
threshold=1.0000000180025095e-35
decision_type=2
left_child=-1
right_child=-2
leaf_value=4.2173075341599961e-05 0.00016556794140683536
leaf_weight=125.79228074476123 38.589496836066246
leaf_count=969 275
internal_value=7.11407e-05
internal_weight=164.382
internal_count=1244
is_linear=0
shrinkage=0.05


Tree=67
num_leaves=2
num_cat=0
split_feature=3
split_gain=0.000162289
threshold=1.0000000180025095e-35
decision_type=2
left_child=-1
right_child=-2
leaf_value=4.006331858943745e-05 0.00015727213865935282
leaf_weight=125.79589178413153 38.593644928187132
leaf_count=969 275
internal_value=6.75804e-05
internal_weight=164.39
internal_count=1244
is_linear=0
shrinkage=0.05


Tree=68
num_leaves=2
num_cat=0
split_feature=3
split_gain=0.000146439
threshold=1.0000000180025095e-35
decision_type=2
left_child=-1
right_child=-2
leaf_value=3.8058930363870654e-05 0.00014939245823919077
leaf_weight=125.79932129010558 38.597585413604975
leaf_count=969 275
internal_value=6.41981e-05
internal_weight=164.397
internal_count=1244
is_linear=0
shrinkage=0.05


Tree=69
num_leaves=2
num_cat=0
split_feature=3
split_gain=0.000132141
threshold=1.0000000180025095e-35
decision_type=2
left_child=-1
right_child=-2
leaf_value=3.6154629998560189e-05 0.00014190931721405788
leaf_weight=125.80257888510823 38.601328261196613
leaf_count=969 275
internal_value=6.09854e-05
internal_weight=164.404
internal_count=1244
is_linear=0
shrinkage=0.05


Tree=70
num_leaves=2
num_cat=0
split_feature=3
split_gain=0.00011924
threshold=1.0000000180025095e-35
decision_type=2
left_child=-1
right_child=-2
leaf_value=3.4346057748804524e-05 0.00013480158331098557
leaf_weight=125.80567058175802 38.604884684085846
leaf_count=969 275
internal_value=5.79338e-05
internal_weight=164.411
internal_count=1244
is_linear=0
shrinkage=0.05


Tree=71
num_leaves=2
num_cat=0
split_feature=3
split_gain=0.0001076
threshold=1.0000000180025095e-35
decision_type=2
left_child=-1
right_child=-2
leaf_value=3.2627214651858209e-05 0.00012805030854661206
leaf_weight=125.80860938876867 38.608262866735458
leaf_count=969 275
internal_value=5.50344e-05
internal_weight=164.417
internal_count=1244
is_linear=0
shrinkage=0.05


Tree=72
num_leaves=2
num_cat=0
split_feature=3
split_gain=9.70895e-05
threshold=1.0000000180025095e-35
decision_type=2
left_child=-1
right_child=-2
leaf_value=3.0995789632854421e-05 0.00012163560767409507
leaf_weight=125.81140446290374 38.611470941454172
leaf_count=969 275
internal_value=5.22808e-05
internal_weight=164.423
internal_count=1244
is_linear=0
shrinkage=0.05


Tree=73
num_leaves=2
num_cat=0
split_feature=3
split_gain=8.76114e-05
threshold=1.0000000180025095e-35
decision_type=2
left_child=-1
right_child=-2
leaf_value=2.9445110550106253e-05 0.00011554428028776993
leaf_weight=125.81405609846115 38.614519566297531
leaf_count=969 275
internal_value=4.96647e-05
internal_weight=164.429
internal_count=1244
is_linear=0
shrinkage=0.05


Tree=74
num_leaves=2
num_cat=0
split_feature=3
split_gain=7.906e-05
threshold=1.0000000180025095e-35
decision_type=2
left_child=-1
right_child=-2
leaf_value=2.7972962507547726e-05 0.00010975983641309767
leaf_weight=125.81657808274031 38.61741429567337
leaf_count=969 275
internal_value=4.71807e-05
internal_weight=164.434
internal_count=1244
is_linear=0
shrinkage=0.05


Tree=75
num_leaves=2
num_cat=0
split_feature=3
split_gain=7.13414e-05
threshold=1.0000000180025095e-35
decision_type=2
left_child=-1
right_child=-2
leaf_value=2.6574009161188121e-05 0.00010426367757328409
leaf_weight=125.81897293031216 38.620165079832077
leaf_count=969 275
internal_value=4.48202e-05
internal_weight=164.439
internal_count=1244
is_linear=0
shrinkage=0.05


Tree=76
num_leaves=2
num_cat=0
split_feature=3
split_gain=6.4381e-05
threshold=1.0000000180025095e-35
decision_type=2
left_child=-1
right_child=-2
leaf_value=2.5243856101369359e-05 9.9044324037429765e-05
leaf_weight=125.82124599441886 38.622777294367552
leaf_count=969 275
internal_value=4.25773e-05
internal_weight=164.444
internal_count=1244
is_linear=0
shrinkage=0.05


Tree=77
num_leaves=2
num_cat=0
split_feature=3
split_gain=5.80969e-05
threshold=1.0000000180025095e-35
decision_type=2
left_child=-1
right_child=-2
leaf_value=2.3981036865640247e-05 9.4085415053400562e-05
leaf_weight=125.82340877875686 38.625259645283222
leaf_count=969 275
internal_value=4.0447e-05
internal_weight=164.449
internal_count=1244
is_linear=0
shrinkage=0.05


Tree=78
num_leaves=2
num_cat=0
split_feature=3
split_gain=5.24246e-05
threshold=1.0000000180025095e-35
decision_type=2
left_child=-1
right_child=-2
leaf_value=2.278234904426369e-05 8.9374864421340526e-05
leaf_weight=125.82545886561275 38.627617668360472
leaf_count=969 275
internal_value=3.8424e-05
internal_weight=164.453
internal_count=1244
is_linear=0
shrinkage=0.05


Tree=79
num_leaves=2
num_cat=0
split_feature=3
split_gain=4.73098e-05
threshold=1.0000000180025095e-35
decision_type=2
left_child=-1
right_child=-2
leaf_value=2.1643033348604439e-05 8.4902138911588674e-05
leaf_weight=125.82741133496165 38.629857171326876
leaf_count=969 275
internal_value=3.65022e-05
internal_weight=164.457
internal_count=1244
is_linear=0
shrinkage=0.05


Tree=80
num_leaves=2
num_cat=0
split_feature=3
split_gain=4.2694e-05
threshold=1.0000000180025095e-35
decision_type=2
left_child=-1
right_child=-2
leaf_value=2.0559727665058824e-05 8.0652280825715451e-05
leaf_weight=125.82926243916154 38.63198547065258
leaf_count=969 275
internal_value=3.46755e-05
internal_weight=164.461
internal_count=1244
is_linear=0
shrinkage=0.05


Tree=81
num_leaves=2
num_cat=0
split_feature=3
split_gain=3.85281e-05
threshold=1.0000000180025095e-35
decision_type=2
left_child=-1
right_child=-2
leaf_value=1.953202252486266e-05 7.6616322084818099e-05
leaf_weight=125.83102341368794 38.634007088840008
leaf_count=969 275
internal_value=3.29415e-05
internal_weight=164.465
internal_count=1244
is_linear=0
shrinkage=0.05


Tree=82
num_leaves=2
num_cat=0
split_feature=3
split_gain=3.47666e-05
threshold=1.0000000180025095e-35
decision_type=2
left_child=-1
right_child=-2
leaf_value=1.8555275677887474e-05 7.278037949560503e-05
leaf_weight=125.83269471675158 38.635926689952612
leaf_count=969 275
internal_value=3.12935e-05
internal_weight=164.469
internal_count=1244
is_linear=0
shrinkage=0.05


Tree=83
num_leaves=2
num_cat=0
split_feature=3
split_gain=3.13748e-05
threshold=1.0000000180025095e-35
decision_type=2
left_child=-1
right_child=-2
leaf_value=1.7627251291052199e-05 6.9138363575045221e-05
leaf_weight=125.83428347110748 38.637751504778862
leaf_count=969 275
internal_value=2.97282e-05
internal_weight=164.472
internal_count=1244
is_linear=0
shrinkage=0.05


Tree=84
num_leaves=2
num_cat=0
split_feature=3
split_gain=2.83141e-05
threshold=1.0000000180025095e-35
decision_type=2
left_child=-1
right_child=-2
leaf_value=1.6744943170108841e-05 6.5678154350442425e-05
leaf_weight=125.83579447492957 38.639484249055386
leaf_count=969 275
internal_value=2.82406e-05
internal_weight=164.475
internal_count=1244
is_linear=0
shrinkage=0.05


Tree=85
num_leaves=2
num_cat=0
split_feature=3
split_gain=2.5551e-05
threshold=1.0000000180025095e-35
decision_type=2
left_child=-1
right_child=-2
leaf_value=1.5908442897107953e-05 6.2391942873780455e-05
leaf_weight=125.83722668886185 38.641130249947309
leaf_count=969 275
internal_value=2.68289e-05
internal_weight=164.478
internal_count=1244
is_linear=0
shrinkage=0.05


Tree=86
num_leaves=2
num_cat=0
split_feature=3
split_gain=2.30582e-05
threshold=1.0000000180025095e-35
decision_type=2
left_child=-1
right_child=-2
leaf_value=1.5113211004121828e-05 5.9270283557442541e-05
leaf_weight=125.83858879283071 38.642693877220154
leaf_count=969 275
internal_value=2.54873e-05
internal_weight=164.481
internal_count=1244
is_linear=0
shrinkage=0.05


Tree=87
num_leaves=2
num_cat=0
split_feature=3
split_gain=2.08085e-05
threshold=1.0000000180025095e-35
decision_type=2
left_child=-1
right_child=-2
leaf_value=1.4356826178651943e-05 5.6303855792513114e-05
leaf_weight=125.83988117426634 38.644179943948984
leaf_count=969 275
internal_value=2.42119e-05
internal_weight=164.484
internal_count=1244
is_linear=0
shrinkage=0.05


Tree=88
num_leaves=2
num_cat=0
split_feature=3
split_gain=1.87788e-05
threshold=1.0000000180025095e-35
decision_type=2
left_child=-1
right_child=-2
leaf_value=1.3638984775353454e-05 5.348715913153807e-05
leaf_weight=125.84111047163606 38.645591218024492
leaf_count=969 275
internal_value=2.30012e-05
internal_weight=164.487
internal_count=1244
is_linear=0
shrinkage=0.05


Tree=89
num_leaves=2
num_cat=0
split_feature=3
split_gain=1.69468e-05
threshold=1.0000000180025095e-35
decision_type=2
left_child=-1
right_child=-2
leaf_value=1.295646817772772e-05 5.0810501346214343e-05
leaf_weight=125.84227724373341 38.646932050585747
leaf_count=969 275
internal_value=2.18503e-05
internal_weight=164.489
internal_count=1244
is_linear=0
shrinkage=0.05


Tree=90
num_leaves=2
num_cat=0
split_feature=3
split_gain=1.52936e-05
threshold=1.0000000180025095e-35
decision_type=2
left_child=-1
right_child=-2
leaf_value=1.2308339551108962e-05 4.8268142365422144e-05
leaf_weight=125.84339041635394 38.648206114768982
leaf_count=969 275
internal_value=2.07573e-05
internal_weight=164.492
internal_count=1244
is_linear=0
shrinkage=0.05


Tree=91
num_leaves=2
num_cat=0
split_feature=3
split_gain=1.38014e-05
threshold=1.0000000180025095e-35
decision_type=2
left_child=-1
right_child=-2
leaf_value=1.1693446463162364e-05 4.5853494551275193e-05
leaf_weight=125.84444095566869 38.649415150284767
leaf_count=969 275
internal_value=1.97197e-05
internal_weight=164.494
internal_count=1244
is_linear=0
shrinkage=0.05


Tree=92
num_leaves=2
num_cat=0
split_feature=3
split_gain=1.24558e-05
threshold=1.0000000180025095e-35
decision_type=2
left_child=-1
right_child=-2
leaf_value=1.110921182547077e-05 4.3560840252004913e-05
leaf_weight=125.84544511139393 38.650565218180418
leaf_count=969 275
internal_value=1.87342e-05
internal_weight=164.496
internal_count=1244
is_linear=0
shrinkage=0.05


Tree=93
num_leaves=2
num_cat=0
split_feature=3
split_gain=1.12402e-05
threshold=1.0000000180025095e-35
decision_type=2
left_child=-1
right_child=-2
leaf_value=1.0553431451799953e-05 4.138059620333874e-05
leaf_weight=125.84639031812549 38.65165713429451
leaf_count=969 275
internal_value=1.77968e-05
internal_weight=164.498
internal_count=1244
is_linear=0
shrinkage=0.05


Tree=94
num_leaves=2
num_cat=0
split_feature=3
split_gain=1.0144e-05
threshold=1.0000000180025095e-35
decision_type=2
left_child=-1
right_child=-2
leaf_value=1.0025576842267828e-05 3.9310620077128934e-05
leaf_weight=125.84729726240039 38.6526934877038
leaf_count=969 275
internal_value=1.69067e-05
internal_weight=164.5
internal_count=1244
is_linear=0
shrinkage=0.05


Tree=95
num_leaves=2
num_cat=0
split_feature=3
split_gain=9.15558e-06
threshold=1.0000000180025095e-35
decision_type=2
left_child=-1
right_child=-2
leaf_value=9.5230429630202367e-06 3.7344480100360922e-05
leaf_weight=125.84815298765898 38.653679419308901
leaf_count=969 275
internal_value=1.60604e-05
internal_weight=164.502
internal_count=1244
is_linear=0
shrinkage=0.05


Tree=96
num_leaves=2
num_cat=0
split_feature=3
split_gain=8.26162e-06
threshold=1.0000000180025095e-35
decision_type=2
left_child=-1
right_child=-2
leaf_value=9.0477326420146285e-06 3.5475765096640585e-05
leaf_weight=125.84896979480982 38.654616169631481
leaf_count=969 275
internal_value=1.52577e-05
internal_weight=164.504
internal_count=1244
is_linear=0
shrinkage=0.05


Tree=97
num_leaves=2
num_cat=0
split_feature=3
split_gain=7.45588e-06
threshold=1.0000000180025095e-35
decision_type=2
left_child=-1
right_child=-2
leaf_value=8.5953810231911137e-06 3.3701371369759937e-05
leaf_weight=125.84974544867873 38.655504625290632
leaf_count=969 275
internal_value=1.44948e-05
internal_weight=164.505
internal_count=1244
is_linear=0
shrinkage=0.05


Tree=98
num_leaves=2
num_cat=0
split_feature=3
split_gain=6.72869e-06
threshold=1.0000000180025095e-35
decision_type=2
left_child=-1
right_child=-2
leaf_value=8.1659101465691936e-06 3.2015966394007465e-05
leaf_weight=125.85048194229603 38.656350336968899
leaf_count=969 275
internal_value=1.37703e-05
internal_weight=164.507
internal_count=1244
is_linear=0
shrinkage=0.05


Tree=99
num_leaves=2
num_cat=0
split_feature=3
split_gain=6.07269e-06
threshold=1.0000000180025095e-35
decision_type=2
left_child=-1
right_child=-2
leaf_value=7.7570961214364079e-06 3.0414548066223302e-05
leaf_weight=125.8511804305017 38.657151829451323
leaf_count=969 275
internal_value=1.30813e-05
internal_weight=164.508
internal_count=1244
is_linear=0
shrinkage=0.05


Tree=100
num_leaves=2
num_cat=0
split_feature=3
split_gain=5.47995e-06
threshold=1.0000000180025095e-35
decision_type=2
left_child=-1
right_child=-2
leaf_value=7.3695536884544775e-06 2.8892673658450706e-05
leaf_weight=125.85184497013688 38.657914470881224
leaf_count=969 275
internal_value=1.24272e-05
internal_weight=164.51
internal_count=1244
is_linear=0
shrinkage=0.05


Tree=101
num_leaves=2
num_cat=0
split_feature=3
split_gain=4.94587e-06
threshold=1.0000000180025095e-35
decision_type=2
left_child=-1
right_child=-2
leaf_value=7.0002096579960092e-06 2.744745731443862e-05
leaf_weight=125.85247577726841 38.658638406544924
leaf_count=969 275
internal_value=1.18051e-05
internal_weight=164.511
internal_count=1244
is_linear=0
shrinkage=0.05


Tree=102
num_leaves=2
num_cat=0
split_feature=3
split_gain=4.46361e-06
threshold=1.0000000180025095e-35
decision_type=2
left_child=-1
right_child=-2
leaf_value=6.6513159965576638e-06 2.6075978447337255e-05
leaf_weight=125.85307373479009 38.659326314926147
leaf_count=969 275
internal_value=1.1216e-05
internal_weight=164.512
internal_count=1244
is_linear=0
shrinkage=0.05


Tree=103
num_leaves=2
num_cat=0
split_feature=3
split_gain=4.0285e-06
threshold=1.0000000180025095e-35
decision_type=2
left_child=-1
right_child=-2
leaf_value=6.3173826410544929e-06 2.4770899578191653e-05
leaf_weight=125.85364173352718 38.659980539232492
leaf_count=969 275
internal_value=1.06539e-05
internal_weight=164.514
internal_count=1244
is_linear=0
shrinkage=0.05


Tree=104
num_leaves=2
num_cat=0
split_feature=3
split_gain=3.63557e-06
threshold=1.0000000180025095e-35
decision_type=2
left_child=-1
right_child=-2
leaf_value=6.00223930305926e-06 2.3532584765743295e-05
leaf_weight=125.85418174788356 38.660601310431957
leaf_count=969 275
internal_value=1.01218e-05
internal_weight=164.515
internal_count=1244
is_linear=0
shrinkage=0.05


Tree=105
num_leaves=2
num_cat=0
split_feature=3
split_gain=3.28049e-06
threshold=1.0000000180025095e-35
decision_type=2
left_child=-1
right_child=-2
leaf_value=5.7021734877685395e-06 2.2354338441815839e-05
leaf_weight=125.85469844192266 38.66119197756052
leaf_count=969 275
internal_value=9.61543e-06
internal_weight=164.516
internal_count=1244
is_linear=0
shrinkage=0.05


Tree=106
num_leaves=2
num_cat=0
split_feature=3
split_gain=2.96051e-06
threshold=1.0000000180025095e-35
decision_type=2
left_child=-1
right_child=-2
leaf_value=5.4172516778153418e-06 2.1236377028622994e-05
leaf_weight=125.85518634319305 38.661751978099346
leaf_count=969 275
internal_value=9.13477e-06
internal_weight=164.517
internal_count=1244
is_linear=0
shrinkage=0.05


Tree=107
num_leaves=2
num_cat=0
split_feature=3
split_gain=2.67212e-06
threshold=1.0000000180025095e-35
decision_type=2
left_child=-1
right_child=-2
leaf_value=5.145858607023991e-06 2.0174675863927236e-05
leaf_weight=125.85565108805895 38.662283983081579
leaf_count=969 275
internal_value=8.67768e-06
internal_weight=164.518
internal_count=1244
is_linear=0
shrinkage=0.05


Tree=108
num_leaves=2
num_cat=0
split_feature=3
split_gain=2.41159e-06
threshold=1.0000000180025095e-35
decision_type=2
left_child=-1
right_child=-2
leaf_value=4.8878711838134324e-06 1.916517243638651e-05
leaf_weight=125.85609148070216 38.662790827453136
leaf_count=969 275
internal_value=8.24311e-06
internal_weight=164.519
internal_count=1244
is_linear=0
shrinkage=0.05


Tree=109
num_leaves=2
num_cat=0
split_feature=3
split_gain=2.17625e-06
threshold=1.0000000180025095e-35
decision_type=2
left_child=-1
right_child=-2
leaf_value=4.6439832553689352e-06 1.820670234879689e-05
leaf_weight=125.85650672763586 38.663271088153124
leaf_count=969 275
internal_value=7.83131e-06
internal_weight=164.52
internal_count=1244
is_linear=0
shrinkage=0.05


Tree=110
num_leaves=2
num_cat=0
split_feature=3
split_gain=1.96411e-06
threshold=1.0000000180025095e-35
decision_type=2
left_child=-1
right_child=-2
leaf_value=4.4120541716250921e-06 1.729669772800709e-05
leaf_weight=125.85690614953637 38.663727127015591
leaf_count=969 275
internal_value=7.44005e-06
internal_weight=164.521
internal_count=1244
is_linear=0
shrinkage=0.05


Tree=111
num_leaves=2
num_cat=0
split_feature=3
split_gain=1.77234e-06
threshold=1.0000000180025095e-35
decision_type=2
left_child=-1
right_child=-2
leaf_value=4.1912995523204597e-06 1.6430732068091694e-05
leaf_weight=125.85728364810348 38.664160396903753
leaf_count=969 275
internal_value=7.06769e-06
internal_weight=164.521
internal_count=1244
is_linear=0
shrinkage=0.05


Tree=112
num_leaves=2
num_cat=0
split_feature=3
split_gain=1.59936e-06
threshold=1.0000000180025095e-35
decision_type=2
left_child=-1
right_child=-2
leaf_value=3.9821023859574674e-06 1.5608869411947519e-05
leaf_weight=125.85764256492257 38.664571866393089
leaf_count=969 275
internal_value=6.71452e-06
internal_weight=164.522
internal_count=1244
is_linear=0
shrinkage=0.05


Tree=113
num_leaves=2
num_cat=0
split_feature=3
split_gain=1.44386e-06
threshold=1.0000000180025095e-35
decision_type=2
left_child=-1
right_child=-2
leaf_value=3.7824674535406105e-06 1.4829540649732952e-05
leaf_weight=125.85798437148333 38.664963249117136
leaf_count=969 275
internal_value=6.37867e-06
internal_weight=164.523
internal_count=1244
is_linear=0
shrinkage=0.05


Tree=114
num_leaves=2
num_cat=0
split_feature=3
split_gain=1.30241e-06
threshold=1.0000000180025095e-35
decision_type=2
left_child=-1
right_child=-2
leaf_value=3.5950703480988383e-06 1.4087039275662828e-05
leaf_weight=125.85830922797322 38.66533524543047
leaf_count=969 275
internal_value=6.06083e-06
internal_weight=164.524
internal_count=1244
is_linear=0
shrinkage=0.05


Tree=115
num_leaves=2
num_cat=0
split_feature=3
split_gain=1.17602e-06
threshold=1.0000000180025095e-35
decision_type=2
left_child=-1
right_child=-2
leaf_value=3.4144884145371423e-06 1.3384325326065823e-05
leaf_weight=125.85861515253782 38.665689092129469
leaf_count=969 275
internal_value=5.75755e-06
internal_weight=164.524
internal_count=1244
is_linear=0
shrinkage=0.05


Tree=116
num_leaves=2
num_cat=0
split_feature=3
split_gain=1.06151e-06
threshold=1.0000000180025095e-35
decision_type=2
left_child=-1
right_child=-2
leaf_value=3.242486972234651e-06 1.2714454981619092e-05
leaf_weight=125.85890704765916 38.666024964302778
leaf_count=969 275
internal_value=5.46855e-06
internal_weight=164.525
internal_count=1244
is_linear=0
shrinkage=0.05


Tree=117
num_leaves=2
num_cat=0
split_feature=3
split_gain=9.57827e-07
threshold=1.0000000180025095e-35
decision_type=2
left_child=-1
right_child=-2
leaf_value=3.0809498783934183e-06 1.2078438049942206e-05
leaf_weight=125.85918466746807 38.666342925280333
leaf_count=969 275
internal_value=5.19552e-06
internal_weight=164.526
internal_count=1244
is_linear=0
shrinkage=0.05


Tree=118
num_leaves=2
num_cat=0
split_feature=3
split_gain=8.64312e-07
threshold=1.0000000180025095e-35
decision_type=2
left_child=-1
right_child=-2
leaf_value=2.9275993820271798e-06 1.1474557203038557e-05
leaf_weight=125.85944793000817 38.666645299643278
leaf_count=969 275
internal_value=4.93629e-06
internal_weight=164.526
internal_count=1244
is_linear=0
shrinkage=0.05


Tree=119
num_leaves=2
num_cat=0
split_feature=3
split_gain=7.80236e-07
threshold=1.0000000180025095e-35
decision_type=2
left_child=-1
right_child=-2
leaf_value=2.7801577040874718e-06 1.0900753687018956e-05
leaf_weight=125.85969914495945 38.666933313012123
leaf_count=969 275
internal_value=4.68865e-06
internal_weight=164.527
internal_count=1244
is_linear=0
shrinkage=0.05


Tree=120
num_leaves=2
num_cat=0
split_feature=3
split_gain=7.04224e-07
threshold=1.0000000180025095e-35
decision_type=2
left_child=-1
right_child=-2
leaf_value=2.6408120945289804e-06 1.0355687053485686e-05
leaf_weight=125.8599390797317 38.667206883430481
leaf_count=969 275
internal_value=4.45396e-06
internal_weight=164.527
internal_count=1244
is_linear=0
shrinkage=0.05


Tree=121
num_leaves=2
num_cat=0
split_feature=3
split_gain=6.35425e-07
threshold=1.0000000180025095e-35
decision_type=2
left_child=-1
right_child=-2
leaf_value=2.5089232220448508e-06 9.8372461591376097e-06
leaf_weight=125.8601635619998 38.667466163635254
leaf_count=969 275
internal_value=4.23123e-06
internal_weight=164.528
internal_count=1244
is_linear=0
shrinkage=0.05


Tree=122
num_leaves=2
num_cat=0
split_feature=3
split_gain=5.73325e-07
threshold=1.0000000180025095e-35
decision_type=2
left_child=-1
right_child=-2
leaf_value=2.384228941060616e-06 9.3452320044557498e-06
leaf_weight=125.86037837341428 38.667712766677141
leaf_count=969 275
internal_value=4.02022e-06
internal_weight=164.528
internal_count=1244
is_linear=0
shrinkage=0.05


Tree=123
num_leaves=2
num_cat=0
split_feature=3
split_gain=5.17656e-07
threshold=1.0000000180025095e-35
decision_type=2
left_child=-1
right_child=-2
leaf_value=2.2636879058896837e-06 8.8780923848856594e-06
leaf_weight=125.86058515310287 38.667947269976139
leaf_count=969 275
internal_value=3.81822e-06
internal_weight=164.529
internal_count=1244
is_linear=0
shrinkage=0.05


Tree=124
num_leaves=2
num_cat=0
split_feature=3
split_gain=4.66821e-07
threshold=1.0000000180025095e-35
decision_type=2
left_child=-1
right_child=-2
leaf_value=2.1516038132060929e-06 8.4328303159073738e-06
leaf_weight=125.86077697202563 38.668169308453798
leaf_count=969 275
internal_value=3.62784e-06
internal_weight=164.529
internal_count=1244
is_linear=0
shrinkage=0.05


Tree=125
num_leaves=2
num_cat=0
split_feature=3
split_gain=4.21414e-07
threshold=1.0000000180025095e-35
decision_type=2
left_child=-1
right_child=-2
leaf_value=2.0442056251755753e-06 8.0121227697723609e-06
leaf_weight=125.86096094176173 38.668381087481976
leaf_count=969 275
internal_value=3.44681e-06
internal_weight=164.529
internal_count=1244
is_linear=0
shrinkage=0.05


Tree=126
num_leaves=2
num_cat=0
split_feature=3
split_gain=3.80503e-07
threshold=1.0000000180025095e-35
decision_type=2
left_child=-1
right_child=-2
leaf_value=1.9410508401699901e-06 7.6118796621290159e-06
leaf_weight=125.86113477125764 38.668581377714872
leaf_count=969 275
internal_value=3.27384e-06
internal_weight=164.53
internal_count=1244
is_linear=0
shrinkage=0.05


Tree=127
num_leaves=2
num_cat=0
split_feature=3
split_gain=3.43421e-07
threshold=1.0000000180025095e-35
decision_type=2
left_child=-1
right_child=-2
leaf_value=1.8436814333290472e-06 7.2310882557209847e-06
leaf_weight=125.86130240932107 38.668772898614407
leaf_count=969 275
internal_value=3.10986e-06
internal_weight=164.53
internal_count=1244
is_linear=0
shrinkage=0.05


Tree=128
num_leaves=2
num_cat=0
split_feature=3
split_gain=3.09774e-07
threshold=1.0000000180025095e-35
decision_type=2
left_child=-1
right_child=-2
leaf_value=1.7527411922080216e-06 6.8694207298451008e-06
leaf_weight=125.86145946383476 38.668954093009233
leaf_count=969 275
internal_value=2.95529e-06
internal_weight=164.53
internal_count=1244
is_linear=0
shrinkage=0.05


Tree=129
num_leaves=2
num_cat=0
split_feature=3
split_gain=2.79501e-07
threshold=1.0000000180025095e-35
decision_type=2
left_child=-1
right_child=-2
leaf_value=1.6652657642818583e-06 6.5254890263723932e-06
leaf_weight=125.86160859465599 38.669126372784376
leaf_count=969 275
internal_value=2.80755e-06
internal_weight=164.531
internal_count=1244
is_linear=0
shrinkage=0.05


Tree=130
num_leaves=2
num_cat=0
split_feature=3
split_gain=2.52354e-07
threshold=1.0000000180025095e-35
decision_type=2
left_child=-1
right_child=-2
leaf_value=1.5811766860413694e-06 6.1993360872160877e-06
leaf_weight=125.86174974218011 38.669289331883192
leaf_count=969 275
internal_value=2.66657e-06
internal_weight=164.531
internal_count=1244
is_linear=0
shrinkage=0.05


Tree=131
num_leaves=2
num_cat=0
split_feature=3
split_gain=2.2775e-07
threshold=1.0000000180025095e-35
decision_type=2
left_child=-1
right_child=-2
leaf_value=1.5030903701659281e-06 5.8903445642996147e-06
leaf_weight=125.86188662424684 38.669445149600506
leaf_count=969 275
internal_value=2.53422e-06
internal_weight=164.531
internal_count=1244
is_linear=0
shrinkage=0.05


Tree=132
num_leaves=2
num_cat=0
split_feature=3
split_gain=2.05416e-07
threshold=1.0000000180025095e-35
decision_type=2
left_child=-1
right_child=-2
leaf_value=1.4283148791978945e-06 5.5948919825953747e-06
leaf_weight=125.86201508715749 38.669592767953873
leaf_count=969 275
internal_value=2.40758e-06
internal_weight=164.532
internal_count=1244
is_linear=0
shrinkage=0.05


Tree=133
num_leaves=2
num_cat=0
split_feature=3
split_gain=1.85556e-07
threshold=1.0000000180025095e-35
decision_type=2
left_child=-1
right_child=-2
leaf_value=1.3557639169622703e-06 5.315805306781661e-06
leaf_weight=125.86213678121567 38.669733323156834
leaf_count=969 275
internal_value=2.28649e-06
internal_weight=164.532
internal_count=1244
is_linear=0
shrinkage=0.05


Tree=134
num_leaves=2
num_cat=0
split_feature=3
split_gain=1.67382e-07
threshold=1.0000000180025095e-35
decision_type=2
left_child=-1
right_child=-2
leaf_value=1.2883321333333365e-06 5.049442690603627e-06
leaf_weight=125.86225477606058 38.669866997748613
leaf_count=969 275
internal_value=2.1723e-06
internal_weight=164.532
internal_count=1244
is_linear=0
shrinkage=0.05


Tree=135
num_leaves=2
num_cat=0
split_feature=3
split_gain=1.51049e-07
threshold=1.0000000180025095e-35
decision_type=2
left_child=-1
right_child=-2
leaf_value=1.2238870069073177e-06 4.7967817860237527e-06
leaf_weight=125.8623645529151 38.669992811977863
leaf_count=969 275
internal_value=2.06362e-06
internal_weight=164.532
internal_count=1244
is_linear=0
shrinkage=0.05


Tree=136
num_leaves=2
num_cat=0
split_feature=3
split_gain=1.36365e-07
threshold=1.0000000180025095e-35
decision_type=2
left_child=-1
right_child=-2
leaf_value=1.1629301836561251e-06 4.5577111957964639e-06
leaf_weight=125.86246843263507 38.670113515108824
leaf_count=969 275
internal_value=1.96081e-06
internal_weight=164.533
internal_count=1244
is_linear=0
shrinkage=0.05


Tree=137
num_leaves=2
num_cat=0
split_feature=3
split_gain=1.23013e-07
threshold=1.0000000180025095e-35
decision_type=2
left_child=-1
right_child=-2
leaf_value=1.1046935283326593e-06 4.3289892311240649e-06
leaf_weight=125.8625718690455 38.670227315276861
leaf_count=969 275
internal_value=1.8625e-06
internal_weight=164.533
internal_count=1244
is_linear=0
shrinkage=0.05


Tree=138
num_leaves=2
num_cat=0
split_feature=3
split_gain=1.11172e-07
threshold=1.0000000180025095e-35
decision_type=2
left_child=-1
right_child=-2
leaf_value=1.0482847524925316e-06 4.1134717740846575e-06
leaf_weight=125.86266282945871 38.670336320996284
leaf_count=969 275
internal_value=1.7687e-06
internal_weight=164.533
internal_count=1244
is_linear=0
shrinkage=0.05


Tree=139
num_leaves=2
num_cat=0
split_feature=3
split_gain=1.00166e-07
threshold=1.0000000180025095e-35
decision_type=2
left_child=-1
right_child=-2
leaf_value=9.9731174275219998e-07 3.906809251556666e-06
leaf_weight=125.86275312304497 38.670439414680004
leaf_count=969 275
internal_value=1.68113e-06
internal_weight=164.533
internal_count=1244
is_linear=0
shrinkage=0.05


Tree=140
num_leaves=2
num_cat=0
split_feature=3
split_gain=9.04464e-08
threshold=1.0000000180025095e-35
decision_type=2
left_child=-1
right_child=-2
leaf_value=9.4753460360894722e-07 3.7122720440070683e-06
leaf_weight=125.86283841356635 38.670536551624537
leaf_count=969 275
internal_value=1.59734e-06
internal_weight=164.533
internal_count=1244
is_linear=0
shrinkage=0.05


Tree=141
num_leaves=2
num_cat=0
split_feature=3
split_gain=8.17132e-08
threshold=1.0000000180025095e-35
decision_type=2
left_child=-1
right_child=-2
leaf_value=8.9914274267292642e-07 3.5270130505257122e-06
leaf_weight=125.86292026937008 38.670630522072315
leaf_count=969 275
internal_value=1.51678e-06
internal_weight=164.534
internal_count=1244
is_linear=0
shrinkage=0.05


Tree=142
num_leaves=2
num_cat=0
split_feature=3
split_gain=7.36763e-08
threshold=1.0000000180025095e-35
decision_type=2
left_child=-1
right_child=-2
leaf_value=8.536308526216888e-07 3.348922619601843e-06
leaf_weight=125.8629984781146 38.670719388872385
leaf_count=969 275
internal_value=1.4401e-06
internal_weight=164.534
internal_count=1244
is_linear=0
shrinkage=0.05


Tree=143
num_leaves=2
num_cat=0
split_feature=3
split_gain=6.64827e-08
threshold=1.0000000180025095e-35
decision_type=2
left_child=-1
right_child=-2
leaf_value=8.1180993422958673e-07 3.1821526297423945e-06
leaf_weight=125.86306901276112 38.670802805572748
leaf_count=969 275
internal_value=1.36892e-06
internal_weight=164.534
internal_count=1244
is_linear=0
shrinkage=0.05


Tree=144
num_leaves=2
num_cat=0
split_feature=3
split_gain=5.99931e-08
threshold=1.0000000180025095e-35
decision_type=2
left_child=-1
right_child=-2
leaf_value=7.7171610111919767e-07 3.0233984978860021e-06
leaf_weight=125.86313982307911 38.67088345810771
leaf_count=969 275
internal_value=1.30094e-06
internal_weight=164.534
internal_count=1244
is_linear=0
shrinkage=0.05


Tree=145
num_leaves=2
num_cat=0
split_feature=3
split_gain=5.40957e-08
threshold=1.0000000180025095e-35
decision_type=2
left_child=-1
right_child=-2
leaf_value=7.3333309940905766e-07 2.8714802720156082e-06
leaf_weight=125.86320616677403 38.670958496630192
leaf_count=969 275
internal_value=1.23587e-06
internal_weight=164.534
internal_count=1244
is_linear=0
shrinkage=0.05


Tree=146
num_leaves=2
