tree
version=v4
num_class=1
num_tree_per_iteration=1
label_index=0
max_feature_idx=4
objective=binary sigmoid:1
feature_names=text_similarity industry_overlap stage_fit place_fit check_fit
monotone_constraints=1 1 1 1 1
feature_infos=[-0.083399005234241486:0.6093517541885376] [0:1] [0:1] [0:1] [7.6922781066226666e-06:1]
tree_sizes=1788 1972 1864 1970 1868 1874 1872 1876 1763 1863 1769 1874 1773 1768 1883 1769 1562 1886 1562 1556 1559 1557 1561 1781 1566 1906 1461 1900 1461 1907 1236 914 910 1237 908 1238 1130 1241 911 1241 912 1128 800 913 800 918 796 794 1022 797 1023 804 798 692 696 801 1025 805 698 802 698 803 697 805 698 696 807 803 805 809 591 592 926 485 485 484 593 484 484 486 589 483 596 481 594 486 593 486 474 706 485 706 483 705 485 707 482 703 486 476 486 484 488 485 487 487 487 486 488 487 488 486 478 488 486 487 487 488 486 490 487 489 487 489 486 487 479 1260 491 370 487 370 489 1239 373 370 372 369 373 1149 372 373 372 372 371 372 372 373 372 372 1150 370 374 372 373 372 374 369 373 371 373 372 374 372 371 1035 374 372 374 371 373 372 374 371 369 371 372 372 374 371 372 372 372 370 373 372 373 369 374 372 373 371 372 372 1034 372 373 374 371 373

Tree=0
num_leaves=16
num_cat=0
split_feature=1 1 0 2 4 1 0 0 0 4 4 0 4 4 0
split_gain=141.783 6.21667 6.86444 2.9495 2.94622 2.18312 1.59778 0.763421 0.482829 0.201763 0.157092 0.140668 0.129029 0.0984879 0.0564004
threshold=0.75000000000000011 0.29166666666666669 0.18592374771833423 1.0000000180025095e-35 0.010066642447238087 0.13333333333333336 0.10559387505054475 0.10155420750379564 0.13481657952070239 0.31345029239766092 0.0016064009789055888 0.014995609875768425 0.984286865431104 0.051787256369362857 0.41759392619133001
decision_type=2 2 2 2 2 2 2 2 2 2 2 2 2 2 2
left_child=1 3 -3 4 6 8 -1 -7 9 -5 -8 -6 14 -10 -13
right_child=-2 2 -4 5 11 7 10 -9 13 -11 -12 12 -14 -15 -16
leaf_value=-1.8188737394844603 -1.4679725421334462 -1.7362284409359874 -1.6524981717749279 -1.7614349601090813 -1.7678990974628164 -1.7477220323375289 -1.7841518818755144 -1.7362284409359874 -1.7594047815896579 -1.7594047815896579 -1.7742969981761383 -1.7636501994668046 -1.7614349601090813 -1.7574584558291888 -1.7624767739942064
leaf_weight=2.880030199885371 4.1322172433137885 3.0052489042282096 3.0052489042282104 197.72033415734768 17.655837312340736 4.3826546519994718 5.7600603997707376 3.7565611302852631 7.7635596692562094 2.8800301998853675 7.6383409649133656 526.04377694427967 3.0052489042282096 245.05300439894199 11.39490209519863
leaf_count=23 33 24 24 1579 141 35 46 30 62 23 61 4201 24 1957 91
internal_value=-1.76027 -1.76143 -1.71073 -1.76173 -1.76412 -1.75875 -1.78509 -1.73623 -1.75922 -1.76105 -1.77782 -1.76351 -1.76336 -1.75776 -1.76352
internal_weight=1046.08 1041.94 6.0105 1035.93 574.378 461.556 16.2784 8.13922 453.417 200.6 13.3984 558.1 540.444 252.817 537.439
internal_count=8354 8321 48 8273 4587 3686 130 65 3621 1602 107 4457 4316 2019 4292
is_linear=0
shrinkage=1


Tree=1
num_leaves=17
num_cat=0
split_feature=1 2 4 1 0 0 0 0 4 4 1 0 4 4 0 4
split_gain=104.691 2.49233 2.97102 1.70707 2.89198 1.4966 0.426409 0.235385 0.187957 0.155625 0.143708 0.128968 0.0924172 0.0622153 0.0306388 0.00255885
threshold=0.41666666666666669 1.0000000180025095e-35 0.010066642447238087 0.13333333333333336 0.10155420750379564 0.10559387505054475 0.13481657952070239 0.2643736600875855 0.31345029239766092 0.0016064009789055888 0.29166666666666669 0.014995609875768425 0.051787256369362857 0.984286865431104 0.41759392619133001 0.0047947276506767533
decision_type=2 2 2 2 2 2 2 2 2 2 2 2 2 2 2 2
left_child=1 2 5 6 -5 -1 8 -2 -3 -7 11 -4 -8 14 -13 -11
right_child=7 3 10 4 -6 9 12 -9 -10 15 -12 13 -14 -15 -16 -17
leaf_value=-0.058110417910347684 0.18131124129025844 -0.001042578997526722 -0.007284200535751132 0.012315626153231701 0.058972012497080707 -0.023931168146437115 0.00082580334553879024 0.19944835589179655 0.00082580334553879024 -0.015449159759038482 -0.001042578997526722 -0.0032153976863624496 0.0026691726399922047 -0.0020550145892107552 -0.0025698382018168112 -0.013736234875384133
leaf_weight=2.7620595544576672 3.5089576095342627 197.55817274749279 17.560851372778416 4.6763139516115171 3.8206440210342407 5.7982279509305963 7.7683277726173392 3.6493256539106369 2.8817990124225608 3.4824171066284189 3.634058102965354 524.78974688798189 245.5406733751297 3.0027841329574576 11.377175033092497 4.2153615653514827
leaf_count=23 24 1579 141 37 30 47 62 25 23 28 28 4201 1957 24 91 34
internal_value=-8.23279e-07 -0.00131386 -0.00350658 0.00142142 0.0236256 -0.0245772 0.00100562 0.190558 -0.000717473 -0.0177144 -0.00289525 -0.00306745 0.00236908 -0.00293011 -0.00308466 -0.0137362
internal_weight=1046.03 1038.87 576.623 462.246 8.49696 16.2581 453.749 7.15828 200.44 13.496 560.365 556.731 253.309 539.17 536.167 7.69778
internal_count=8354 8305 4617 3688 67 132 3621 49 1602 109 4485 4457 2019 4316 4292 62
is_linear=0
shrinkage=0.05


Tree=2
num_leaves=16
num_cat=0
split_feature=1 1 0 2 4 1 0 0 0 4 4 4 0 4 0
split_gain=85.0238 4.22317 4.72396 2.39199 2.50259 1.654 1.51642 0.457283 0.37694 0.180773 0.140645 0.124633 0.109653 0.086798 0.0480547
threshold=0.75000000000000011 0.29166666666666669 0.18592374771833423 1.0000000180025095e-35 0.010066642447238087 0.13333333333333336 0.10559387505054475 0.10155420750379564 0.13481657952070239 0.31345029239766092 0.0024470011766155272 0.984286865431104 0.014995609875768425 0.051787256369362857 0.41759392619133001
decision_type=2 2 2 2 2 2 2 2 2 2 2 2 2 2 2
left_child=1 3 -3 4 6 8 -1 -7 9 -5 -8 12 -6 -10 -14
right_child=-2 2 -4 5 11 7 10 -9 13 -11 -12 -13 14 -15 -16
leaf_value=-0.057652551044513757 0.19388666754909928 0.018797113564707313 0.083366865553060374 -0.0010460710085574288 -0.0069567774942530421 0.0098757423083834575 -0.021425529967888726 0.018797113564707313 0.00078350932574026912 0.00078350932574026912 -0.013029572021421904 -0.0010460710085574288 -0.0030617700190122797 0.002530821011372275 -0.0020523831521381203
leaf_weight=2.6476889103651038 5.6240912377834311 3.1067951470613471 3.4697306305170059 197.41262276470661 17.470354355871677 4.4599845260381681 6.7934299558401099 3.9799721539020538 7.7728584408760062 2.8834797441959372 6.2589812055230132 2.9984244704246512 523.59687681496143 246.00346753001213 11.356512218713759
leaf_count=23 33 24 24 1579 141 35 56 30 62 23 51 24 4201 1957 91
internal_value=2.17986e-06 -0.00104609 0.0388944 -0.00130021 -0.00346474 0.0013726 -0.0231509 0.0187971 0.000954371 -0.000667188 -0.0161522 -0.00290828 -0.0030587 0.00223421 -0.00293139
internal_weight=1045.84 1040.21 6.57653 1033.63 571.122 462.512 15.7001 8.43996 454.072 200.296 13.0524 555.422 552.424 253.776 534.953
internal_count=8354 8321 48 8273 4587 3686 130 65 3621 1602 107 4457 4433 2019 4292
is_linear=0
shrinkage=0.05


Tree=3
num_leaves=17
num_cat=0
split_feature=1 2 4 0 1 0 4 0 4 0 1 0 4 4 0 4
split_gain=69.0928 2.01764 2.54955 1.41556 1.32448 2.42555 0.33573 0.581155 0.142098 0.137246 0.117909 0.108385 0.0986893 0.0559697 0.0279061 0.000882397
threshold=0.41666666666666669 1.0000000180025095e-35 0.010066642447238087 0.10559387505054475 0.13333333333333336 0.10155420750379564 0.31345029239766092 0.13481657952070239 0.0016064009789055888 0.2643736600875855 0.29166666666666669 0.014995609875768425 0.051787256369362857 0.984286865431104 0.41759392619133001 0.0047947276506767533
decision_type=2 2 2 2 2 2 2 2 2 2 2 2 2 2 2 2
left_child=1 2 3 -1 6 -6 7 -3 -5 -2 11 -4 -9 14 -13 -10
right_child=9 4 10 8 5 -7 -8 12 15 -11 -12 13 -14 -15 -16 -17
leaf_value=-0.057223838284360062 0.1333948887911228 -0.0009396375088771996 -0.0066425765078726301 -0.022505229617819283 0.010708871890363229 0.052103088008411604 0.010708871890363229 0.00071186106008666074 -0.014364776324353894 0.14591307758008351 -0.0009396375088771996 -0.002915168299858027 0.0026671245879937729 -0.0018483078908412679 -0.0023169226189744103 -0.012811042957240684
leaf_weight=2.5369496271014205 4.2734177410602552 197.26664926111698 17.38414666056633 5.6222656667232505 4.7511651962995511 4.0313659608364105 4.7740069776773444 7.7771590650081626 3.4140568524599066 4.490209624171257 3.7327958494424811 522.46225583553314 244.55370897054672 2.9962064623832694 11.340023867785929 4.1356474161148071
leaf_count=23 24 1579 141 47 37 30 38 62 28 25 28 4201 1942 24 91 34
internal_value=5.71539e-06 -0.00117601 -0.00315798 -0.0230234 0.0012787 0.0205108 0.000906968 0.000760789 -0.0164364 0.139809 -0.00259864 -0.00275698 0.00236336 -0.00263114 -0.00278554 -0.012811
internal_weight=1045.54 1036.78 573.624 15.7089 463.154 8.78253 454.372 449.598 13.172 8.76363 557.915 554.183 252.331 536.798 533.802 7.5497
internal_count=8354 8305 4617 132 3688 67 3621 3583 109 49 4485 4457 2004 4316 4292 62
is_linear=0
shrinkage=0.05


Tree=4
num_leaves=16
num_cat=0
split_feature=1 1 2 4 0 1 0 4 0 4 1 0 4 4 0
split_gain=59.0658 4.54024 1.78984 2.35036 1.38013 1.11059 1.66544 0.30239 0.524615 0.134272 0.110694 0.0993541 0.0931732 0.0529135 0.026614
threshold=0.75000000000000011 0.41666666666666669 1.0000000180025095e-35 0.010066642447238087 0.10559387505054475 0.13333333333333336 0.10155420750379564 0.31345029239766092 0.13481657952070239 0.0016064009789055888 0.29166666666666669 0.014995609875768425 0.051787256369362857 0.984286865431104 0.41759392619133001
decision_type=2 2 2 2 2 2 2 2 2 2 2 2 2 2 2
left_child=1 2 3 4 -1 7 -7 8 -4 -6 11 -5 -10 14 -13
right_child=-2 -3 5 10 9 6 -8 -9 12 -11 -12 13 -14 -15 -16
leaf_value=-0.056822067220991618 0.14851631225578429 0.06325416757882861 -0.00089778153135422587 -0.0063411804616028107 -0.021740715558340905 0.0097355324653511047 0.03106877883916892 0.0097355324653511047 0.00066550744319160036 -0.012342959934407578 -0.00089778153135422587 -0.0027752854817775161 0.0025288858442579268 -0.0017548984601612966 -0.0022004482418533028
leaf_weight=2.4298516437411299 6.652475342154502 2.7465735226869574 197.13556957244873 17.302037090063095 5.5313311070203772 4.7867106944322568 4.1752302646636963 4.8101328760385504 7.7810679674148551 7.4768457487225524 3.7304039150476447 521.3831295594573 245.01341891288757 2.9922893643379203 11.321424216032026
leaf_count=23 33 16 1579 141 47 37 30 38 62 62 28 4201 1942 24 91
internal_value=4.85163e-06 -0.000946384 -0.00111661 -0.00298765 -0.0222319 0.00119208 0.0186225 0.000848568 0.000707649 -0.0157707 -0.00245401 -0.00261202 0.0022288 -0.00249157 -0.002646
internal_weight=1045.27 1038.62 1035.87 572.167 15.438 463.702 8.96194 454.74 449.93 13.0082 556.729 552.999 252.794 535.697 532.705
internal_count=8354 8321 8305 4617 132 3688 67 3621 3583 109 4485 4457 2004 4316 4292
is_linear=0
shrinkage=0.05


Tree=5
num_leaves=16
num_cat=0
split_feature=1 1 2 4 0 1 0 4 0 4 1 0 4 4 0
split_gain=50.012 3.95478 1.59262 2.168 1.34452 0.982036 1.497 0.276915 0.473365 0.126209 0.104122 0.0910654 0.0878908 0.0501434 0.0254412
threshold=0.75000000000000011 0.41666666666666669 1.0000000180025095e-35 0.010066642447238087 0.10559387505054475 0.13333333333333336 0.10155420750379564 0.31345029239766092 0.13481657952070239 0.0016064009789055888 0.29166666666666669 0.014995609875768425 0.051787256369362857 0.984286865431104 0.41759392619133001
decision_type=2 2 2 2 2 2 2 2 2 2 2 2 2 2 2
left_child=1 2 3 4 -1 7 -7 8 -4 -6 11 -5 -10 14 -13
right_child=-2 -3 5 10 9 6 -8 -9 12 -11 -12 13 -14 -15 -16
leaf_value=-0.056445231386847872 0.13254546307864162 0.057992147587870795 -0.00085352070838194238 -0.0060521907998020586 -0.020992678380195653 0.0090963189972366448 0.028467748377254937 0.0090963189972366448 0.00062396681785622805 -0.011891696051479437 -0.00085352070838194238 -0.0026418590276117192 0.0023980599313138469 -0.0016636241709229553 -0.0020882648717354311
leaf_weight=2.3263860493898383 7.069494515657424 2.8433574438095084 197.01036035269499 17.223841801285744 5.4442658424377433 4.819131523370741 4.2619214951992035 4.8430905640125266 7.7847228050231925 7.4106243252754203 3.7281194329261771 520.35680619627237 245.44968903064728 2.9885725378990164 11.303774446249006
leaf_count=23 33 16 1579 141 47 37 30 38 62 62 28 4201 1942 24 91
internal_value=7.98158e-06 -0.000894869 -0.00105665 -0.00282541 -0.0214674 0.00111837 0.0173991 0.000793492 0.000657359 -0.0151373 -0.00231603 -0.00247373 0.00210145 -0.00235845 -0.00251291
internal_weight=1044.86 1037.79 1034.95 570.782 15.1813 464.169 9.08105 455.088 450.245 12.8549 555.601 551.873 253.234 534.649 531.661
internal_count=8354 8321 8305 4617 132 3688 67 3621 3583 109 4485 4457 2004 4316 4292
is_linear=0
shrinkage=0.05


Tree=6
num_leaves=16
num_cat=0
split_feature=1 1 2 4 0 1 0 4 0 4 1 0 4 4 0
split_gain=42.9949 3.45939 1.41576 1.99823 1.30964 0.870691 1.35291 0.254142 0.427127 0.118542 0.0979073 0.0834618 0.0829194 0.0475217 0.0243332
threshold=0.75000000000000011 0.41666666666666669 1.0000000180025095e-35 0.010066642447238087 0.10559387505054475 0.13333333333333336 0.10155420750379564 0.31345029239766092 0.13481657952070239 0.0016064009789055888 0.29166666666666669 0.014995609875768425 0.051787256369362857 0.984286865431104 0.41759392619133001
decision_type=2 2 2 2 2 2 2 2 2 2 2 2 2 2 2
left_child=1 2 3 4 -1 7 -7 8 -4 -6 11 -5 -10 14 -13
right_child=-2 -3 5 10 9 6 -8 -9 12 -11 -12 13 -14 -15 -16
leaf_value=-0.056091502472172386 0.12006797601409383 0.053393842064752853 -0.0008108487032699738 -0.0057752047221355041 -0.020261197532951424 0.0085130796844263591 0.026197212622729799 0.0085130796844263591 0.00058503229080690794 -0.011451383944668821 -0.0008108487032699738 -0.002514609769273448 0.00227421825824218 -0.0015763395972642038 -0.0019811610257439612
leaf_weight=2.2265285104513159 7.4045182168483725 2.9314226806163779 196.89137453585863 17.149381153285503 5.3609396219253531 4.8495142161846143 4.3418897688388824 4.8739817142486563 7.7881494462490073 7.3471256867051116 3.7259476929903022 519.38081305474043 245.86373472213745 2.9850513339042655 11.287037268280981
leaf_count=23 33 16 1579 141 47 37 30 38 62 62 28 4201 1942 24 91
internal_value=1.15827e-05 -0.000845657 -0.000999417 -0.00267051 -0.0207183 0.00104881 0.0162848 0.00074131 0.000609662 -0.0145207 -0.00218444 -0.00234183 0.00198091 -0.0022315 -0.00238598
internal_weight=1044.41 1037 1034.07 569.463 14.9346 464.609 9.1914 455.417 450.543 12.7081 554.528 550.802 253.652 533.653 530.668
internal_count=8354 8321 8305 4617 132 3688 67 3621 3583 109 4485 4457 2004 4316 4292
is_linear=0
shrinkage=0.05


Tree=7
num_leaves=16
num_cat=0
split_feature=1 1 2 4 0 1 0 4 0 4 1 4 0 4 0
split_gain=37.3968 3.03689 1.25721 1.8403 1.27537 0.773779 1.22854 0.233714 0.385407 0.111258 0.092029 0.0782395 0.0764895 0.0450394 0.0232857
threshold=0.75000000000000011 0.41666666666666669 1.0000000180025095e-35 0.010066642447238087 0.10559387505054475 0.13333333333333336 0.10155420750379564 0.31345029239766092 0.13481657952070239 0.0016064009789055888 0.29166666666666669 0.051787256369362857 0.014995609875768425 0.984286865431104 0.41759392619133001
decision_type=2 2 2 2 2 2 2 2 2 2 2 2 2 2 2
left_child=1 2 3 4 -1 7 -7 8 -4 -6 12 -10 -5 14 -14
right_child=-2 -3 5 10 9 6 -8 -9 11 -11 -12 -13 13 -15 -16
leaf_value=-0.055759225184122387 0.11001856113370317 0.049337526506388757 -0.00076975937882893769 -0.0055098198899489175 -0.019546332334341172 0.0079785896927335159 0.024196358981614825 0.0079785896927335159 0.00054851830099168796 -0.011021878777498533 -0.00076975937882893769 0.0021569734670764638 -0.0023932673791448025 -0.0014929030776298828 -0.0018789309509916912
leaf_weight=2.1302408128976813 7.6694145053625098 3.0116350501775733 196.77836506813765 17.078488111495972 5.281222775578498 4.8780264705419523 4.4158896803855896 4.90297608077526 7.7913645207881919 7.286261834204196 3.7238854914903632 246.25674244761467 518.45267744362354 2.981716811656951 11.271169967949389
leaf_count=23 33 16 1579 141 47 37 30 38 62 62 28 1942 4201 24 91
internal_value=1.54812e-05 -0.000798673 -0.000944809 -0.00252264 -0.0199848 0.000983118 0.0152653 0.000691853 0.000564413 -0.0139209 -0.00205895 0.0018668 -0.00221605 -0.00211045 -0.00226496
internal_weight=1043.91 1036.24 1033.23 568.206 14.6977 465.023 9.29392 455.729 450.826 12.5675 553.508 254.048 549.784 532.706 529.724
internal_count=8354 8321 8305 4617 132 3688 67 3621 3583 109 4485 2004 4457 4316 4292
is_linear=0
shrinkage=0.05


Tree=8
num_leaves=15
num_cat=0
split_feature=1 4 2 4 0 1 0 4 0 1 4 4 0 0
split_gain=32.8291 2.72888 1.22452 1.67746 1.24165 1.1114 1.10142 0.240158 0.347816 0.133674 0.104048 0.0738594 0.0636001 0.0364426
threshold=0.75000000000000011 0.984286865431104 1.0000000180025095e-35 0.010066642447238087 0.10559387505054475 0.13333333333333336 0.10155420750379564 0.31345029239766092 0.13481657952070239 0.29166666666666669 0.0016064009789055888 0.051787256369362857 0.014995609875768425 0.41759392619133001
decision_type=2 2 2 2 2 2 2 2 2 2 2 2 2 2
left_child=1 2 3 4 -1 7 -7 8 -4 12 -6 -10 -5 -14
right_child=-2 -3 5 9 10 6 -8 -9 11 -11 -12 -13 13 -15
leaf_value=-0.055446890372440751 0.10172752742718894 0.044153916640643498 -0.00073136320851273449 -0.0052556414511031107 -0.018848158663643713 0.0092464441816279969 0.021626680723854805 0.0092464441816279969 0.00051368286668412194 -0.00073136320851273449 -0.010644093023672856 0.0020459417198994494 -0.0022775841880351591 -0.0014888752645922688
leaf_weight=2.0374732613563529 7.874056562781333 3.3718220293521872 196.67110842466354 17.01099669188261 5.2049866169691077 4.9048156142234784 4.6811841577291489 4.9302231520414344 7.7943781912326804 6.2167975455522528 7.227946236729621 246.62975397706032 517.5701457709074 11.25613186508417
leaf_count=23 33 26 1579 141 47 37 31 38 62 41 62 1942 4201 91
internal_value=1.95442e-05 -0.000753849 -0.000900555 -0.00246185 -0.0192668 0.000999128 0.0178479 0.000644954 0.000521467 -0.00202136 -0.0133377 0.00175873 -0.00224639 -0.00214959
internal_weight=1043.38 1035.51 1032.14 566.524 14.4704 465.611 9.586 456.025 451.095 552.054 12.4329 254.424 545.837 528.826
internal_count=8354 8321 8295 4606 132 3689 68 3621 3583 4474 109 2004 4433 4292
is_linear=0
shrinkage=0.05


Tree=9
num_leaves=16
num_cat=0
split_feature=1 2 4 0 1 0 4 0 0 4 1 4 0 4 0
split_gain=29.4737 0.994694 1.5547 1.20846 0.612047 1.53841 0.196102 0.31413 0.133641 0.0977829 0.08162 0.0698454 0.0637119 0.0369283 0.0210672
threshold=0.41666666666666669 1.0000000180025095e-35 0.010066642447238087 0.10559387505054475 0.13333333333333336 0.10155420750379564 0.31345029239766092 0.13481657952070239 0.2643736600875855 0.0024470011766155272 0.29166666666666669 0.051787256369362857 0.014995609875768425 0.984286865431104 0.41759392619133001
decision_type=2 2 2 2 2 2 2 2 2 2 2 2 2 2 2
left_child=1 2 3 -1 6 -6 7 -3 -2 -5 12 -9 -4 14 -14
right_child=8 4 10 9 5 -7 -8 11 -10 -11 -12 -13 13 -15 -16
leaf_value=-0.0551530949100833 0.075385137843080499 -0.00069905160523037809 -0.0050122838708027981 -0.017403201146563175 0.0070167389462025389 0.03754352812187333 0.0070167389462025389 0.00047866616578599467 0.086350108084202501 -0.010200679363550427 -0.00069905160523037809 0.0019407847998730013 -0.002167309075629462 -0.0013466805059912069 -0.0016932999605875319
leaf_weight=1.948167249560355 5.439548194408415 196.56922814249992 16.946752466261387 6.27828724682331 4.9359411895275098 4.5461542904376984 4.9618873447179785 7.7972015440464011 5.6810605078935623 6.0256970524787894 3.7200683057308188 246.98381108045578 516.73096444457769 3.0726134777069083 11.244222745299338
leaf_count=23 24 1579 141 57 37 30 38 62 25 52 28 1942 4201 24 91
internal_value=2.21629e-05 -0.000850495 -0.0022589 -0.0185637 0.000860795 0.013434 0.000599527 0.000480721 0.0809867 -0.0127702 -0.00183771 0.00165638 -0.00199431 -0.001898 -0.00203992
internal_weight=1042.88 1031.76 565.967 14.2522 465.794 9.4821 456.312 451.35 11.1206 12.304 551.715 254.781 547.995 531.048 527.975
internal_count=8354 8305 4617 132 3688 67 3621 3583 49 109 4485 2004 4457 4316 4292
is_linear=0
shrinkage=0.05


Tree=10
num_leaves=15
num_cat=0
split_feature=1 4 2 4 0 1 0 4 0 1 4 4 0 0
split_gain=26.2945 2.32609 0.975106 1.41027 1.17643 0.861737 0.98805 0.202481 0.28391 0.10839 0.0925551 0.0661651 0.0529443 0.0325942
threshold=0.75000000000000011 0.984286865431104 1.0000000180025095e-35 0.010066642447238087 0.10559387505054475 0.13333333333333336 0.10155420750379564 0.31345029239766092 0.13481657952070239 0.29166666666666669 0.0016064009789055888 0.051787256369362857 0.014995609875768425 0.41759392619133001
decision_type=2 2 2 2 2 2 2 2 2 2 2 2 2 2
left_child=1 2 3 4 -1 7 -7 8 -4 12 -6 -10 -5 -14
right_child=-2 -3 5 9 10 6 -8 -9 11 -11 -12 -13 13 -15
leaf_value=-0.054876583766514012 0.089643428387444601 0.040093081980036263 -0.00067218634126378846 -0.0047793670007239223 -0.017530200544765201 0.0080427137436342652 0.019637012607130841 0.0080427137436342652 0.00044362836238574636 -0.00067218634126378846 -0.0098415970490531145 0.0018411723871288171 -0.0020622131615254846 -0.0013477901784966712
leaf_weight=1.8622552603483189 8.1206368505954725 3.4860035181045523 196.47187718003988 16.885604158043861 5.0653671771287909 4.9596177637577039 4.8597457259893417 4.9859769642353049 7.7998327314853659 6.307217374444007 7.1123426854610434 247.31989765167236 515.93309897184372 11.230686418712137
leaf_count=23 33 26 1579 141 47 37 31 38 62 41 62 1942 4201 91
internal_value=2.24942e-05 -0.000681164 -0.000819057 -0.00221702 -0.0178654 0.000872647 0.015528 0.000557463 0.000442153 -0.00181782 -0.0122055 0.00155944 -0.00202339 -0.00193512
internal_weight=1042.4 1034.28 1030.79 564.397 14.04 466.397 9.81936 456.578 451.592 550.357 12.1777 255.12 544.049 527.164
internal_count=8354 8321 8295 4606 132 3689 68 3621 3583 4474 109 2004 4433 4292
is_linear=0
shrinkage=0.05


Tree=11
num_leaves=16
num_cat=0
split_feature=1 2 4 0 1 0 4 0 0 4 1 4 0 4 0
split_gain=23.6688 0.778946 1.30664 1.1441 0.448758 1.30781 0.161482 0.25613 0.117401 0.0869429 0.0720432 0.0624927 0.0530266 0.0300799 0.0190327
threshold=0.41666666666666669 1.0000000180025095e-35 0.010066642447238087 0.10559387505054475 0.13333333333333336 0.10155420750379564 0.31345029239766092 0.13481657952070239 0.2643736600875855 0.0016064009789055888 0.29166666666666669 0.051787256369362857 0.014995609875768425 0.984286865431104 0.41759392619133001
decision_type=2 2 2 2 2 2 2 2 2 2 2 2 2 2 2
left_child=1 2 3 -1 6 -6 7 -3 -2 -5 12 -9 -4 14 -14
right_child=8 4 10 9 5 -7 -8 11 -10 -11 -12 -13 13 -15 -16
leaf_value=-0.054616181968306247 0.066440872950338584 -0.00063800207635392864 -0.0045565152178777173 -0.016881686056781392 0.0059518949491558105 0.033429060127268297 0.0059518949491558105 0.00041480607847186647 0.07658497607521865 -0.0094149301027197409 -0.00063800207635392864 0.0017468015456538846 -0.0019620620348951771 -0.0012156488039649434 -0.0015255845522225133
leaf_weight=1.7796641215682019 5.578096076846121 196.37829084694386 16.827407844364643 4.9986900836229315 4.9868150353431684 4.7098928689956665 5.0136531442403784 7.8022717535495749 5.836668461561203 7.060971997678279 3.7165832221508017 247.6389397084713 515.17448356002569 3.1562948226928702 11.219918377697466
leaf_count=23 24 1579 141 47 37 30 38 62 25 62 28 1942 4201 24 91
internal_value=2.46411e-05 -0.000768529 -0.00201888 -0.0171927 0.000742879 0.0113868 0.000516951 0.000405734 0.0716278 -0.0116701 -0.00163714 0.00146761 -0.0017933 -0.00170549 -0.00183552
internal_weight=1041.88 1030.46 563.934 13.8393 466.53 9.69671 456.833 451.82 11.4148 12.0597 550.095 255.441 546.378 529.551 526.394
internal_count=8354 8305 4617 132 3688 67 3621 3583 49 109 4485 2004 4457 4316 4292
is_linear=0
shrinkage=0.05


Tree=12
num_leaves=15
num_cat=0
split_feature=1 4 2 4 0 1 0 4 0 1 4 4 0 0
split_gain=21.4556 1.99147 0.774116 1.18306 1.11211 0.665989 0.890429 0.171665 0.231703 0.0876698 0.0810745 0.0593382 0.0440503 0.0291381
threshold=0.75000000000000011 0.984286865431104 1.0000000180025095e-35 0.010066642447238087 0.10559387505054475 0.13333333333333336 0.10155420750379564 0.31345029239766092 0.13481657952070239 0.29166666666666669 0.0024470011766155272 0.051787256369362857 0.014995609875768425 0.41759392619133001
decision_type=2 2 2 2 2 2 2 2 2 2 2 2 2 2
left_child=1 2 3 4 -1 7 -7 8 -4 12 -6 -10 -5 -14
right_child=-2 -3 5 9 10 6 -8 -9 11 -11 -12 -13 13 -15
leaf_value=-0.054370825492812691 0.080426390581866125 0.036564425732266884 -0.00061789731938178562 -0.0043433597035425157 -0.01556065772723926 0.006992597737441957 0.017909491447479876 0.006992597737441957 0.00038135501233548528 -0.00061789731938178562 -0.0090848912253799468 0.0016573812027526312 -0.0018666394941542032 -0.0012193777540737494
leaf_weight=1.7003150060772885 8.231970474123953 3.5890356600284568 196.28948088735342 16.772028006613255 6.0505089908838263 5.0069815516471845 5.0203284919261932 5.0341781824827185 7.8045527935028067 6.3842692524194709 5.8965261504054061 247.94180539250374 514.45327151566744 11.207736022770403
leaf_count=23 33 26 1579 141 57 37 31 38 62 41 52 1942 4201 91
internal_value=2.47931e-05 -0.000615833 -0.000745443 -0.00199485 -0.0165365 0.000759052 0.0135058 0.000479412 0.000371161 -0.00163324 -0.0111519 0.00138061 -0.00182086 -0.00174037
internal_weight=1041.38 1033.15 1029.56 562.465 13.6474 467.097 10.0273 457.07 452.036 548.817 11.947 255.746 542.433 525.661
internal_count=8354 8321 8295 4606 132 3689 68 3621 3583 4474 109 2004 4433 4292
is_linear=0
shrinkage=0.05


Tree=13
num_leaves=15
num_cat=0
split_feature=1 4 2 4 0 1 0 4 0 1 4 4 0 0
split_gain=19.3212 1.75457 0.686332 1.08136 1.08119 0.602032 0.809338 0.15862 0.20897 0.0825451 0.0766952 0.056076 0.0401705 0.0276533
threshold=0.75000000000000011 0.984286865431104 1.0000000180025095e-35 0.010066642447238087 0.10559387505054475 0.13333333333333336 0.10155420750379564 0.31345029239766092 0.13481657952070239 0.29166666666666669 0.0016064009789055888 0.051787256369362857 0.014995609875768425 0.41759392619133001
decision_type=2 2 2 2 2 2 2 2 2 2 2 2 2 2
left_child=1 2 3 4 -1 7 -7 8 -4 12 -6 -10 -5 -14
right_child=-2 -3 5 9 10 6 -8 -9 11 -11 -12 -13 13 -15
leaf_value=-0.054139526109115259 0.076247484176897529 0.033906811834983189 -0.00058676072040270068 -0.0041395366395109009 -0.015661416823433645 0.0066127429054949061 0.016600711008857096 0.0066127429054949061 0.00035570351803743063 -0.00058676072040270068 -0.0087120427721383148 0.0015726395579626234 -0.0017757384888112517 -0.0011567900421507623
leaf_weight=1.62412480264902 8.2484333664178831 3.6745250523090354 196.203494399786 16.719331227242947 4.8767620772123328 5.0307172834873182 5.0733835250139236 5.0583390444517127 7.8066499829292288 6.3820061832666388 6.9596484825015059 248.2293339073658 513.76761614531279 11.198003970086573
leaf_count=23 33 26 1579 141 47 37 31 38 62 41 62 1942 4201 91
internal_value=2.66295e-05 -0.000582222 -0.00070539 -0.00188355 -0.0158844 0.000710028 0.0127822 0.00044329 0.000338611 -0.00153969 -0.0106352 0.00129817 -0.00172682 -0.00164998
internal_weight=1040.85 1032.6 1028.93 561.527 13.4605 467.402 10.1041 457.298 452.239 548.067 11.8364 256.036 541.685 524.966
internal_count=8354 8321 8295 4606 132 3689 68 3621 3583 4474 109 2004 4433 4292
is_linear=0
shrinkage=0.05


Tree=14
num_leaves=16
num_cat=0
split_feature=1 2 4 0 1 0 4 0 0 4 1 4 0 0 4
split_gain=17.6135 0.53781 0.999774 1.04998 0.284692 1.06552 0.121399 0.188437 0.109285 0.0719753 0.0597911 0.0529985 0.0400401 0.0230764 0.0146287
threshold=0.41666666666666669 1.0000000180025095e-35 0.010066642447238087 0.10559387505054475 0.13333333333333336 0.10155420750379564 0.31345029239766092 0.13481657952070239 0.2643736600875855 0.0016064009789055888 0.29166666666666669 0.051787256369362857 0.014995609875768425 0.41759392619133001 0.984286865431104
decision_type=2 2 2 2 2 2 2 2 2 2 2 2 2 2 2
left_child=1 2 3 -1 6 -6 7 -3 -2 -5 12 -9 -4 14 -14
right_child=8 4 10 9 5 -7 -8 11 -10 -11 -12 -13 13 -15 -16
leaf_value=-0.053921367479439819 0.056402275321802954 -0.00055694712037398456 -0.0039447004172285709 -0.01506268629940587 0.0046816977255589422 0.028766534536785095 0.0046816977255589422 0.00033154760887214543 0.066123456094836663 -0.0083173918342428505 -0.00055694712037398456 0.0014923267800894936 -0.0016891544394649627 -0.0010444656900751061 -0.0013111766215126624
leaf_weight=1.5510076582431782 5.6521757394075376 196.12186076492071 16.669191442430019 4.8185923844575873 5.053204879164694 4.9055573344230652 5.0812326669692984 7.8086067438125601 5.9183177053928375 6.9147396832704535 3.7119021117687216 248.50230658054352 513.11576465517282 11.188774995505808 3.3083059787750235
leaf_count=23 24 1579 141 47 37 30 38 62 25 62 28 1942 4201 91 24
internal_value=2.83435e-05 -0.000661626 -0.00170495 -0.0152584 0.000591054 0.00895439 0.000409009 0.000307716 0.0613747 -0.0101476 -0.00137639 0.00122004 -0.00153198 -0.00145576 -0.00157789
internal_weight=1040.32 1028.75 561.278 13.2843 467.473 9.95876 457.514 452.433 11.5705 11.7333 547.994 256.311 544.282 527.613 516.424
internal_count=8354 8305 4617 132 3688 67 3621 3583 49 109 4485 2004 4457 4316 4225
is_linear=0
shrinkage=0.05


Tree=15
num_leaves=15
num_cat=0
split_feature=1 4 2 4 0 1 0 4 0 4 1 4 0 0
split_gain=16.0654 1.51169 0.541622 0.901971 1.0191 0.463409 0.737287 0.13536 0.170435 0.0672478 0.0667734 0.050357 0.0333983 0.0246562
threshold=0.75000000000000011 0.984286865431104 1.0000000180025095e-35 0.010066642447238087 0.10559387505054475 0.13333333333333336 0.10155420750379564 0.31345029239766092 0.13481657952070239 0.0024470011766155272 0.29166666666666669 0.051787256369362857 0.014995609875768425 0.41759392619133001
decision_type=2 2 2 2 2 2 2 2 2 2 2 2 2 2
left_child=1 2 3 4 -1 7 -7 8 -4 -6 12 -10 -5 -14
right_child=-2 -3 5 10 9 6 -8 -9 11 -11 -12 -13 13 -15
leaf_value=-0.053715525976066818 0.069675268558638828 0.031115777546991803 -0.000539245650746201 -0.0037585074327508338 -0.013864810401000738 0.0057445945407603848 0.015236768280667232 0.0057445945407603848 0.00030337070643312794 -0.0080149082965135492 -0.000539245650746201 0.0014161920038829757 -0.0016066816629622237 -0.0010456051049857757
leaf_weight=1.4808748066425312 8.2144621014595014 3.7608133256435385 196.04437998682261 16.621488891541958 5.8517229780554763 5.069149896502493 5.2106702625751495 5.0974675416946402 7.8104304671287528 5.7833785265684119 6.4454061836004248 248.7614758014679 512.49612075090408 11.180445730686186
leaf_count=23 33 26 1579 141 57 37 31 38 62 52 41 1942 4201 91
internal_value=2.81163e-05 -0.000526465 -0.000642241 -0.00169162 -0.014649 0.000613131 0.0111118 0.00037734 0.000278379 -0.00967679 -0.00138078 0.00114599 -0.00155196 -0.00148193
internal_weight=1039.83 1031.61 1027.85 559.859 13.116 467.994 10.2798 457.714 452.616 11.6351 546.743 256.572 540.298 523.677
internal_count=8354 8321 8295 4606 132 3689 68 3621 3583 109 4474 2004 4433 4292
is_linear=0
shrinkage=0.05


Tree=16
num_leaves=13
num_cat=0
split_feature=1 4 2 4 0 4 0 1 4 1 0 0
split_gain=14.5834 1.33759 0.47849 0.821965 0.989185 0.429954 0.2804 0.195074 0.0631605 0.0627814 0.0304521 0.0234052
threshold=0.75000000000000011 0.984286865431104 1.0000000180025095e-35 0.010066642447238087 0.10559387505054475 0.31345029239766092 0.13641902804374698 1.0000000180025095e-35 0.0016064009789055888 0.29166666666666669 0.014995609875768425 0.41759392619133001
decision_type=2 2 2 2 2 2 2 2 2 2 2 2
left_child=1 2 3 4 -1 6 -4 -8 -6 10 -5 -12
right_child=-2 -3 5 9 8 -7 7 -9 -10 -11 11 -13
leaf_value=-0.053521209481519338 0.066575774511793889 0.028979657560114183 -0.00051190129504762884 -0.0035806113971833262 -0.013939656169091767 0.014186002097372891 0.0013495386206634329 0.0072972952230519368 -0.0076720925919984339 -0.00051190129504762884 -0.0015281526066726824 -0.00099130318303449318
leaf_weight=1.4136367961764325 8.1681751161813718 3.8341583013534537 208.3045666590333 16.576109066605568 4.7123464047908774 5.3406283110380164 250.67163072526455 3.9341390430927268 6.8262570202350608 6.4434537589550009 511.90708813816309 11.172111041843889
leaf_count=23 33 26 1667 141 47 39 1956 27 62 41 4201 91
internal_value=2.95117e-05 -0.000497636 -0.000607653 -0.00159523 -0.0140442 0.000571427 0.000408588 0.00156025 -0.00920775 -0.00129997 -0.00147071 -0.00140384
internal_weight=1039.3 1031.14 1027.3 559.051 12.9522 468.251 462.91 254.606 11.5386 546.099 539.655 523.079
internal_count=8354 8321 8295 4606 132 3689 3650 1983 109 4474 4433 4292
is_linear=0
shrinkage=0.05


Tree=17
num_leaves=16
num_cat=0
split_feature=1 2 4 0 1 0 0 4 0 4 1 4 0 0 4
split_gain=13.3568 0.367511 0.758391 0.959099 0.199866 0.91026 0.104047 0.0889554 0.137921 0.0595866 0.0494976 0.0452637 0.0301825 0.0197107 0.0103272
threshold=0.41666666666666669 1.0000000180025095e-35 0.010066642447238087 0.10559387505054475 0.13333333333333336 0.10155420750379564 0.2643736600875855 0.31345029239766092 0.13481657952070239 0.0024470011766155272 0.29166666666666669 0.051787256369362857 0.014995609875768425 0.41759392619133001 0.984286865431104
decision_type=2 2 2 2 2 2 2 2 2 2 2 2 2 2 2
left_child=1 2 3 -1 7 -6 -2 8 -3 -5 12 -10 -4 14 -14
right_child=6 4 10 9 5 -7 -8 -9 11 -11 -12 -13 13 -15 -16
leaf_value=-0.053337699543599154 0.048692923580867853 -0.00048450378937776406 -0.0034106963965178324 -0.012806784841774627 0.0038620569925698189 0.025698744342577219 0.058196095226746514 0.0038620569925698189 0.00026106553549125067 -0.0073086749564089896 -0.00048450378937776406 0.0012746349258231735 -0.0014533773279917644 -0.00089582735230460885 -0.001128995706682092
leaf_weight=1.3492022901773442 5.6301629245281202 195.89820648729801 16.532941661775112 5.73282716423273 5.0869947671890241 5.0401050746440887 5.8971131145954132 5.1668237298727027 7.8197241574525824 5.7160384953021994 3.7078187465667716 249.24443419277668 511.34719572216272 11.164211630821226 3.4395021200180045
leaf_count=23 24 1579 141 57 37 30 25 38 62 52 28 1942 4201 91 24
internal_value=3.22373e-05 -0.000568365 -0.00143395 -0.0134653 0.000464939 0.00741276 0.0535545 0.000311355 0.000223065 -0.00876652 -0.00115203 0.00100663 -0.00130715 -0.00124103 -0.00136216
internal_weight=1038.77 1027.25 558.99 12.7981 468.256 10.1271 11.5273 458.129 452.962 11.4489 546.192 257.064 542.484 525.951 514.787
internal_count=8354 8305 4617 132 3688 67 49 3621 3583 109 4485 2004 4457 4316 4225
is_linear=0
shrinkage=0.05


Tree=18
num_leaves=13
num_cat=0
split_feature=1 4 2 4 0 4 0 1 4 1 0 0
split_gain=12.2777 1.15676 0.375794 0.680324 0.929851 0.369505 0.240345 0.167388 0.0555448 0.0507998 0.0253156 0.0209006
threshold=0.75000000000000011 0.984286865431104 1.0000000180025095e-35 0.010066642447238087 0.10559387505054475 0.31345029239766092 0.13641902804374698 1.0000000180025095e-35 0.0016064009789055888 0.29166666666666669 0.014995609875768425 0.41759392619133001
decision_type=2 2 2 2 2 2 2 2 2 2 2 2
left_child=1 2 3 4 -1 6 -4 -8 -6 10 -5 -12
right_child=-2 -3 5 9 8 -7 7 -9 -10 -11 11 -13
leaf_value=-0.053164341390884988 0.061566550182908089 0.02670507491813949 -0.00046899433429023425 -0.003248441380628948 -0.012880811141516924 0.013076463550924894 0.0012175070223978772 0.0067080364490058955 -0.0070281539402133972 -0.00046899433429023425 -0.0013821850895096607 -0.00089434577153791684
leaf_weight=1.2874801233410824 8.0433100014924985 3.9072344005107871 208.22315100580454 16.49188057333231 4.6155067309737197 5.4086001813411704 251.12576006352901 3.9836491942405692 6.7456080913543692 6.4965292811393729 510.81497240811586 11.157075650990008
leaf_count=23 33 26 1667 141 47 39 1956 27 62 41 4201 91
internal_value=3.16332e-05 -0.000448775 -0.000552148 -0.00142935 -0.012893 0.000491359 0.000339609 0.00141325 -0.00832935 -0.00116327 -0.0013197 -0.00125876
internal_weight=1038.3 1030.26 1026.35 557.609 12.6486 468.741 463.333 255.109 11.3611 544.96 538.464 521.972
internal_count=8354 8321 8295 4606 132 3689 3650 1983 109 4474 4433 4292
is_linear=0
shrinkage=0.05


Tree=19
num_leaves=13
num_cat=0
split_feature=1 1 0 2 4 0 4 0 4 0 0 4
split_gain=11.2026 1.06702 1.50951 0.338285 0.505469 0.943301 0.0946727 0.21349 0.0443305 0.0351691 0.0220876 0.0127169
threshold=0.75000000000000011 0.29166666666666669 0.18592374771833423 1.0000000180025095e-35 0.010066642447238087 0.10559387505054475 0.31345029239766092 0.13641902804374698 0.0024470011766155272 0.41759392619133001 0.014995609875768425 0.984286865431104
decision_type=2 2 2 2 2 2 2 2 2 2 2 2
left_child=1 3 -3 4 5 -1 7 -5 -7 10 -6 -12
right_child=-2 2 -4 6 9 8 -8 -9 -10 -11 11 -13
leaf_value=-0.053000507165500081 0.059127502148611844 0.0087669972157069891 0.029352241497729359 -0.0004867655357397611 -0.0030935361952301901 -0.010846803196109912 0.0071180815332175656 0.0013468325135112947 -0.006304530499719691 -0.0004867655357397611 -0.001314412973506056 -0.00088847604220989619
leaf_weight=1.2283790446817864 7.9584946185350409 3.3178100734949103 4.4013215824961662 207.87498118728399 16.452826000750065 5.508654221892356 5.2260654270648947 255.33944967389107 5.5280628129839888 11.14995390921831 510.30910360068083 3.4971216917037955
leaf_count=23 33 24 24 1665 141 56 38 1983 51 91 4201 24
internal_value=3.36546e-05 -0.000423019 0.0180969 -0.000562884 -0.00139957 -0.0114369 0.000426037 0.000350536 -0.00681088 -0.00117218 -0.00129019 -0.00123244
internal_weight=1037.79 1029.83 7.71913 1022.11 553.674 12.2651 468.44 463.214 11.0367 541.409 530.259 513.806
internal_count=8354 8321 48 8273 4587 130 3686 3648 107 4457 4366 4225
is_linear=0
shrinkage=0.05


Tree=20
num_leaves=13
num_cat=0
split_feature=1 4 1 0 2 4 0 0 4 4 0 0
split_gain=10.2366 1.01383 0.305671 0.477803 0.32558 0.44897 0.912472 0.0777088 0.0704654 0.0406827 0.0352993 0.0182936
threshold=0.75000000000000011 0.984286865431104 0.29166666666666669 0.18592374771833423 1.0000000180025095e-35 0.010066642447238087 0.10559387505054475 0.13641902804374698 0.31345029239766092 0.0024470011766155272 0.41759392619133001 0.014995609875768425
decision_type=2 2 2 2 2 2 2 2 2 2 2 2
left_child=1 2 4 -4 5 6 -1 8 -6 -8 11 -7
right_child=-2 -3 3 -5 7 10 9 -9 -10 -11 -12 -13
leaf_value=-0.052845619378688771 0.056860924954654668 0.02481230553135148 0.0045551607464994004 0.012156627221405687 -0.00050097877880759048 -0.0029456867087758187 -0.010394264461259684 0.00097858798046592519 0.00033151415597272094 -0.0060456689540433622 -0.00050097877880759048 -0.0012498989400857386
leaf_weight=1.1718084886670102 7.8643423765897742 3.9715027511119834 3.3366715908050528 3.9823072403669357 207.80348397046328 16.415681295096874 5.4622733592987052 257.6562991887331 3.1736143529415122 5.5018713250756255 11.146078445017336 509.82830600440502
leaf_count=23 33 26 24 22 1665 141 56 1998 23 51 91 4201
internal_value=3.27286e-05 -0.000401403 -0.000499051 0.00968256 -0.000572241 -0.00139792 -0.0109082 0.000395967 -0.00031556 -0.00642606 -0.00118315 -0.0013028
internal_weight=1037.31 1029.45 1025.48 7.31898 1018.16 549.526 12.136 468.633 210.977 10.9641 537.39 526.244
internal_count=8354 8321 8295 46 8249 4563 130 3686 1688 107 4433 4342
is_linear=0
shrinkage=0.05


Tree=21
num_leaves=13
num_cat=0
split_feature=1 4 1 0 2 4 0 4 0 4 0 0
split_gain=9.36311 0.901036 0.277239 0.440671 0.293256 0.404314 0.882179 0.0730697 0.182885 0.03784 0.0335398 0.0165795
threshold=0.75000000000000011 0.984286865431104 0.29166666666666669 0.18592374771833423 1.0000000180025095e-35 0.010066642447238087 0.10559387505054475 0.31345029239766092 0.13641902804374698 0.0024470011766155272 0.41759392619133001 0.014995609875768425
decision_type=2 2 2 2 2 2 2 2 2 2 2 2
left_child=1 2 4 -4 5 6 -1 8 -6 -8 11 -7
right_child=-2 -3 3 -5 7 10 9 -9 -10 -11 -12 -13
leaf_value=-0.052699143381456127 0.054743851790893951 0.023219512913680102 0.0043339772459797992 0.011375432527191212 -0.00047146198792726197 -0.0028045941963693393 -0.0099572234661880962 0.0043339772459797992 0.0012284772411387641 -0.005757434563102232 -0.00047146198792726197 -0.00118849608064741
leaf_weight=1.1176785752177227 7.7626459300518027 4.0301727652549735 3.3464858829975119 4.0046350583434105 207.72991029918194 16.380357161164284 5.4180769473314276 5.2531017214059821 255.75289331376553 5.4768277555704108 11.1420911103487 509.37129632383585
leaf_count=23 33 26 24 22 1665 141 56 38 1983 51 91 4201
internal_value=3.68204e-05 -0.000375873 -0.000468648 0.00920649 -0.000538538 -0.00132289 -0.010395 0.000379966 0.000308367 -0.00605509 -0.00111991 -0.00123885
internal_weight=1036.79 1029.02 1024.99 7.35112 1017.64 548.906 12.0126 468.736 463.483 10.8949 536.894 525.752
internal_count=8354 8321 8295 46 8249 4563 130 3686 3648 107 4433 4342
is_linear=0
shrinkage=0.05


Tree=22
num_leaves=13
num_cat=0
split_feature=1 1 0 2 4 0 4 0 4 0 0 4
split_gain=8.57418 0.829297 1.32082 0.241996 0.368686 0.852407 0.079489 0.165279 0.0356505 0.0298907 0.0163181 0.00861261
threshold=0.75000000000000011 0.29166666666666669 0.18592374771833423 1.0000000180025095e-35 0.010066642447238087 0.10559387505054475 0.31345029239766092 0.13641902804374698 0.0024470011766155272 0.41759392619133001 0.014995609875768425 0.984286865431104
decision_type=2 2 2 2 2 2 2 2 2 2 2 2
left_child=1 3 -3 4 5 -1 7 -5 -7 10 -6 -12
right_child=-2 2 -4 6 9 8 -8 -9 -10 -11 11 -13
leaf_value=-0.05256058564786531 0.052757143551578005 0.0076696057587142021 0.026200426335484944 -0.0004180651120322767 -0.0026699851603597885 -0.0095354035180510738 0.0064614083972538835 0.0011660360841371689 -0.0054482480284044794 -0.0004180651120322767 -0.0011300603889308754 -0.00076645047386931858
leaf_weight=1.0659006237983693 7.6549738049507132 3.3558325171470633 4.5065702348947525 207.66067580878735 16.346764303743839 5.3759686499834052 5.2683323174715033 255.97142171859741 5.4530441984534255 11.138339042663572 508.93694776296616 3.6040620803832999
leaf_count=23 33 24 24 1665 141 56 38 1983 51 91 4201 24
internal_value=3.60344e-05 -0.000356291 0.0158201 -0.000480882 -0.00119046 -0.00989783 0.000354331 0.000284935 -0.00569853 -0.000998668 -0.00111484 -0.00106524
internal_weight=1036.34 1028.68 7.8624 1020.82 551.921 11.8949 468.9 463.632 10.829 540.026 528.888 512.541
internal_count=8354 8321 48 8273 4587 130 3686 3648 107 4457 4366 4225
is_linear=0
shrinkage=0.05


Tree=23
num_leaves=15
num_cat=0
split_feature=1 4 2 4 0 1 0 4 0 4 4 1 0 0
split_gain=7.85859 0.79185 0.213093 0.433425 0.78167 0.349609 0.434019 0.0722611 0.0697756 0.0433184 0.0331522 0.0292024 0.0181655 0.0136102
threshold=0.75000000000000011 0.984286865431104 1.0000000180025095e-35 0.010066642447238087 0.10559387505054475 0.13333333333333336 0.10155420750379564 0.31345029239766092 0.13481657952070239 0.0016064009789055888 0.051787256369362857 0.29166666666666669 0.41759392619133001 0.014995609875768425
decision_type=2 2 2 2 2 2 2 2 2 2 2 2 2 2
left_child=1 2 3 4 -1 7 -7 8 -4 -6 -10 12 13 -5
right_child=-2 -3 5 11 9 6 -8 -9 10 -11 -12 -13 -14 -15
leaf_value=-0.052429477186129884 0.050884729189643131 0.021629484708863875 -0.00036587767352413747 -0.002541582485027121 -0.01082988096633087 0.0047753665578667412 0.010601741368755807 0.0047753665578667412 0.00014116563565337082 -0.0056771474386133319 0.00091319837359214371 -0.00036587767352413747 -0.00068417849825049579 -0.0010744551302099702
leaf_weight=1.0163874961435784 7.5426972061395636 4.0858131051063529 195.50482624769211 16.314820781350136 4.4357228800654402 5.097229987382887 5.3574980646371841 5.2910698950290671 7.8528990894556037 6.5873620286583892 250.48377680778503 6.6708403676748267 11.135012760758398 508.52413352578878
leaf_count=23 33 26 1579 141 47 37 31 38 62 62 1942 41 91 4201
internal_value=3.45983e-05 -0.000338372 -0.000426002 -0.00108957 -0.0104729 0.00035781 0.00939879 0.000151941 8.24648e-05 -0.0066043 0.000648209 -0.00088138 -0.00100248 -0.00112006
internal_weight=1035.9 1028.36 1024.27 554.684 12.0395 469.587 10.4547 459.133 453.842 11.0231 258.337 542.645 535.974 524.839
internal_count=8354 8321 8295 4606 132 3689 68 3621 3583 109 2004 4474 4433 4342
is_linear=0
shrinkage=0.05


Tree=24
num_leaves=13
num_cat=0
split_feature=1 1 0 2 4 0 4 0 4 0 0 4
split_gain=7.20746 0.722368 1.21582 0.188715 0.294975 0.795362 0.0662294 0.141552 0.0304546 0.0265795 0.0133543 0.0067643
threshold=0.75000000000000011 0.29166666666666669 0.18592374771833423 1.0000000180025095e-35 0.010066642447238087 0.10559387505054475 0.31345029239766092 0.13641902804374698 0.0024470011766155272 0.41759392619133001 0.014995609875768425 0.984286865431104
decision_type=2 2 2 2 2 2 2 2 2 2 2 2
left_child=1 3 -3 4 5 -1 7 -5 -7 10 -6 -12
right_child=-2 2 -4 6 9 8 -8 -9 -10 -11 11 -13
leaf_value=-0.052305381811925046 0.049113082961006992 0.0071380734499179744 0.02439656537774117 -0.00038221437513405378 -0.0024191237179902966 -0.0087057437984058485 0.0058535006809804797 0.0010576691905845018 -0.0049115050329835751 -0.00038221437513405378 -0.0010215413689204564 -0.00069587569366917558
leaf_weight=0.96905351057648559 7.4270108789205542 3.3725628405809394 4.5570096001029015 207.58481007814407 16.284445703029633 5.2945834398269644 5.3078976273536673 256.34854990243912 5.4072698280215254 11.129569754004477 508.13178941607475 3.6516519784927359
leaf_count=23 33 24 24 1665 141 56 38 1983 51 91 4201 24
internal_value=3.46124e-05 -0.000319952 0.014713 -0.000436807 -0.00106447 -0.00892877 0.000300038 0.0002365 -0.00500101 -0.000894244 -0.00100954 -0.000964685
internal_weight=1035.47 1028.04 7.92957 1020.11 550.868 11.6709 469.241 463.933 10.7019 539.197 528.068 511.783
internal_count=8354 8321 48 8273 4587 130 3686 3648 107 4457 4366 4225
is_linear=0
shrinkage=0.05


Tree=25
num_leaves=16
num_cat=0
split_feature=1 4 2 4 0 1 0 4 0 4 4 0 1 0 1
split_gain=6.61466 0.696714 0.166231 0.35898 0.727318 0.320037 0.397129 0.0614023 0.0551861 0.0386387 0.0297531 0.0234137 0.0159736 0.0111645 0.000900677
threshold=0.75000000000000011 0.984286865431104 1.0000000180025095e-35 0.010066642447238087 0.10559387505054475 0.13333333333333336 0.10155420750379564 0.31345029239766092 0.13481657952070239 0.0016064009789055888 0.051787256369362857 0.41759392619133001 0.29166666666666669 0.014995609875768425 0.22500000000000003
decision_type=2 2 2 2 2 2 2 2 2 2 2 2 2 2 2
left_child=1 2 3 4 -1 7 -7 8 -4 -6 -10 12 13 -5 -15
right_child=-2 -3 5 11 9 6 -8 -9 10 -11 -12 -13 -14 14 -16
leaf_value=-0.052187894148577864 0.047430710500854976 0.020172587797748439 -0.00033452393190127222 -0.0023023587367959697 -0.010053719708781949 0.0045208193245039746 0.0098928699234897485 0.0045208193245039746 0.00010834297825069647 -0.0051881827431007749 0.00081462284062220908 -0.00033452393190127222 -0.00061654946914381135 -0.00098606958086260433 -0.00081451835780863187
leaf_weight=0.92381495609879394 7.3089551925659171 4.137368530035018 195.40093424171209 16.255564481019974 4.3706643655896178 5.1136481016874296 5.3906281590461731 5.3285515606403342 7.8592574149370185 6.5343501940369597 250.82335560023785 11.126529589295385 6.7218035757541648 500.02350774407387 7.7354373931884757
leaf_count=23 33 26 1579 141 47 37 31 38 62 62 1942 91 41 4137 64
internal_value=3.29931e-05 -0.000304082 -0.000386848 -0.000973845 -0.00959062 0.000304797 0.00893415 0.00010749 4.37562e-05 -0.00598201 0.00055121 -0.000785741 -0.000898575 -0.00101249 -0.000971193
internal_weight=1035.05 1027.75 1023.61 553.692 11.8288 469.916 10.5043 459.412 454.084 10.905 258.683 541.863 530.736 524.015 507.759
internal_count=8354 8321 8295 4606 132 3689 68 3621 3583 109 2004 4474 4383 4342 4201
is_linear=0
shrinkage=0.05


Tree=26
num_leaves=12
num_cat=0
split_feature=1 1 0 2 4 4 0 4 0 0 4
split_gain=6.07317 0.630639 1.12257 0.146171 0.240299 0.055051 0.121503 0.0298643 0.0235312 0.0109234 0.00524175
threshold=0.75000000000000011 0.29166666666666669 0.18592374771833423 1.0000000180025095e-35 0.0039993342268072191 0.31345029239766092 0.13641902804374698 0.010066642447238087 0.41759392619133001 0.014995609875768425 0.984286865431104
decision_type=2 2 2 2 2 2 2 2 2 2 2
left_child=1 3 -3 4 -1 6 -5 -6 9 -9 -11
right_child=-2 2 -4 5 7 -7 -8 8 -10 10 -12
leaf_value=-0.010415110915504207 0.045827846084217305 0.0066538467790162106 0.02277022304473153 -0.00034972206430263007 -0.0047442080217499289 0.0052964499554784931 0.00096007861056490425 -0.0021910402926513363 -0.00034972206430263007 -0.00092268903594299899 -0.00063182742389046435
leaf_weight=6.6252808719873419 7.1894318163394919 3.3876275867223731 4.6026301234960556 207.51628283411264 4.8417190350592128 5.3445228040218344 256.68866308033466 16.228104628622532 11.123869106173514 507.4001065865159 3.6962049007415763
leaf_count=77 33 24 24 1665 53 38 1983 141 91 4201 24
internal_value=3.30409e-05 -0.0002874 0.0137048 -0.000397066 -0.000950298 0.000250854 0.000192763 -0.000834877 -0.000799725 -0.000913933 -0.000873383
internal_weight=1034.64 1027.46 7.99026 1019.46 549.915 469.549 464.205 543.29 538.448 527.324 511.096
internal_count=8354 8321 48 8273 4587 3686 3648 4510 4457 4366 4225
is_linear=0
shrinkage=0.05


Tree=27
num_leaves=16
num_cat=0
split_feature=1 4 2 4 1 0 4 0 4 4 0 1 0 0 1
split_gain=5.57887 0.613745 0.129162 0.301736 0.293407 0.363712 0.0519603 0.0434221 0.0267152 0.0266055 0.0205754 0.0129948 0.00916099 0.00239298 0.000810876
threshold=0.75000000000000011 0.984286865431104 1.0000000180025095e-35 0.010066642447238087 0.13333333333333336 0.10155420750379564 0.31345029239766092 0.13481657952070239 0.051787256369362857 0.0039993342268072191 0.41759392619133001 0.29166666666666669 0.014995609875768425 0.1307051703333855 0.22500000000000003
decision_type=2 2 2 2 2 2 2 2 2 2 2 2 2 2 2
left_child=1 2 3 9 6 -6 7 -4 -9 13 11 12 -5 -1 -14
right_child=-2 -3 4 10 5 -7 -8 8 -10 -11 -12 -13 14 -15 -16
leaf_value=-0.01290453545836279 0.044296149138823494 0.018833944891863009 -0.00030693117596687159 -0.0020849309351643041 0.0042841178974467866 0.009240752494594516 0.0042841178974467866 7.8537270886289498e-05 0.00072598612298792407 -0.0060547585683998657 -0.00030693117596687159 -0.00055897570022933314 -0.00089192172769397198 -0.010443336372498923 -0.0007367630131977828
leaf_weight=1.2041822522878645 7.0692209899425498 4.1851889789104453 195.3059244081378 16.201997861266136 5.1292308419942838 5.421398863196373 5.3632558286190024 7.8649218231439582 251.12929052114487 4.9612562134861928 11.121088616549967 6.7680487036705008 499.33781813085079 5.4912861809134483 7.7257823944091788
leaf_count=20 33 26 1579 141 37 31 38 62 1942 54 91 41 4137 58 64
internal_value=3.03669e-05 -0.000274268 -0.00035244 -0.000870588 0.000256725 0.00850073 6.75011e-05 9.10983e-06 0.000464006 -0.00882975 -0.000699144 -0.00081102 -0.00091455 -0.010886 -0.000877154
internal_weight=1034.28 1027.21 1023.03 552.811 470.214 10.5506 459.663 454.3 258.994 11.6567 541.155 530.034 523.266 6.69547 507.064
internal_count=8354 8321 8295 4606 3689 68 3621 3583 2004 132 4474 4383 4342 78 4201
is_linear=0
shrinkage=0.05


Tree=28
num_leaves=12
num_cat=0
split_feature=1 1 0 2 4 4 0 4 0 0 4
split_gain=5.12593 0.550994 1.03907 0.112949 0.198176 0.0456353 0.104608 0.0236854 0.020753 0.00892291 0.003988
threshold=0.75000000000000011 0.29166666666666669 0.18592374771833423 1.0000000180025095e-35 0.0039993342268072191 0.31345029239766092 0.13641902804374698 0.010066642447238087 0.41759392619133001 0.014995609875768425 0.984286865431104
decision_type=2 2 2 2 2 2 2 2 2 2 2
left_child=1 3 -3 4 -1 6 -5 -6 9 -9 -11
right_child=-2 2 -4 5 7 -7 -8 8 -10 10 -12
leaf_value=-0.0095193569857826531 0.04282846155199907 0.0062052087341355902 0.021284291285961099 -0.0003217207382438248 -0.0042419060367984559 0.0047855468376344608 0.00087216782415324877 -0.0019838059899429041 -0.0003217207382438248 -0.00083322315365916754 -0.00057471083826536552
leaf_weight=6.5134422928094855 6.9489942342042914 3.4017345756292325 4.6441873982548714 207.45422598719597 4.8013234995305529 5.3784255087375632 256.99544478952885 16.17717694491148 11.118648484349249 506.73925632238388 3.7379386425018302
leaf_count=77 33 24 24 1665 53 38 1983 141 91 4201 24
internal_value=2.97211e-05 -0.000259879 0.0127732 -0.000362795 -0.000849753 0.000206312 0.000153283 -0.000745677 -0.000714462 -0.000827701 -0.000791064
internal_weight=1033.91 1026.96 8.04592 1018.92 549.088 469.828 464.45 542.574 537.773 526.654 510.477
internal_count=8354 8321 48 8273 4587 3686 3648 4510 4457 4366 4225
is_linear=0
shrinkage=0.05


Tree=29
num_leaves=16
num_cat=0
split_feature=1 4 2 1 0 4 4 0 4 4 0 1 0 0 1
split_gain=4.71132 0.541246 0.0998997 0.269385 0.333338 0.256408 0.0437494 0.0339439 0.0239986 0.0222438 0.0180185 0.0105081 0.00751327 0.00220603 0.000728316
threshold=0.75000000000000011 0.984286865431104 1.0000000180025095e-35 0.13333333333333336 0.10155420750379564 0.010066642447238087 0.31345029239766092 0.13481657952070239 0.051787256369362857 0.0039993342268072191 0.41759392619133001 0.29166666666666669 0.014995609875768425 0.1307051703333855 0.22500000000000003
decision_type=2 2 2 2 2 2 2 2 2 2 2 2 2 2 2
left_child=1 2 5 6 -5 9 7 -4 -9 13 11 12 -7 -1 -14
right_child=-2 -3 3 4 -6 10 -8 8 -10 -11 -12 -13 14 -15 -16
leaf_value=-0.012018406039830795 0.041418645902801421 0.017601011771803437 -0.00028262113126629112 0.0040637810958065517 0.0086394249709956083 -0.0018874360283231138 0.0040637810958065517 5.1487242105110635e-05 0.00064627135113944165 -0.0056192793116935603 -0.00028262113126629112 -0.00050739364560969827 -0.00080671678819976562 -0.0096336823825103196 -0.00066665001364479837
leaf_weight=1.1816823557019231 6.8293288797140113 4.2295852303504935 195.21866735816002 5.1440277993679029 5.4500058144330978 16.153579898178577 5.3953880220651618 7.8699591606855384 251.40490071475506 4.9242371544241887 11.116090379655359 6.811002403497695 498.71849054843187 5.4082178398966789 7.7170624732971183
leaf_count=20 33 26 1579 37 31 141 38 62 1942 54 91 41 4137 58 64
internal_value=2.69858e-05 -0.000248329 -0.000322162 0.000213175 0.00809598 -0.000778417 3.15862e-05 -2.18344e-05 0.000385596 -0.00816159 -0.00062114 -0.000732166 -0.000825906 -0.0100613 -0.000792047
internal_weight=1033.57 1026.74 1022.51 470.483 10.594 552.03 459.889 454.494 259.275 11.5141 540.516 529.4 522.589 6.5899 506.436
internal_count=8354 8321 8295 3689 68 4606 3621 3583 2004 132 4474 4383 4342 78 4201
is_linear=0
shrinkage=0.05


Tree=30
num_leaves=10
num_cat=0
split_feature=1 0 1 0 2 4 4 4 4
split_gain=4.33587 0.114202 0.0984828 0.090316 0.106073 0.131369 0.0206047 0.0173365 0.00580323
threshold=0.41666666666666669 0.2643736600875855 0.29166666666666669 0.41759392619133001 1.0000000180025095e-35 0.0039993342268072191 0.31345029239766092 0.010066642447238087 0.984286865431104
decision_type=2 2 2 2 2 2 2 2 2
left_child=2 -2 3 4 5 -1 -6 -7 -9
right_child=1 -3 -4 -5 6 7 -8 8 -10
leaf_value=-0.0080268762948458913 0.026823984801797464 0.037332132601860725 0.0071162867984832573 0.0033921384137199015 0.00011769060295910932 -0.0037796125794087895 0.0015048314075860646 -0.00078449355264624359 -0.00034823776665055933
leaf_weight=6.323138251900672 5.030434772372244 5.3201141208410263 4.4574156105518332 11.202547401189802 464.66988942027092 4.7646355591714373 5.4098064154386512 522.27354194968939 3.7770502567291251
leaf_count=76 24 25 32 92 3648 53 38 4342 24
internal_value=2.62691e-05 0.0322251 -0.000299552 -0.00033201 -0.000382476 -0.000862488 0.000166013 -0.000777145 -0.000749951
internal_weight=1033.23 10.3505 1022.88 1018.42 1007.22 537.138 470.08 530.815 526.051
internal_count=8354 49 8305 8273 8181 4495 3686 4419 4366
is_linear=0
shrinkage=0.05


Tree=31
num_leaves=7
num_cat=0
split_feature=1 4 0 2 1 1
split_gain=4.05134 0.471375 0.0847415 0.0974664 0.0996622 0.0109784
threshold=0.75000000000000011 0.984286865431104 0.41759392619133001 1.0000000180025095e-35 0.13333333333333336 0.29166666666666669
decision_type=2 2 2 2 2 2
left_child=1 2 3 5 -5 -1
right_child=-2 -3 -4 4 -6 -7
leaf_value=-0.00085283884273071808 0.039024195497183084 0.016349561195682538 0.0040257446673328534 1.0778798688618107e-05 0.0018419993586571233 -0.00030791900341002137
leaf_weight=533.01156900823116 6.6172926425933829 4.2720679044723502 11.229768417775629 460.02011434733868 10.637038186192511 7.1204669475555411
leaf_count=4471 33 26 92 3621 68 43
internal_value=2.69685e-05 -0.000224477 -0.000293757 -0.000341746 0.000184229 -0.000800067
internal_weight=1032.91 1026.29 1022.02 1010.79 470.657 540.132
internal_count=8354 8321 8295 8203 3689 4514
is_linear=0
shrinkage=0.05


Tree=32
num_leaves=7
num_cat=0
split_feature=1 4 0 2 1 1
split_gain=3.72366 0.421332 0.0761265 0.0888437 0.0936615 0.010461
threshold=0.75000000000000011 0.984286865431104 0.41759392619133001 1.0000000180025095e-35 0.13333333333333336 0.29166666666666669
decision_type=2 2 2 2 2 2
left_child=1 2 3 5 -5 -1
right_child=-2 -3 -4 4 -6 -7
leaf_value=-0.0008107094135943743 0.037750096396787697 0.015390359058564496 0.0038131852784303215 1.0239860652895482e-05 0.0017463560900876506 -0.00028832295725893464
leaf_weight=532.68341512605548 6.5015824586153022 4.3103903830051413 11.262118913233278 460.02358704060316 10.648738771677015 7.1193398386239997
leaf_count=4471 33 26 92 3621 68 43
internal_value=2.99146e-05 -0.000209101 -0.00027491 -0.000320473 0.000181614 -0.00075826
internal_weight=1032.55 1026.05 1021.74 1010.48 470.672 539.803
internal_count=8354 8321 8295 8203 3689 4514
is_linear=0
shrinkage=0.05


Tree=33
num_leaves=10
num_cat=0
split_feature=1 1 0 0 2 4 4 4 4
split_gain=3.42245 0.398323 0.873932 0.0693012 0.081584 0.119338 0.0219426 0.0156218 0.00314144
threshold=0.75000000000000011 0.29166666666666669 0.18592374771833423 0.41759392619133001 1.0000000180025095e-35 0.0039993342268072191 0.31345029239766092 0.010066642447238087 0.984286865431104
decision_type=2 2 2 2 2 2 2 2 2
left_child=1 3 -3 4 5 -1 -6 -7 -9
right_child=-2 2 -4 -5 6 7 -8 8 -10
leaf_value=-0.0076032597824460015 0.036517418290335869 0.0052662526197403293 0.018161466652430548 0.0036124235201585586 0.00010685424325073011 -0.0035229444751569633 0.0016430291640736603 -0.00066336727158452147 -0.0002967462926719763
leaf_weight=6.2740516439080229 6.3879275619983664 3.4349468648433668 4.7151769399642944 11.292805247008799 464.73680332303047 4.744466718286275 5.4152237474918357 521.35305050760508 3.849313259124755
leaf_count=76 33 24 24 92 3648 53 38 4342 24
internal_value=3.27114e-05 -0.000194485 0.0108152 -0.000282657 -0.000326365 -0.000747907 0.000154414 -0.000666746 -0.000640944
internal_weight=1032.2 1025.82 8.15012 1017.67 1006.37 536.221 470.152 529.947 525.202
internal_count=8354 8321 48 8273 8181 4495 3686 4419 4366
is_linear=0
shrinkage=0.05


Tree=34
num_leaves=7
num_cat=0
split_feature=1 4 0 2 1 1
split_gain=3.14612 0.371664 0.0616556 0.0745865 0.0836171 0.00783777
threshold=0.75000000000000011 0.984286865431104 0.41759392619133001 1.0000000180025095e-35 0.13333333333333336 0.29166666666666669
decision_type=2 2 2 2 2 2
left_child=1 2 3 5 -5 -1
right_child=-2 -3 -4 4 -6 -7
leaf_value=-0.00073254400771151926 0.03532315017930051 0.014405696387113313 0.0034227475661645075 3.4815085252517508e-06 0.001567563473082053 -0.0002584098904659845
leaf_weight=532.07096932083368 6.276579111814498 4.3464078605175009 11.321916311979292 460.06682165712118 10.662259966135023 7.1590870320796958
leaf_count=4471 33 26 92 3621 68 43
internal_value=3.1581e-05 -0.000184394 -0.000246487 -0.000287621 0.000172265 -0.000689085
internal_weight=1031.9 1025.63 1021.28 1009.96 470.729 539.23
internal_count=8354 8321 8295 8203 3689 4514
is_linear=0
shrinkage=0.05


Tree=35
num_leaves=10
num_cat=0
split_feature=1 1 0 0 2 4 4 4 4
split_gain=2.8912 0.347562 0.811659 0.0561533 0.0682441 0.108445 0.0196442 0.014116 0.0020825
threshold=0.75000000000000011 0.29166666666666669 0.18592374771833423 0.41759392619133001 1.0000000180025095e-35 0.0039993342268072191 0.31345029239766092 0.010066642447238087 0.984286865431104
decision_type=2 2 2 2 2 2 2 2 2
left_child=1 3 -3 4 5 -1 -6 -7 -9
right_child=-2 2 -4 -5 6 7 -8 8 -10
leaf_value=-0.0072363110414178731 0.034164701020712562 0.0049159591013990577 0.016996754375505723 0.0032434880244220387 9.9623622767246861e-05 -0.0033215333748710754 0.0014751103764319479 -0.00059420463488862668 -0.00026640535083451253
leaf_weight=6.2320501655340186 6.1677420288324347 3.4461598396301252 4.7470532208681107 11.349534183740614 464.78225076198578 4.7287391424179068 5.4210716485977164 520.82858471572399 3.8818423748016349
leaf_count=76 33 24 24 92 3648 53 38 4342 24
internal_value=3.40985e-05 -0.000171192 0.0100857 -0.000253806 -0.000293267 -0.000679122 0.000146312 -0.000601938 -0.000577428
internal_weight=1031.59 1025.42 8.19321 1017.22 1005.87 535.671 470.203 529.439 524.71
internal_count=8354 8321 48 8273 8181 4495 3686 4419 4366
is_linear=0
shrinkage=0.05


Tree=36
num_leaves=9
num_cat=0
split_feature=1 4 2 1 0 0 1 0
split_gain=2.65717 0.328089 0.0517651 0.222715 0.229509 0.012461 0.00335163 0.00023361
threshold=0.75000000000000011 0.984286865431104 1.0000000180025095e-35 0.13333333333333336 0.10155420750379564 0.41759392619133001 0.29166666666666669 0.13481657952070239
decision_type=2 2 2 2 2 2 2 2
left_child=1 2 5 7 -5 6 -1 -4
right_child=-2 -3 3 4 -6 -7 -8 -9
leaf_value=-0.0006618379124180185 0.033039848907786482 0.013492999412353671 -4.3386602169446421e-05 0.0033167737316124562 0.0066360346980720158 -0.00019318553762672568 -0.00041001375084309194 2.8548197757205426e-05
leaf_weight=531.5176558047533 6.0615800917148581 4.3799265623092642 198.50692791491747 5.1799740940332395 5.4944746345281601 11.375737495720385 7.1960835307836524 261.59802134335041
leaf_count=4471 33 26 1602 37 31 92 43 2019
internal_value=3.28043e-05 -0.000162343 -0.00022093 0.000163938 0.00663603 -0.000550309 -0.000626842 -2.48723e-06
internal_weight=1031.31 1025.25 1020.87 470.779 10.6744 550.089 538.714 460.105
internal_count=8354 8321 8295 3689 68 4606 4514 3621
is_linear=0
shrinkage=0.05


Tree=37
num_leaves=10
num_cat=0
split_feature=1 1 0 0 2 4 4 4 4
split_gain=2.44113 0.303042 0.753794 0.0504682 0.0566717 0.0984948 0.018646 0.0127495 0.00123656
threshold=0.75000000000000011 0.29166666666666669 0.18592374771833423 0.41759392619133001 1.0000000180025095e-35 0.0039993342268072191 0.31345029239766092 0.010066642447238087 0.984286865431104
decision_type=2 2 2 2 2 2 2 2 2
left_child=1 3 -3 4 5 -1 -6 -7 -9
right_child=-2 2 -4 -5 6 7 -8 8 -10
leaf_value=-0.0068864221588229059 0.031946664675917398 0.0045879749269238613 0.015898119548737395 0.0030841080951805942 8.9242643483094768e-05 -0.0031324048628588483 0.0014094293129197598 -0.00053191093997016412 -0.00024096623780393798
leaf_weight=6.1924446001648894 5.9582211077213278 3.4566517919301969 4.7763093262910843 11.37417636066675 464.84358295053244 4.7140494622290126 5.4262591004371634 520.35689931362867 3.9123576879501334
leaf_count=76 33 24 24 92 3648 53 38 4342 24
internal_value=3.50638e-05 -0.000150426 0.00940373 -0.000227783 -0.000265249 -0.000617133 0.000135201 -0.000543743 -0.000520467
internal_weight=1031.01 1025.05 8.23296 1016.82 1005.45 535.176 470.27 528.983 524.269
internal_count=8354 8321 48 8273 8181 4495 3686 4419 4366
is_linear=0
shrinkage=0.05


Tree=38
num_leaves=7
num_cat=0
split_feature=1 4 0 2 1 1
split_gain=2.24271 0.289824 0.0449246 0.0525562 0.0689358 0.0039507
threshold=0.75000000000000011 0.984286865431104 0.41759392619133001 1.0000000180025095e-35 0.13333333333333336 0.29166666666666669
decision_type=2 2 2 2 2 2
left_child=1 2 3 5 -5 -1
right_child=-2 -3 -4 4 -6 -7
leaf_value=-0.00059789645055802459 0.030883501021166646 0.012645965394631739 0.0029233253375932373 -7.6016171338067408e-06 0.0013450394001281341 -0.00020908996340248624
leaf_weight=531.01777595281601 5.85776163637638 4.4111411571502677 11.399119004607199 460.13749358057976 10.70720551908016 7.2298588007688513
leaf_count=4471 33 26 92 3621 68 43
internal_value=3.36134e-05 -0.000142707 -0.000197987 -0.000233247 0.000152559 -0.000570739
internal_weight=1030.76 1024.9 1020.49 1009.09 470.845 538.248
internal_count=8354 8321 8295 8203 3689 4514
is_linear=0
shrinkage=0.05


Tree=39
num_leaves=10
num_cat=0
split_feature=1 0 1 0 2 4 4 4 4
split_gain=2.06767 0.119481 0.0538161 0.0406271 0.0476774 0.0894138 0.0151578 0.0115102 0.000582706
threshold=0.41666666666666669 0.2643736600875855 0.29166666666666669 0.41759392619133001 1.0000000180025095e-35 0.0039993342268072191 0.31345029239766092 0.010066642447238087 0.984286865431104
decision_type=2 2 2 2 2 2 2 2 2
left_child=2 -2 3 4 5 -1 -6 -7 -9
right_child=1 -3 -4 -5 6 7 -8 8 -10
leaf_value=-0.0065528699486284703 0.017490446329282532 0.028727383842138101 0.0052407131555917384 0.0025181056433115846 8.3674423054168491e-05 -0.0029547666724732045 0.0011398913856715961 -0.00047583107996129021 -0.00021620398042276735
leaf_weight=6.1550855562090865 4.5845461040735227 4.8875999599695206 4.5579046607017508 11.422786608338354 464.8784219250083 4.7003216184675685 5.4312407672405234 519.93279161304235 3.9409915208816519
leaf_count=76 24 25 32 92 3648 53 38 4342 24
internal_value=3.55288e-05 0.0232887 -0.000180194 -0.000204502 -0.000238323 -0.000561291 0.000128883 -0.000491521 -0.00046942
internal_weight=1030.49 9.47215 1021.02 1016.46 1005.04 534.729 470.31 528.574 523.874
internal_count=8354 49 8305 8273 8181 4495 3686 4419 4366
is_linear=0
shrinkage=0.05


Tree=40
num_leaves=7
num_cat=0
split_feature=1 4 0 2 1 1
split_gain=1.9303 0.252908 0.0367821 0.0447597 0.0617671 0.00232077
threshold=0.75000000000000011 0.984286865431104 0.41759392619133001 1.0000000180025095e-35 0.13333333333333336 0.29166666666666669
decision_type=2 2 2 2 2 2
left_child=1 2 3 5 -5 -1
right_child=-2 -3 -4 4 -6 -7
leaf_value=-0.00054008478128007289 0.029082673432545149 0.011780435820817468 0.0026405151320346735 -1.2027908968461079e-05 0.0012151243759227642 -0.0001881133454688888
leaf_weight=530.56623313203454 5.6876385509967795 4.440369486808776 11.443193830549715 460.16578559577465 10.718271121382712 7.2618918865919104
leaf_count=4471 33 26 92 3621 68 43
internal_value=3.47855e-05 -0.000126462 -0.000178289 -0.000210266 0.000145688 -0.000521915
internal_weight=1030.28 1024.6 1020.16 1008.71 470.884 537.828
internal_count=8354 8321 8295 8203 3689 4514
is_linear=0
shrinkage=0.05


Tree=41
num_leaves=9
num_cat=0
split_feature=1 4 2 1 0 0 1 0
split_gain=1.77178 0.226686 0.0338301 0.189361 0.17747 0.00823879 0.00131618 0.00021696
threshold=0.75000000000000011 0.984286865431104 1.0000000180025095e-35 0.13333333333333336 0.10155420750379564 0.41759392619133001 0.29166666666666669 0.13481657952070239
decision_type=2 2 2 2 2 2 2 2
left_child=1 2 5 7 -5 6 -1 -4
right_child=-2 -3 3 4 -6 -7 -8 -9
leaf_value=-0.00051328307745559436 0.028095508185981555 0.011121291861360814 -5.084143419978049e-05 0.0027330942054744089 0.0054776166423418692 -0.00014391700869875732 -0.00031962942243378141 1.847841334540536e-05
leaf_weight=530.35895596072078 5.5954896509647361 4.4676445424556723 198.52753227949142 5.2026011496782285 5.5233822613954544 11.464612960815428 7.261214390397071 261.63436122238636
leaf_count=4471 33 26 1602 37 31 92 43 2019
internal_value=3.64248e-05 -0.000116834 -0.000166059 0.00014489 0.00547762 -0.000432724 -0.000495342 -1.14282e-05
internal_weight=1030.04 1024.44 1019.97 470.888 10.726 549.085 537.62 460.162
internal_count=8354 8321 8295 3689 68 4606 4514 3621
is_linear=0
shrinkage=0.05


Tree=42
num_leaves=6
num_cat=0
split_feature=1 1 0 0 2
split_gain=1.6258 0.219564 0.633484 0.0334352 0.0371308
threshold=0.75000000000000011 0.29166666666666669 0.18592374771833423 0.41759392619133001 1.0000000180025095e-35
decision_type=2 2 2 2 2
left_child=1 3 -3 4 -1
right_child=-2 2 -4 -5 -6
leaf_value=-0.00048980364047994764 0.027134000906834096 0.0039077881169587627 0.013513140835961182 0.0025111344034352678 0.00011940395924147371
leaf_weight=534.15537035092711 5.5063866078853598 3.4806831181049329 4.8234850466251373 11.463444486260412 470.36528360843658
leaf_count=4495 33 24 24 92 3686
internal_value=3.79442e-05 -0.000107719 0.00798948 -0.000173902 -0.000204543
internal_weight=1029.79 1024.29 8.30417 1015.98 1004.52
internal_count=8354 8321 48 8273 8181
is_linear=0
shrinkage=0.05


Tree=43
num_leaves=7
num_cat=0
split_feature=1 4 0 2 1 1
split_gain=1.49182 0.201083 0.0297541 0.0345338 0.0539783 0.00117095
threshold=0.75000000000000011 0.984286865431104 0.41759392619133001 1.0000000180025095e-35 0.13333333333333336 0.29166666666666669
decision_type=2 2 2 2 2 2
left_child=1 2 3 5 -5 -1
right_child=-2 -3 -4 4 -6 -7
leaf_value=-0.00046348480041696048 0.026197357760334522 0.010452351797381814 0.0023812329959889411 -1.682617628782148e-05 0.0011014711034458332 -0.00015900180113976147
leaf_weight=529.97406287491322 5.4203240126371375 4.4922406673431388 11.483831383287905 460.19658856838942 10.753212764859198 7.2895868122577658
leaf_count=4471 33 26 92 3621 68 43
internal_value=3.54922e-05 -0.000102964 -0.000149465 -0.000178291 0.000134261 -0.000452265
internal_weight=1029.61 1024.19 1019.7 1008.21 470.95 537.264
internal_count=8354 8321 8295 8203 3689 4514
is_linear=0
shrinkage=0.05


Tree=44
num_leaves=6
num_cat=0
split_feature=1 1 1 0 2
split_gain=1.37324 0.179552 0.0410024 0.0271327 0.0313204
threshold=0.41666666666666669 0.75000000000000011 0.29166666666666669 0.41759392619133001 1.0000000180025095e-35
decision_type=2 2 2 2 2
left_child=2 -2 3 4 -1
right_child=1 -3 -4 -5 -6
leaf_value=-0.00044653478446857604 0.01099797247495763 0.025284894461482462 0.0045774483706654745 0.0022103520019537727 0.00011305139746865128
leaf_weight=533.81266191974282 3.7402371317148191 5.3372836261987686 4.5942837595939627 11.503181226551531 470.40583866834641
leaf_count=4495 16 33 32 92 3686
internal_value=3.68267e-05 0.0193982 -0.000135427 -0.000156744 -0.000184408
internal_weight=1029.39 9.07752 1020.32 1015.72 1004.22
internal_count=8354 49 8305 8273 8181
is_linear=0
shrinkage=0.05


Tree=45
num_leaves=7
num_cat=0
split_feature=1 4 0 2 1 1
split_gain=1.25438 0.178761 0.0241941 0.0292845 0.0484296 0.000461347
threshold=0.75000000000000011 0.984286865431104 0.41759392619133001 1.0000000180025095e-35 0.13333333333333336 0.29166666666666669
decision_type=2 2 2 2 2 2
left_child=1 2 3 5 -5 -1
right_child=-2 -3 -4 4 -6 -7
leaf_value=-0.00041827313498896666 0.024396025833496645 0.0098366801611058513 0.0021443070920073538 -2.1635375041903236e-05 0.00099214186247387139 -0.00014235220337041553
leaf_weight=529.62504318729043 5.2572348713874808 4.5152634084224692 11.521156065165995 460.22762671113014 10.762101933360098 7.3105534911155692
leaf_count=4471 33 26 92 3621 68 43
internal_value=3.50597e-05 -9.00146e-05 -0.000133981 -0.000160023 0.000127736 -0.000412441
internal_weight=1029.22 1023.96 1019.45 1007.93 470.99 536.936
internal_count=8354 8321 8295 8203 3689 4514
is_linear=0
shrinkage=0.05


Tree=46
num_leaves=6
num_cat=0
split_feature=1 1 1 0 2
split_gain=1.16269 0.150917 0.0368272 0.0220874 0.0264998
threshold=0.41666666666666669 0.75000000000000011 0.29166666666666669 0.41759392619133001 1.0000000180025095e-35
decision_type=2 2 2 2 2
left_child=2 -2 3 4 -1
right_child=1 -3 -4 -5 -6
leaf_value=-0.00040741201938638769 0.0103594844294548 0.023530239682703701 0.004338986964164555 0.0020339335070517425 0.0001073712579875578
leaf_weight=533.50271984562278 3.7491324692964536 5.1801380217075348 4.6077061593532553 11.53860694169998 470.44210556894541
leaf_count=4495 16 33 32 92 3686
internal_value=3.62938e-05 0.0180002 -0.000120952 -0.000141189 -0.000166188
internal_weight=1029.02 8.92927 1020.09 1015.48 1003.94
internal_count=8354 49 8305 8273 8181
is_linear=0
shrinkage=0.05


Tree=47
num_leaves=6
num_cat=0
split_feature=1 1 1 0 2
split_gain=1.05766 0.143368 0.0331444 0.0199082 0.0239245
threshold=0.41666666666666669 0.75000000000000011 0.29166666666666669 0.41759392619133001 1.0000000180025095e-35
decision_type=2 2 2 2 2
left_child=2 -2 3 4 -1
right_child=1 -3 -4 -5 -6
leaf_value=-0.00038716049005310042 0.0098191028951254145 0.022687098051123077 0.0041101946357414978 0.0019293922615630629 0.00010199465832353167
leaf_weight=533.3455873504281 3.7574674189090711 5.1059442311525345 4.6206385195255271 11.555172607302664 470.477394297719
leaf_count=4495 16 33 32 92 3686
internal_value=3.45197e-05 0.017232 -0.00011492 -0.000134147 -0.000157901
internal_weight=1028.86 8.86341 1020 1015.38 1003.82
internal_count=8354 49 8305 8273 8181
is_linear=0
shrinkage=0.05


Tree=48
num_leaves=8
num_cat=0
split_feature=1 4 2 1 0 0 0
split_gain=0.964712 0.15762 0.0189114 0.160032 0.136571 0.00453459 0.000195734
threshold=0.75000000000000011 0.984286865431104 1.0000000180025095e-35 0.13333333333333336 0.10155420750379564 0.41759392619133001 0.13481657952070239
decision_type=2 2 2 2 2 2 2
left_child=1 2 5 6 -5 -1 -4
right_child=-2 -3 3 4 -6 -7 -8
leaf_value=-0.00036189952197376201 0.021866212506171344 0.0092254488107445225 -6.8448224712359037e-05 0.0022618690270673285 0.0045547550320328275 -9.9614621168942128e-05 -2.6154428718650618e-06
leaf_weight=536.50943922623992 5.0345982462167731 4.5358324348926535 198.57721880823374 5.223871633410452 5.5479945540428162 11.570896849036215 261.71095618605614
leaf_count=4514 33 26 1602 37 31 92 2019
internal_value=3.28322e-05 -7.45478e-05 -0.000115939 0.000116388 0.00455476 -0.000315617 -3.1017e-05
internal_weight=1028.71 1023.68 1019.14 471.06 10.7719 548.08 460.288
internal_count=8354 8321 8295 3689 68 4606 3621
is_linear=0
shrinkage=0.05


Tree=49
num_leaves=6
num_cat=0
split_feature=1 0 1 0 2
split_gain=0.894566 0.127244 0.0298816 0.0179168 0.0200806
threshold=0.41666666666666669 0.2643736600875855 0.29166666666666669 0.41759392619133001 1.0000000180025095e-35
decision_type=2 2 2 2 2
left_child=2 -2 3 4 -1
right_child=1 -3 -4 -5 -6
leaf_value=-0.00035353223076635155 0.0097170146489649386 0.021796779126983912 0.0039040994350242361 0.0018354749352851021 9.4649043516614067e-05
leaf_weight=533.07890560105443 4.2111581861972791 4.5198007673025131 4.632318288087844 11.570085451006888 470.5212072879076
leaf_count=4495 24 25 32 92 3686
internal_value=3.38661e-05 0.0159704 -0.000102573 -0.000120856 -0.00014341
internal_weight=1028.53 8.73096 1019.8 1015.17 1003.6
internal_count=8354 49 8305 8273 8181
is_linear=0
shrinkage=0.05


Tree=50
num_leaves=8
num_cat=0
split_feature=1 4 2 1 0 0 0
split_gain=0.828168 0.138141 0.0159801 0.147493 0.124795 0.00396581 0.00017665
threshold=0.75000000000000011 0.984286865431104 1.0000000180025095e-35 0.13333333333333336 0.10155420750379564 0.41759392619133001 0.13481657952070239
decision_type=2 2 2 2 2 2 2
left_child=1 2 5 6 -5 -1 -4
right_child=-2 -3 3 4 -6 -7 -8
leaf_value=-0.00033247435001052965 0.020502111716905493 0.0086210763530902238 -6.975849300463712e-05 0.0021119194854688998 0.0042580377001051302 -9.0046306498508578e-05 -7.2184333815847569e-06
leaf_weight=536.25568598508835 4.917502596974372 4.5557592809200278 198.58091057837009 5.2327176630496961 5.5620214939117432 11.585053093731402 261.72768226265907
leaf_count=4514 33 26 1602 37 31 92 2019
internal_value=3.21899e-05 -6.61598e-05 -0.000105001 0.000108526 0.00425804 -0.000288619 -3.41987e-05
internal_weight=1028.42 1023.5 1018.94 471.103 10.7947 547.841 460.309
internal_count=8354 8321 8295 3689 68 4606 3621
is_linear=0
shrinkage=0.05


Tree=51
num_leaves=6
num_cat=0
split_feature=1 4 0 2 1
split_gain=0.757563 0.124039 0.0159227 0.0178989 0.037596
threshold=0.75000000000000011 0.984286865431104 0.41759392619133001 1.0000000180025095e-35 0.13333333333333336
decision_type=2 2 2 2 2
left_child=1 2 3 -1 -5
right_child=-2 -3 -4 4 -6
leaf_value=-0.00031592427962929404 0.019740157224576407 0.0081538262630897612 0.0017460038366292577 -3.2489576255710935e-05 0.00081383036933865892
leaf_weight=536.1271165907383 4.8536091595888129 4.5754627585411063 11.584319680929182 460.29743774980307 10.814336240291594
leaf_count=4514 33 26 92 3621 68
internal_value=3.32069e-05 -6.02561e-05 -9.71449e-05 -0.000118343 0.000106505
internal_weight=1028.25 1023.4 1018.82 1007.24 471.112
internal_count=8354 8321 8295 8203 3689
is_linear=0
shrinkage=0.05


Tree=52
num_leaves=6
num_cat=0
split_feature=1 0 1 0 2
split_gain=0.701172 0.119724 0.0270307 0.0145274 0.0159178
threshold=0.41666666666666669 0.2643736600875855 0.29166666666666669 0.41759392619133001 1.0000000180025095e-35
decision_type=2 2 2 2 2
left_child=2 -2 3 4 -1
right_child=1 -3 -4 -5 -6
leaf_value=-0.0003103128262012059 0.0081584393153436539 0.01998693357254297 0.0037210772394484989 0.0016566090934213157 8.8770631304801992e-05
leaf_weight=532.73291208222508 4.1345895677804929 4.4328420907258987 4.642716407775878 11.598566286265848 470.55477768182755
leaf_count=4495 24 25 32 92 3686
internal_value=3.43144e-05 0.0142786 -8.53847e-05 -0.000102798 -0.000123138
internal_weight=1028.1 8.56743 1019.53 1014.89 1003.29
internal_count=8354 49 8305 8273 8181
is_linear=0
shrinkage=0.05


Tree=53
num_leaves=5
num_cat=0
split_feature=1 4 0 2
split_gain=0.649753 0.10869 0.0129396 0.0154454
threshold=0.75000000000000011 0.984286865431104 0.41759392619133001 1.0000000180025095e-35
decision_type=2 2 2 2
left_child=1 2 3 -1
right_child=-2 -3 -4 -5
leaf_value=-0.00029036814741401973 0.018483332717880559 0.0076214769278499838 0.0015718997621110412 0.0001020740745422707
leaf_weight=535.90579334646463 4.7495295107364646 4.5927912890911093 11.612091846764086 471.13679955154657
leaf_count=4514 33 26 92 3689
internal_value=3.26119e-05 -5.30294e-05 -8.76313e-05 -0.000106767
internal_weight=1028 1023.25 1018.65 1007.04
internal_count=8354 8321 8295 8203
is_linear=0
shrinkage=0.05


Tree=54
num_leaves=5
num_cat=0
split_feature=1 4 0 2
split_gain=0.593891 0.0977118 0.0116661 0.0139426
threshold=0.75000000000000011 0.984286865431104 0.41759392619133001 1.0000000180025095e-35
decision_type=2 2 2 2
left_child=1 2 3 -1
right_child=-2 -3 -4 -5
leaf_value=-0.00027590914491574674 0.017778058298327098 0.0072124504820430041 0.0014916138651671813 9.6963608581696146e-05
leaf_weight=535.79354539886117 4.692533314228057 4.6101316213607779 11.624933294951914 471.17037503421307
leaf_count=4514 33 26 92 3689
internal_value=3.10056e-05 -5.03848e-05 -8.32564e-05 -0.000101438
internal_weight=1027.89 1023.2 1018.59 1006.96
internal_count=8354 8321 8295 8203
is_linear=0
shrinkage=0.05


Tree=55
num_leaves=6
num_cat=0
split_feature=1 0 1 0 2
split_gain=0.550195 0.112648 0.0246201 0.0107056 0.0120294
threshold=0.41666666666666669 0.2643736600875855 0.29166666666666669 0.41759392619133001 1.0000000180025095e-35
decision_type=2 2 2 2 2
left_child=2 -2 3 4 -1
right_child=1 -3 -4 -5 -6
leaf_value=-0.00027259490303038086 0.0067733059809407655 0.018345771749512626 0.0035533415342986156 0.0014155070292957636 7.4365849251712448e-05
leaf_weight=532.43065781146288 4.0667804330587369 4.3545203804969788 4.6522854119539252 11.637124843895434 470.64936943352222
leaf_count=4495 24 25 32 92 3686
internal_value=2.94793e-05 0.0127572 -7.56684e-05 -9.23067e-05 -0.000109799
internal_weight=1027.79 8.4213 1019.37 1014.72 1003.08
internal_count=8354 49 8305 8273 8181
is_linear=0
shrinkage=0.05


Tree=56
num_leaves=8
num_cat=0
split_feature=1 4 2 0 0 0 0
split_gain=0.509041 0.0856584 0.00957652 0.0969744 0.0165569 0.00237697 4.35897e-05
threshold=0.75000000000000011 0.984286865431104 1.0000000180025095e-35 0.30115641653537756 0.13481657952070239 0.41759392619133001 0.13641902804374698
decision_type=2 2 2 2 2 2 2
left_child=1 2 5 4 -4 -1 -6
right_child=-2 -3 3 -5 6 -7 -8
leaf_value=-0.00025369977610210465 0.016623095034042742 0.006742386954422354 -6.5956208244391407e-05 0.003332477303444552 0.00018242553384475695 -6.5956208244391407e-05 0.0003442145523017444
leaf_weight=535.60038648545742 4.600297510623931 4.6252179741859427 207.04344308376312 2.5540000647306433 4.2316315025091162 11.648700691759585 257.39868326485157
leaf_count=4514 33 26 1657 19 33 92 1980
internal_value=2.8017e-05 -4.66015e-05 -7.74323e-05 8.77925e-05 4.16107e-07 -0.000219705 0.000341598
internal_weight=1027.7 1023.1 1018.48 471.228 468.674 547.249 261.63
internal_count=8354 8321 8295 3689 3670 4606 2013
is_linear=0
shrinkage=0.05


Tree=57
num_leaves=6
num_cat=0
split_feature=1 1 0 0 2
split_gain=0.464866 0.0824808 0.366074 0.00968247 0.00965557
threshold=0.75000000000000011 0.29166666666666669 0.18592374771833423 0.41759392619133001 1.0000000180025095e-35
decision_type=2 2 2 2 2
left_child=1 3 -3 4 -1
right_child=-2 2 -4 -5 -6
leaf_value=-0.00024908942223884428 0.015972488673473638 0.0023932607023182065 0.007963459061546491 0.0013467195284509032 6.1768596259578938e-05
leaf_weight=532.24405551701784 4.5496159195899954 3.5467931330203992 4.9059873819351196 11.648161575198172 470.73143201321363
leaf_count=4495 33 24 24 92 3686
internal_value=2.53463e-05 -4.55706e-05 0.00487307 -8.65475e-05 -0.000103193
internal_weight=1027.63 1023.08 8.45278 1014.62 1002.98
internal_count=8354 8321 48 8273 8181
is_linear=0
shrinkage=0.05


Tree=58
num_leaves=5
num_cat=0
split_feature=1 4 0 2
split_gain=0.424311 0.0762898 0.00860934 0.00951795
threshold=0.75000000000000011 0.984286865431104 0.41759392619133001 1.0000000180025095e-35
decision_type=2 2 2 2
left_child=1 2 3 -1
right_child=-2 -3 -4 -5
leaf_value=-0.00023263769911549483 0.015341654941599872 0.0063533925609203304 0.0012781395993313666 7.5466630239017833e-05
leaf_weight=535.42390229180455 4.5011205673217765 4.6395865976810446 11.659179188311098 471.30633004009724
leaf_count=4514 33 26 92 3689
internal_value=2.37871e-05 -4.36085e-05 -7.2752e-05 -8.8397e-05
internal_weight=1027.53 1023.03 1018.39 1006.73
internal_count=8354 8321 8295 8203
is_linear=0
shrinkage=0.05


Tree=59
num_leaves=6
num_cat=0
split_feature=1 0 1 0 2
split_gain=0.390788 0.105642 0.0195054 0.00789572 0.00797632
threshold=0.41666666666666669 0.2643736600875855 0.29166666666666669 0.41759392619133001 1.0000000180025095e-35
decision_type=2 2 2 2 2
left_child=2 -2 3 4 -1
right_child=1 -3 -4 -5 -6
leaf_value=-0.00022764674627579409 0.0053982428911946382 0.016338101840019405 0.0031572832897672782 0.0012131187777683831 5.490369688008442e-05
leaf_weight=532.0736979432404 3.9849897623062116 4.2640583515167236 4.6745609641075125 11.669639922678469 470.77656645327806
leaf_count=4495 24 25 32 92 3686
internal_value=2.26153e-05 0.0108616 -6.51121e-05 -7.99598e-05 -9.50067e-05
internal_weight=1027.44 8.24905 1019.19 1014.52 1002.85
internal_count=8354 49 8305 8273 8181
is_linear=0
shrinkage=0.05


Tree=60
num_leaves=5
num_cat=0
split_feature=1 4 0 2
split_gain=0.362857 0.0668963 0.00702454 0.00800531
threshold=0.75000000000000011 0.984286865431104 0.41759392619133001 1.0000000180025095e-35
decision_type=2 2 2 2
left_child=1 2 3 -1
right_child=-2 -3 -4 -5
leaf_value=-0.0002141663739550675 0.014312050781054365 0.0059413996534937018 0.0011514558184194603 6.8409565467783778e-05
leaf_weight=535.26219211518764 4.4228099137544623 4.6526729166507712 11.679573878645895 471.35008386522532
leaf_count=4514 33 26 92 3689
internal_value=2.1415e-05 -4.03721e-05 -6.77034e-05 -8.18491e-05
internal_weight=1027.37 1022.94 1018.29 1006.61
internal_count=8354 8321 8295 8203
is_linear=0
shrinkage=0.05


Tree=61
num_leaves=6
num_cat=0
split_feature=1 1 0 0 2
split_gain=0.330854 0.0617037 0.312438 0.00644022 0.00658636
threshold=0.75000000000000011 0.29166666666666669 0.18592374771833423 0.41759392619133001 1.0000000180025095e-35
decision_type=2 2 2 2 2
left_child=1 3 -3 4 -1
right_child=-2 2 -4 -5 -6
leaf_value=-0.00020803329696112533 0.013733295415560082 0.002067157858878899 0.0068474683608451747 0.0010929784474478538 4.873274478232319e-05
leaf_weight=531.91774460300803 4.3798572719097129 3.5585600435733777 4.9247091561555862 11.689005695283411 470.81708781421185
leaf_count=4495 33 24 24 92 3686
internal_value=2.0357e-05 -3.83587e-05 0.00420819 -7.38711e-05 -8.74732e-05
internal_weight=1027.29 1022.91 8.48327 1014.42 1002.73
internal_count=8354 8321 48 8273 8181
is_linear=0
shrinkage=0.05


Tree=62
num_leaves=5
num_cat=0
split_feature=1 4 0 2
split_gain=0.301577 0.0595977 0.00572818 0.00671803
threshold=0.75000000000000011 0.984286865431104 0.41759392619133001 1.0000000180025095e-35
decision_type=2 2 2 2
left_child=1 2 3 -1
right_child=-2 -3 -4 -5
leaf_value=-0.00019656757526554183 0.013173303831758848 0.0056016806172555882 0.0010375131827068597 6.2304703368760457e-05
leaf_weight=535.11425062268972 4.3388114571571341 4.6652444601058951 11.697962716221808 471.38912428170443
leaf_count=4514 33 26 92 3689
internal_value=1.90908e-05 -3.6707e-05 -6.25412e-05 -7.53265e-05
internal_weight=1027.21 1022.87 1018.2 1006.5
internal_count=8354 8321 8295 8203
is_linear=0
shrinkage=0.05


Tree=63
num_leaves=6
num_cat=0
split_feature=1 0 1 0 2
split_gain=0.276497 0.0977115 0.0155027 0.00525442 0.00543746
threshold=0.41666666666666669 0.2643736600875855 0.29166666666666669 0.41759392619133001 1.0000000180025095e-35
decision_type=2 2 2 2 2
left_child=2 -2 3 4 -1
right_child=1 -3 -4 -5 -6
leaf_value=-0.00019013098067889239 0.0045815864127129588 0.01457944364470095 0.0028117798949676403 0.00098490285705328854 4.3177889905106883e-05
leaf_weight=531.77532994374633 3.9159495383501035 4.1864265650510788 4.694099396467208 11.706468209624289 470.85361581295729
leaf_count=4495 24 25 32 92 3686
internal_value=1.81487e-05 0.00921817 -5.50013e-05 -6.82681e-05 -8.05647e-05
internal_weight=1027.13 8.10238 1019.03 1014.34 1002.63
internal_count=8354 49 8305 8273 8181
is_linear=0
shrinkage=0.05


Tree=64
num_leaves=5
num_cat=0
split_feature=1 4 0 2
split_gain=0.256906 0.0522682 0.00467696 0.00566813
threshold=0.75000000000000011 0.984286865431104 0.41759392619133001 1.0000000180025095e-35
decision_type=2 2 2 2
left_child=1 2 3 -1
right_child=-2 -3 -4 -5
leaf_value=-0.0001812439367870778 0.012252976572560088 0.0052397769731952508 0.00093499695080073969 5.6550421573856864e-05
leaf_weight=534.97890093550086 4.2719771713018408 4.676622360944747 11.714545436203478 471.42456179857254
leaf_count=4514 33 26 92 3689
internal_value=1.70384e-05 -3.40683e-05 -5.82932e-05 -6.98551e-05
internal_weight=1027.07 1022.79 1018.12 1006.4
internal_count=8354 8321 8295 8203
is_linear=0
shrinkage=0.05


Tree=65
num_leaves=5
num_cat=0
split_feature=1 4 0 2
split_gain=0.233941 0.0470496 0.00421844 0.00511622
threshold=0.75000000000000011 0.984286865431104 0.41759392619133001 1.0000000180025095e-35
decision_type=2 2 2 2
left_child=1 2 3 -1
right_child=-2 -3 -4 -5
leaf_value=-0.0001722059496275626 0.011742458427711084 0.0049649698558153132 0.00088764918339835099 5.3719402328534392e-05
leaf_weight=534.90890771523118 4.2357668578624716 4.6883845627307883 11.72221492230892 471.44315952062607
leaf_count=4514 33 26 92 3689
internal_value=1.61951e-05 -3.23691e-05 -5.53826e-05 -6.63673e-05
internal_weight=1027 1022.76 1018.07 1006.35
internal_count=8354 8321 8295 8203
is_linear=0
shrinkage=0.05


Tree=66
num_leaves=6
num_cat=0
split_feature=1 2 1 0 2
split_gain=0.214944 1.57954 0.0140988 0.00388011 0.004103
threshold=0.41666666666666669 1.0000000180025095e-35 0.29166666666666669 0.41759392619133001 1.0000000180025095e-35
decision_type=2 2 2 2 2
left_child=2 -2 3 4 -1
right_child=1 -3 -4 -5 -6
leaf_value=-0.00016717756332248216 0.0040631525241632601 0.033203549098780975 0.0026829886730536101 0.00084272660816805077 3.5500657339529931e-05
leaf_weight=531.59040805697441 3.1982359737157804 4.8097426295280457 4.7015497535467139 11.729498550295828 470.90405178070068
leaf_count=4495 14 35 32 92 3686
internal_value=1.53972e-05 0.00817504 -4.87314e-05 -6.13946e-05 -7.19731e-05
internal_weight=1026.93 8.00798 1018.93 1014.22 1002.49
internal_count=8354 49 8305 8273 8181
is_linear=0
shrinkage=0.05


Tree=67
num_leaves=6
num_cat=0
split_feature=1 2 1 0 2
split_gain=0.16452 1.50398 0.0127022 0.00350002 0.00370355
threshold=0.41666666666666669 1.0000000180025095e-35 0.29166666666666669 0.41759392619133001 1.0000000180025095e-35
decision_type=2 2 2 2 2
left_child=2 -2 3 4 -1
right_child=1 -3 -4 -5 -6
leaf_value=-0.00015883954055438056 0.0035720817923950588 0.032200504314444101 0.0025443746400608145 0.0008001108939287041 3.3724254006992547e-05
leaf_weight=531.52604869380593 3.200597643852233 4.7140569686889648 4.7095883935689917 11.736415475606917 470.915741764009
leaf_count=4495 14 35 32 92 3686
internal_value=9.48317e-06 0.00719046 -4.62982e-05 -5.83286e-05 -6.83791e-05
internal_weight=1026.8 7.91465 1018.89 1014.18 1002.44
internal_count=8354 49 8305 8273 8181
is_linear=0
shrinkage=0.05


Tree=68
num_leaves=6
num_cat=0
split_feature=1 2 1 0 2
split_gain=0.122637 1.43083 0.011445 0.00315718 0.00334301
threshold=0.41666666666666669 1.0000000180025095e-35 0.29166666666666669 0.41759392619133001 1.0000000180025095e-35
decision_type=2 2 2 2 2
left_child=2 -2 3 4 -1
right_child=1 -3 -4 -5 -6
leaf_value=-0.00015091498439724453 0.0030978275675292996 0.031216197495213885 0.0024131435268184283 0.00075966796386054769 3.2039700274398388e-05
leaf_weight=531.46491550654173 3.2026567459106436 4.6219436824321747 4.7172149270772925 11.7429848536849 470.92683973163366
leaf_count=4495 14 35 32 92 3686
internal_value=3.90494e-06 0.00623964 -4.39844e-05 -5.54136e-05 -6.49623e-05
internal_weight=1026.68 7.8246 1018.85 1014.13 1002.39
internal_count=8354 49 8305 8273 8181
is_linear=0
shrinkage=0.05


Tree=69
num_leaves=6
num_cat=0
split_feature=1 2 1 0 2
split_gain=0.0883815 1.36007 0.0103132 0.00284802 0.00301746
threshold=0.41666666666666669 1.0000000180025095e-35 0.29166666666666669 0.41759392619133001 1.0000000180025095e-35
decision_type=2 2 2 2 2
left_child=2 -2 3 4 -1
right_child=1 -3 -4 -5 -6
leaf_value=-0.00014338589719575202 0.0026401945740323444 0.030250313641739357 0.0022888821373966465 0.00072129153903028394 3.0435833558258458e-05
leaf_weight=531.40684175118804 3.204429402947425 4.533333882689476 4.7244510352611533 11.749223105609415 470.93735893815756
leaf_count=4495 14 35 32 92 3686
internal_value=-1.35677e-06 0.00532218 -4.17882e-05 -5.26463e-05 -6.17182e-05
internal_weight=1026.56 7.73776 1018.82 1014.09 1002.34
internal_count=8354 49 8305 8273 8181
is_linear=0
shrinkage=0.05


Tree=70
num_leaves=4
num_cat=0
split_feature=0 2 1
split_gain=0.0739241 0.019428 0.167138
threshold=0.41759392619133001 1.0000000180025095e-35 0.13333333333333336
decision_type=2 2 2
left_child=1 -1 -3
right_child=-2 2 -4
leaf_value=-0.00025857111483152122 0.0038424768839206407 -3.9288870759946875e-05 0.0018946913016710792
leaf_weight=538.97958268597722 12.326246440410612 460.67324997484684 14.46053136885166
leaf_count=4539 96 3621 98
internal_value=-6.31338e-06 -5.30943e-05 0.000179993
internal_weight=1026.44 1014.11 475.134
internal_count=8354 8258 3719
is_linear=0
shrinkage=0.05


Tree=71
num_leaves=4
num_cat=0
split_feature=0 2 1
split_gain=0.0664107 0.0182176 0.157232
threshold=0.41759392619133001 1.0000000180025095e-35 0.13333333333333336
decision_type=2 2 2
left_child=1 -1 -3
right_child=-2 2 -4
leaf_value=-0.00024568873266006286 0.0036411131915308676 -3.3337633715423944e-05 0.0017972124998040389
leaf_weight=538.87919460237026 12.356718085706232 460.66058824211359 14.467740327119825
leaf_count=4539 96 3621 98
internal_value=-2.2896e-06 -4.66882e-05 0.000179013
internal_weight=1026.36 1014.01 475.128
internal_count=8354 8258 3719
is_linear=0
shrinkage=0.05


Tree=72
num_leaves=7
num_cat=0
split_feature=1 2 2 0 0 0
split_gain=0.0617159 0.861033 0.00171473 0.0144649 0.00844904 0.000120218
threshold=0.29166666666666669 1.0000000180025095e-35 1.0000000180025095e-35 0.13641902804374698 0.014995609875768425 0.41759392619133001
decision_type=2 2 2 2 2 2
left_child=2 -2 4 -4 -1 -6
right_child=1 -3 3 -5 5 -7
leaf_value=-0.001233441353469222 0.0017349939759122909 0.023222413185238693 -3.6754408742116089e-05 0.00034645573356055503 -7.6178478482149547e-05 -3.6754408742116089e-05
leaf_weight=16.01176980510354 7.6261872053146345 4.7467655912041664 211.06630868464708 259.88023856282234 515.14591059833765 11.816706031560896
leaf_count=143 44 37 1688 1998 4352 92
internal_value=1.44663e-06 0.00351137 -4.13853e-05 2.84332e-05 -0.000101942 -6.75614e-05
internal_weight=1026.29 12.373 1013.92 470.947 542.974 526.963
internal_count=8354 81 8273 3686 4587 4444
is_linear=0
shrinkage=0.05


Tree=73
num_leaves=3
num_cat=0
split_feature=0 2
split_gain=0.0581792 0.0152272
threshold=0.41759392619133001 1.0000000180025095e-35
decision_type=2 2
left_child=1 -1
right_child=-2 -3
leaf_value=-0.00022921463976622659 0.0034014388399886057 0.00015909139188400722
leaf_weight=538.74669658020139 12.378590561449526 475.12755876034498
leaf_count=4539 96 3719
internal_value=-5.64667e-06 -4.72444e-05
internal_weight=1026.25 1013.87
internal_count=8354 8258
is_linear=0
shrinkage=0.05


Tree=74
num_leaves=3
num_cat=0
split_feature=0 2
split_gain=0.0523883 0.0137439
threshold=0.41759392619133001 1.0000000180025095e-35
decision_type=2 2
left_child=1 -1
right_child=-2 -3
leaf_value=-0.00021779335161799132 0.0032241405800497464 0.00015111890810911327
leaf_weight=538.65774815529585 12.405633538961409 475.17951436340809
leaf_count=4539 96 3719
internal_value=-5.36906e-06 -4.48864e-05
internal_weight=1026.24 1013.84
internal_count=8354 8258
is_linear=0
shrinkage=0.05


Tree=75
num_leaves=3
num_cat=0
split_feature=0 2
split_gain=0.0471792 0.0124049
threshold=0.41759392619133001 1.0000000180025095e-35
decision_type=2 2
left_child=1 -1
right_child=-2 -3
leaf_value=-0.00020693718236140205 0.0030564419564805007 0.00014354832746199268
leaf_weight=538.57323108240962 12.431294202804564 475.22887247055769
leaf_count=4539 96 3719
internal_value=-5.10312e-06 -4.26439e-05
internal_weight=1026.23 1013.8
internal_count=8354 8258
is_linear=0
shrinkage=0.05


Tree=76
num_leaves=4
num_cat=0
split_feature=1 2 2
split_gain=0.045631 0.799101 0.000524451
threshold=0.29166666666666669 1.0000000180025095e-35 1.0000000180025095e-35
decision_type=2 2 2
left_child=2 -2 -1
right_child=1 -3 -4
leaf_value=-7.5095591114687538e-05 0.0014895680165913699 0.022293556877453387 -2.9951089067656482e-06
leaf_weight=542.75937231257558 7.6298373788595182 4.6825126111507416 471.15260914713144
leaf_count=4587 44 37 3686
internal_value=-4.85053e-06 0.00302073 -4.15914e-05
internal_weight=1026.22 12.3123 1013.91
internal_count=8354 81 8273
is_linear=0
shrinkage=0.05


Tree=77
num_leaves=3
num_cat=0
split_feature=0 2
split_gain=0.0412771 0.0103975
threshold=0.41759392619133001 1.0000000180025095e-35
decision_type=2 2
left_child=1 -1
right_child=-2 -3
leaf_value=-0.00019398300972510977 0.0028532313872933861 0.00012690884966915923
leaf_weight=538.46909723430872 12.448564276099203 475.22367230802774
leaf_count=4539 96 3719
internal_value=-8.4054e-06 -4.35475e-05
internal_weight=1026.14 1013.69
internal_count=8354 8258
is_linear=0
shrinkage=0.05


Tree=78
num_leaves=3
num_cat=0
split_feature=0 2
split_gain=0.0371823 0.00938469
threshold=0.41759392619133001 1.0000000180025095e-35
decision_type=2 2
left_child=1 -1
right_child=-2 -3
leaf_value=-0.0001843124682553213 0.0027054929943350812 0.00012055268265396548
leaf_weight=538.39383969083428 12.471320532262324 475.26510276645422
leaf_count=4539 96 3719
internal_value=-7.9884e-06 -4.13731e-05
internal_weight=1026.13 1013.66
internal_count=8354 8258
is_linear=0
shrinkage=0.05


Tree=79
num_leaves=3
num_cat=0
split_feature=0 2
split_gain=0.0334972 0.00847025
threshold=0.41759392619133001 1.0000000180025095e-35
decision_type=2 2
left_child=1 -1
right_child=-2 -3
leaf_value=-0.00017511966694848391 0.0025656615211162603 0.00011451460921514355
leaf_weight=538.32234019041061 12.492918394505976 475.30449669808149
leaf_count=4539 96 3719
internal_value=-7.59065e-06 -3.93059e-05
internal_weight=1026.12 1013.63
internal_count=8354 8258
is_linear=0
shrinkage=0.05


Tree=80
num_leaves=4
num_cat=0
split_feature=1 2 2
split_gain=0.0326504 0.741592 0.000105166
threshold=0.29166666666666669 1.0000000180025095e-35 1.0000000180025095e-35
decision_type=2 2 2
left_child=2 -2 -1
right_child=1 -3 -4
leaf_value=-5.3228578180913024e-05 0.0012599766568626334 0.021399697584806934 -2.094159263724348e-05
leaf_weight=542.58425494283438 7.63299712538719 4.6217788308858871 471.27066402882338
leaf_count=4587 44 37 3686
internal_value=-7.212e-06 0.00255817 -3.82206e-05
internal_weight=1026.11 12.2548 1013.85
internal_count=8354 81 8273
is_linear=0
shrinkage=0.05


Tree=81
num_leaves=3
num_cat=0
split_feature=0 2
split_gain=0.0291921 0.00711051
threshold=0.41759392619133001 1.0000000180025095e-35
decision_type=2 2
left_child=1 -1
right_child=-2 -3
leaf_value=-0.000164660390729459 0.0023902760294434843 0.00010072226172750894
leaf_weight=538.23819326609373 12.50678228586912 475.28636336326599
leaf_count=4539 96 3719
internal_value=-1.05844e-05 -4.02108e-05
internal_weight=1026.03 1013.52
internal_count=8354 8258
is_linear=0
shrinkage=0.05


Tree=82
num_leaves=4
num_cat=0
split_feature=4 1 2
split_gain=0.0267247 0.00886537 0.000128832
threshold=0.984286865431104 0.75000000000000011 1.0000000180025095e-35
decision_type=2 2 2
left_child=1 2 -1
right_child=-2 -3 -4
leaf_value=-5.2988608544765152e-05 0.0037612814178955983 0.0018669785429079504 -1.7314477245748672e-05
leaf_weight=545.82394370809197 4.6760386228561392 3.6500731930136672 471.86943366378546
leaf_count=4606 26 33 3689
internal_value=-1.00579e-05 -2.73243e-05 -3.64477e-05
internal_weight=1026.02 1021.34 1017.69
internal_count=8354 8328 8295
is_linear=0
shrinkage=0.05


Tree=83
num_leaves=3
num_cat=0
split_feature=0 2
split_gain=0.0262162 0.00636685
threshold=0.41759392619133001 1.0000000180025095e-35
decision_type=2 2
left_child=1 -1
right_child=-2 -3
leaf_value=-0.00015531260629746214 0.0022640967008690301 9.581429140459326e-05
leaf_weight=538.16237545758486 12.524816088378428 475.3089128062129
leaf_count=4539 96 3719
internal_value=-9.43924e-06 -3.75364e-05
internal_weight=1026 1013.47
internal_count=8354 8258
is_linear=0
shrinkage=0.05


Tree=84
num_leaves=4
num_cat=0
split_feature=4 1 2
split_gain=0.0240829 0.00810095 5.83158e-05
threshold=0.984286865431104 0.75000000000000011 1.0000000180025095e-35
decision_type=2 2 2
left_child=1 2 -1
right_child=-2 -3 -4
leaf_value=-4.5238992556708898e-05 0.0035681305872820022 0.001771377608588038 -2.1237429533638634e-05
leaf_weight=545.76194507628679 4.6838093847036353 3.6442498117685309 471.89529223740101
leaf_count=4606 26 33 3689
internal_value=-8.97036e-06 -2.53754e-05 -3.41093e-05
internal_weight=1025.99 1021.3 1017.66
internal_count=8354 8328 8295
is_linear=0
shrinkage=0.05


Tree=85
num_leaves=3
num_cat=0
split_feature=0 2
split_gain=0.0235408 0.00572483
threshold=0.41759392619133001 1.0000000180025095e-35
decision_type=2 2
left_child=1 -1
right_child=-2 -3
leaf_value=-0.00014674573464574665 0.0021445088465590375 9.1387871168580211e-05
leaf_weight=538.09274378418922 12.541949033737181 475.32879384607077
leaf_count=4539 96 3719
internal_value=-8.40888e-06 -3.50531e-05
internal_weight=1025.96 1013.42
internal_count=8354 8258
is_linear=0
shrinkage=0.05


Tree=86
num_leaves=4
num_cat=0
split_feature=4 1 2
split_gain=0.0217044 0.00740731 1.82245e-05
threshold=0.984286865431104 0.75000000000000011 1.0000000180025095e-35
decision_type=2 2 2
left_child=1 2 -1
right_child=-2 -3 -4
leaf_value=-3.816144096865981e-05 0.0033852039422265431 0.0016808150100060114 -2.4743731940218497e-05
leaf_weight=545.70533547177911 4.691175401210784 3.6387299522757521 471.91836548596621
leaf_count=4606 26 33 3689
internal_value=-7.98728e-06 -2.35739e-05 -3.1939e-05
internal_weight=1025.95 1021.26 1017.62
internal_count=8354 8328 8295
is_linear=0
shrinkage=0.05


Tree=87
num_leaves=3
num_cat=0
split_feature=0 2
split_gain=0.0211359 0.00516862
threshold=0.41759392619133001 1.0000000180025095e-35
decision_type=2 2
left_child=1 -1
right_child=-2 -3
leaf_value=-0.00013887905176699676 0.0020311717555327072 8.7394985854103482e-05
leaf_weight=538.02875570952892 12.558225609362124 475.34631339460611
leaf_count=4539 96 3719
internal_value=-7.47624e-06 -3.27401e-05
internal_weight=1025.93 1013.38
internal_count=8354 8258
is_linear=0
shrinkage=0.05


Tree=88
num_leaves=3
num_cat=0
split_feature=1 2
split_gain=0.0204133 0.675071
threshold=0.29166666666666669 1.0000000180025095e-35
decision_type=2 2
left_child=-1 -2
right_child=1 -3
leaf_value=-3.1555088642444647e-05 0.00099792798440637262 0.020334056968167633
leaf_weight=1013.7416005916893 7.6342506557703 4.5484208986163139
leaf_count=8273 44 37
internal_value=-7.10523e-06 0.00202741
internal_weight=1025.92 12.1827
internal_count=8354 81
is_linear=0
shrinkage=0.05


Tree=89
num_leaves=5
num_cat=0
