tree
version=v4
num_class=1
num_tree_per_iteration=1
label_index=0
max_feature_idx=4
objective=binary sigmoid:1
feature_names=text_similarity industry_overlap stage_fit place_fit check_fit
monotone_constraints=1 1 1 1 1
feature_infos=[-0.015314814634621143:0.1997627317905426] none none [0:1] [2.4999968750039061e-06:1]
tree_sizes=1067 1105 1106 1111 1110 1111 1229 1226 799 799 799 801 796 796 800 801 804 802 802 800 793 802 805 805 805 798 804 807 807 806 796 702 702 701 702 802 592 592 592 591 692 594 595 599 600 597 599 694 599 598 598 599 599 599 598 599 598 598 599 600 600 697 374 372 372 374 374 373 373 374 374 373 373 373 373 373 372 374 374 373 372 373 374 373 373 374 374 374 373 374 374 374 372 373 373 373 372 373 372 373 373 375 372 374 373 375 373 375 375 375 372 372 375 375 374 374 374 374 375 373 375 375 373 375 374 373 374 373 374 375 374 374 374 375 375 374 375 374 374 375 375 375 375 374 374 375 374 375 373 375 374 373 372 374 372 374 375 374 375 375 374 373 374 375 375 375 375 375 373 373 375 372 375 375 375 374 375 373 374 374 374 375 375 374 372 375 375 373 375 374 375 374 374 375 375 374 375 375 374 373

Tree=0
num_leaves=9
num_cat=0
split_feature=4 0 4 0 0 4 0 0
split_gain=1.40633 0.947036 1.25382 0.658817 0.221091 0.220561 3.73628 0.00277958
threshold=0.83478903887067168 0.067897181957960143 0.030928656835392591 0.10188376531004907 0.10188376531004907 0.0055153037444235298 0.032049620524048812 0.042136656120419509
decision_type=2 2 2 2 2 2 2 2
left_child=1 5 -3 -4 -2 6 -1 -7
right_child=4 2 3 -5 -6 7 -8 -9
leaf_value=-1.8554388495357308 -1.7853226390557855 -1.8001388141344092 -1.7954954899042612 -1.7899047983068204 -1.770629852244338 -1.8030084810551992 -1.8068138121226707 -1.8021172035422264
leaf_weight=4.0252722725272161 9.2703240215778333 41.716458097100258 29.518663331866264 28.542839750647545 3.5373604819178572 20.980206996202469 6.0988973826169968 15.00328756123781
leaf_count=33 76 342 242 234 29 172 50 123
internal_value=-1.79715 -1.79854 -1.79581 -1.79085 -1.78126 -1.80447 -1.81099 -1.80264
internal_weight=158.693 145.886 99.778 58.0615 12.8077 46.1077 10.1242 35.9835
internal_count=1301 1196 818 476 105 378 83 295
is_linear=0
shrinkage=1


Tree=1
num_leaves=9
num_cat=0
split_feature=4 0 4 0 0 4 0 0
split_gain=1.24746 0.828214 1.16296 0.600235 0.191668 0.172112 3.63102 0.00253908
threshold=0.83478903887067168 0.067897181957960143 0.030928656835392591 0.10188376531004907 0.10188376531004907 0.0055153037444235298 0.032049620524048812 0.042136656120419509
decision_type=2 2 2 2 2 2 2 2
left_child=1 5 -3 -4 -2 6 -1 -7
right_child=4 2 3 -5 -6 7 -8 -9
leaf_value=-0.057819216430521542 0.011139301362847871 -0.0027847561674331023 0.0016368197410247818 0.0068201781715485372 0.024710556655213801 -0.005589273202790266 -0.0089547433413359936 -0.0047357958756252642
leaf_weight=3.8592481389641744 9.3489606082439405 41.627295032143593 29.553631499409676 28.691033542156219 3.6048228144645682 20.892352491617203 6.0567989945411682 14.950011402368544
leaf_count=33 76 342 242 234 29 172 50 123
internal_value=4.69906e-05 -0.0012756 0.00127668 0.0060584 0.014916 -0.0068462 -0.0126762 -0.00523328
internal_weight=158.584 145.63 99.872 58.2447 12.9538 45.7584 9.91605 35.8424
internal_count=1301 1196 818 476 105 378 83 295
is_linear=0
shrinkage=0.05


Tree=2
num_leaves=9
num_cat=0
split_feature=4 0 4 0 0 4 0 0
split_gain=1.10706 0.721891 1.07931 0.547289 0.166661 0.130815 3.5274 0.00231815
threshold=0.83478903887067168 0.067897181957960143 0.030928656835392591 0.10188376531004907 0.10188376531004907 0.0055153037444235298 0.032049620524048812 0.042136656120419509
decision_type=2 2 2 2 2 2 2 2
left_child=1 5 -3 -4 -2 6 -1 -7
right_child=4 2 3 -5 -6 7 -8 -9
leaf_value=-0.057379937223424597 0.01049661944099178 -0.0025896826091665456 0.0016206527630411055 0.0064262634680817528 0.023058384695719351 -0.0053317149655950843 -0.0082625571049042123 -0.0045147232417349983
leaf_weight=3.6984216794371587 9.4233333766460401 41.54430091381073 29.588239058852196 28.830890223383904 3.6682613343000403 20.808711558580399 6.017925962805748 14.899305805563925
leaf_count=33 76 342 242 234 29 172 50 123
internal_value=9.01132e-05 -0.0011639 0.00121112 0.00583099 0.0140164 -0.00639048 -0.0115343 -0.00499082
internal_weight=158.479 145.388 99.9634 58.4191 13.0916 45.4244 9.71635 35.708
internal_count=1301 1196 818 476 105 378 83 295
is_linear=0
shrinkage=0.05


Tree=3
num_leaves=9
num_cat=0
split_feature=4 0 4 0 0 4 0 0
split_gain=0.982886 0.626934 1.0022 0.499318 0.145312 0.0961631 3.42521 0.00211539
threshold=0.83478903887067168 0.067897181957960143 0.030928656835392591 0.10188376531004907 0.10188376531004907 0.0055153037444235298 0.032049620524048812 0.042136656120419509
decision_type=2 2 2 2 2 2 2 2
left_child=1 5 -3 -4 -2 6 -1 -7
right_child=4 2 3 -5 -6 7 -8 -9
leaf_value=-0.056968397624877182 0.0098959411508017653 -0.0024031542501098376 0.0016059201532509617 0.0060606690618393326 0.021545541045610225 -0.0050850959475022741 -0.007587042599342099 -0.0043032873607196627
leaf_weight=3.5428172349929792 9.4936897754669172 41.467197999358177 29.622525677084923 28.962988615036011 3.7279459089040747 20.729090690612793 5.9821765869855881 14.851052552461622
leaf_count=33 76 342 242 234 29 172 50 123
internal_value=0.00012946 -0.0010593 0.00114697 0.00561499 0.0131806 -0.00595328 -0.0104153 -0.00475877
internal_weight=158.379 145.158 100.053 58.5855 13.2216 45.1051 9.52499 35.5801
internal_count=1301 1196 818 476 105 378 83 295
is_linear=0
shrinkage=0.05


Tree=4
num_leaves=9
num_cat=0
split_feature=4 0 4 0 0 4 0 0
split_gain=0.873002 0.54231 0.930994 0.45575 0.127013 0.0676671 3.32429 0.00192941
threshold=0.83478903887067168 0.067897181957960143 0.030928656835392591 0.10188376531004907 0.10188376531004907 0.0055153037444235298 0.032049620524048812 0.042136656120419509
decision_type=2 2 2 2 2 2 2 2
left_child=1 5 -3 -4 -2 6 -1 -7
right_child=4 2 3 -5 -6 7 -8 -9
leaf_value=-0.056582510219989335 0.0093339646650819324 -0.0022250449200610536 0.0015922634038819897 0.0057206737845107696 0.02015640667682039 -0.0048490350636101283 -0.0069283838695176365 -0.0041011400775880736
leaf_weight=3.3924325928091985 9.5602596998214704 41.395716190338135 29.656520202755928 29.087855234742165 3.7841245830059043 20.653305351734161 5.9494514018297195 14.805137090384958
leaf_count=33 76 342 242 234 29 172 50 123
internal_value=0.000165127 -0.000961584 0.00108409 0.00540957 0.0124029 -0.00553418 -0.00932 -0.00453676
internal_weight=158.285 144.94 100.14 58.7444 13.3444 44.8003 9.34188 35.4584
internal_count=1301 1196 818 476 105 378 83 295
is_linear=0
shrinkage=0.05


Tree=5
num_leaves=9
num_cat=0
split_feature=4 0 4 0 0 4 0 0
split_gain=0.775704 0.46707 0.865146 0.416088 0.11127 0.0448492 3.2245 0.00175896
threshold=0.83478903887067168 0.067897181957960143 0.030928656835392591 0.10188376531004907 0.10188376531004907 0.0055153037444235298 0.032049620524048812 0.042136656120419509
decision_type=2 2 2 2 2 2 2 2
left_child=1 5 -3 -4 -2 6 -1 -7
right_child=4 2 3 -5 -6 7 -8 -9
leaf_value=-0.05622040152989443 0.0088076833092774007 -0.0020552101258644057 0.0015793728896164524 0.0054038729141352194 0.018877639053421685 -0.004623148760513977 -0.0062867998575215564 -0.0039079156123117695
leaf_weight=3.2472397238016111 9.623260021209715 41.329590484499931 29.690246075391769 29.205966040492058 3.8370263874530783 20.58117613196373 5.9196528047323227 14.761449448764322
leaf_count=33 76 342 242 234 29 172 50 123
internal_value=0.000197221 -0.000870507 0.00102232 0.00521396 0.0116783 -0.00513274 -0.00824918 -0.00432442
internal_weight=158.196 144.735 100.226 58.8962 13.4603 44.5095 9.16689 35.3426
internal_count=1301 1196 818 476 105 378 83 295
is_linear=0
shrinkage=0.05


Tree=6
num_leaves=10
num_cat=0
split_feature=4 0 4 0 0 0 4 0 0
split_gain=0.689509 0.400348 0.804168 0.379901 0.0976805 0.0326655 0.0227797 0.273723 0.000147343
threshold=0.83478903887067168 0.067897181957960143 0.030928656835392591 0.10188376531004907 0.10188376531004907 -0.013490689918398855 0.0055153037444235298 0.032049620524048812 0.042136656120419509
decision_type=2 2 2 2 2 2 2 2 2
left_child=1 5 -3 -4 -2 -1 7 -7 -8
right_child=4 2 3 -5 -6 6 8 -9 -10
leaf_value=-0.010802144443228762 0.008314419102541418 -0.0018934912665417838 0.0015669966902862138 0.0051081611826024635 0.017697764771094446 -0.0076228534889976581 -0.003935295715440032 -0.0052651907774133536 -0.0037232772493503881
leaf_weight=2.1215590462088576 9.6828923225402814 41.268563523888588 29.723719522356987 29.31775689125061 3.8868634998798361 3.0130341053009015 18.485133424401283 5.8926846832036972 14.719884239137171
leaf_count=18 76 342 242 234 29 32 155 50 123
internal_value=0.000225864 -0.000785823 0.000961563 0.00502748 0.0110021 -0.00474855 -0.00444356 -0.00668907 -0.00384131
internal_weight=158.112 144.542 100.31 59.0415 13.5698 44.2323 42.1107 8.90572 33.205
internal_count=1301 1196 818 476 105 378 360 82 278
is_linear=0
shrinkage=0.05


Tree=7
num_leaves=10
num_cat=0
split_feature=4 0 4 0 0 0 4 0 0
split_gain=0.618628 0.361928 0.755071 0.347133 0.0859139 0.0298672 0.02125 0.261702 0.00013415
threshold=0.83478903887067168 0.067897181957960143 0.030928656835392591 0.10188376531004907 0.10188376531004907 -0.013490689918398855 0.0055153037444235298 0.032049620524048812 0.042136656120419509
decision_type=2 2 2 2 2 2 2 2 2
left_child=1 5 -3 -4 -2 -1 7 -7 -8
right_child=4 2 3 -5 -6 6 8 -9 -10
leaf_value=-0.010345118079061473 0.0078517094596792427 -0.0018157233663909748 0.0014956423085597918 0.0048070079835105589 0.01660685790251213 -0.0072934284701425007 -0.0037494735400403754 -0.0050377907753104056 -0.0035468905903679238
leaf_weight=2.1049546599388114 9.7393479943275434 41.21238049864769 29.756949558854103 29.423625290393829 3.9338325411081305 2.994938135147093 18.432567417621613 5.8701515197753906 14.680342487990854
leaf_count=18 76 342 242 234 29 32 155 50 123
internal_value=0.000205442 -0.000756587 0.000901728 0.00480701 0.0103706 -0.00453317 -0.00424174 -0.00641592 -0.00365966
internal_weight=158.149 144.476 100.393 59.1806 13.6732 44.083 41.978 8.86509 33.1129
internal_count=1301 1196 818 476 105 378 360 82 278
is_linear=0
shrinkage=0.05


Tree=8
num_leaves=6
num_cat=0
split_feature=4 0 0 0 0
split_gain=0.555313 0.327184 0.0992028 0.0756966 0.00198679
threshold=0.83478903887067168 0.067897181957960143 0.12011111527681352 0.10188376531004907 0.042136656120419509
decision_type=2 2 2 2 2
left_child=1 4 -3 -2 -1
right_child=3 2 -4 -5 -6
leaf_value=-0.0046265412184855878 0.0074173316063363528 -0.00011880913816217641 0.0034051832373490605 0.015596279677929516 -0.0039496085048179811
leaf_weight=24.502131693065166 9.7928037047386152 72.975482761859894 27.495165079832077 3.9781150072813025 19.438609883189201
leaf_count=214 76 595 223 29 164
internal_value=0.000186501 -0.00072833 0.00084558 0.00978005 -0.00432708
internal_weight=158.182 144.411 100.471 13.7709 43.9407
internal_count=1301 1196 818 105 378
is_linear=0
shrinkage=0.05


Tree=9
num_leaves=6
num_cat=0
split_feature=4 0 0 0 0
split_gain=0.497845 0.296229 0.0892567 0.0668015 0.00181149
threshold=0.83478903887067168 0.067897181957960143 0.12011111527681352 0.10188376531004907 0.042136656120419509
decision_type=2 2 2 2 2
left_child=1 4 -3 -2 -1
right_child=3 2 -4 -5 -6
leaf_value=-0.0044105654133734882 0.0070092695319165527 -0.00011288021227022041 0.0032268903483565481 0.014658485612137787 -0.0037631826836730452
leaf_weight=24.419020138680935 9.8434293270111066 72.969296723604202 27.561836138367653 4.0198794305324546 19.38297913223505
leaf_count=214 76 595 223 29 164
internal_value=0.000176865 -0.000692434 0.000802759 0.00922728 -0.00412409
internal_weight=158.196 144.333 100.531 13.8633 43.802
internal_count=1301 1196 818 105 378
is_linear=0
shrinkage=0.05


Tree=10
num_leaves=6
num_cat=0
split_feature=4 0 0 0 0
split_gain=0.446507 0.268163 0.0803212 0.0590388 0.00165096
threshold=0.83478903887067168 0.067897181957960143 0.12011111527681352 0.10188376531004907 0.042136656120419509
decision_type=2 2 2 2 2
left_child=1 4 -3 -2 -1
right_child=3 2 -4 -5 -6
leaf_value=-0.0042040133439159881 0.0066256764040218685 -0.00010724749342287303 0.0030583442347022808 0.013786828804661708 -0.0035850659457451273
leaf_weight=24.339938186109066 9.8913800120353681 72.96341747045517 27.625094756484032 4.0592831075191489 19.330057322978973
leaf_count=214 76 595 223 29 164
internal_value=0.000167744 -0.000658284 0.000762134 0.00870939 -0.00393004
internal_weight=158.209 144.259 100.589 13.9507 43.67
internal_count=1301 1196 818 105 378
is_linear=0
shrinkage=0.05


Tree=11
num_leaves=6
num_cat=0
split_feature=4 0 0 0 0
split_gain=0.400614 0.242723 0.072291 0.0522492 0.00150394
threshold=0.83478903887067168 0.067897181957960143 0.12011111527681352 0.10188376531004907 0.042136656120419509
decision_type=2 2 2 2 2
left_child=1 4 -3 -2 -1
right_child=3 2 -4 -5 -6
leaf_value=-0.0040065206453896085 0.0062648648273831474 -0.00010189104152702375 0.0028989618856432049 0.012975460375320167 -0.0034149395087382951
leaf_weight=24.264699071645737 9.9368041157722455 72.957834407687187 27.685116231441498 4.0964708030223838 19.279714323580265
leaf_count=214 76 595 223 29 164
internal_value=0.000159111 -0.000625795 0.000723591 0.00822376 -0.00374459
internal_weight=158.221 144.187 100.643 14.0333 43.5444
internal_count=1301 1196 818 105 378
is_linear=0
shrinkage=0.05


Tree=12
num_leaves=6
num_cat=0
split_feature=4 0 0 0 0
split_gain=0.359565 0.219667 0.065073 0.0462988 0.00136944
threshold=0.83478903887067168 0.067897181957960143 0.12011111527681352 0.10188376531004907 0.042136656120419509
decision_type=2 2 2 2 2
left_child=1 4 -3 -2 -1
right_child=3 2 -4 -5 -6
leaf_value=-0.0038177531942826027 0.005925281015444258 -9.6801122681999756e-05 0.0027482102091135217 0.01221919063590551 -0.0032524846781228109
leaf_weight=24.193119540810585 9.979840934276579 72.952529802918434 27.742070898413658 4.1315786391496649 19.231827944517136
leaf_count=214 76 595 223 29 164
internal_value=0.000150934 -0.000594891 0.00068702 0.00776803 -0.00356741
internal_weight=158.231 144.12 100.695 14.1114 43.4249
internal_count=1301 1196 818 105 378
is_linear=0
shrinkage=0.05


Tree=13
num_leaves=6
num_cat=0
split_feature=4 0 0 0 0
split_gain=0.322829 0.198776 0.058584 0.0410738 0.00124646
threshold=0.83478903887067168 0.067897181957960143 0.12011111527681352 0.10188376531004907 0.042136656120419509
decision_type=2 2 2 2 2
left_child=1 4 -3 -2 -1
right_child=3 2 -4 -5 -6
leaf_value=-0.0036373717886862065 0.0056055083009871809 -9.1968681240594925e-05 0.002605590187160126 0.011513388468209297 -0.0030973884451219176
leaf_weight=24.125027388334274 10.020621836185454 72.947487652301788 27.7961166203022 4.164732798933982 19.186281189322472
leaf_count=214 76 595 223 29 164
internal_value=0.000143189 -0.000565497 0.000652313 0.00734003 -0.00339817
internal_weight=158.24 144.055 100.744 14.1854 43.3113
internal_count=1301 1196 818 105 378
is_linear=0
shrinkage=0.05


Tree=14
num_leaves=6
num_cat=0
split_feature=4 0 0 0 0
split_gain=0.289934 0.179849 0.0527488 0.0364779 0.00113406
threshold=0.83478903887067168 0.067897181957960143 0.12011111527681352 0.10188376531004907 0.042136656120419509
decision_type=2 2 2 2 2
left_child=1 4 -3 -2 -1
right_child=3 2 -4 -5 -6
leaf_value=-0.0034650476132257416 0.0053042335699817296 -8.7377306567971977e-05 0.0024706303407777837 0.010853937613855925 -0.0029493538381244163
leaf_weight=24.060257740318775 10.059270262718199 72.942699164152145 27.847407162189484 4.1960503906011573 19.142962865531445
leaf_count=214 76 595 223 29 164
internal_value=0.000135851 -0.00053754 0.000619377 0.00693779 -0.00323655
internal_weight=158.249 143.993 100.79 14.2553 43.2032
internal_count=1301 1196 818 105 378
is_linear=0
shrinkage=0.05


Tree=15
num_leaves=6
num_cat=0
split_feature=4 0 0 0 0
split_gain=0.260466 0.162706 0.0475006 0.0324287 0.00103144
threshold=0.83478903887067168 0.067897181957960143 0.12011111527681352 0.10188376531004907 0.042136656120419509
decision_type=2 2 2 2 2
left_child=1 4 -3 -2 -1
right_child=3 2 -4 -5 -6
leaf_value=-0.0033004693701735445 0.0050202554322691427 -8.3013563247789798e-05 0.0023428961465824702 0.010237134115139141 -0.0028080879711582288
leaf_weight=23.998651400208473 10.095900595188139 72.938151866197586 27.896086230874062 4.2256416082382193 19.101766057312489
leaf_count=214 76 595 223 29 164
internal_value=0.000128898 -0.00051095 0.000588121 0.00655952 -0.00308225
internal_weight=158.256 143.935 100.834 14.3215 43.1004
internal_count=1301 1196 818 105 378
is_linear=0
shrinkage=0.05


Tree=16
num_leaves=6
num_cat=0
split_feature=4 0 0 0 0
split_gain=0.234056 0.147181 0.0427796 0.0288557 0.000937744
threshold=0.83478903887067168 0.067897181957960143 0.12011111527681352 0.10188376531004907 0.042136656120419509
decision_type=2 2 2 2 2
left_child=1 4 -3 -2 -1
right_child=3 2 -4 -5 -6
leaf_value=-0.0031433206968061386 0.0047524680939856285 -7.8867890561996369e-05 0.0022219758819710111 0.0096596545590067612 -0.0026733117225723594
leaf_weight=23.940056689083576 10.130622684955595 72.933829754590988 27.942286789417267 4.2536084353923789 19.062589041888714
leaf_count=214 76 595 223 29 164
internal_value=0.000122311 -0.000485663 0.000558457 0.00620359 -0.00293497
internal_weight=158.263 143.879 100.876 14.3842 43.0026
internal_count=1301 1196 818 105 378
is_linear=0
shrinkage=0.05


Tree=17
num_leaves=6
num_cat=0
split_feature=4 0 0 0 0
split_gain=0.210375 0.133122 0.0385319 0.0256986 0.000852295
threshold=0.83478903887067168 0.067897181957960143 0.12011111527681352 0.10188376531004907 0.042136656120419509
decision_type=2 2 2 2 2
left_child=1 4 -3 -2 -1
right_child=3 2 -4 -5 -6
leaf_value=-0.0029933073332176784 0.0044998354640415445 -7.4928992119244761e-05 0.0021074808071240435 0.0091184930130281134 -0.0025447481309684521
leaf_weight=23.884330779314041 10.163540720939634 72.929725840687752 27.986138433218002 4.2800468057394019 19.025334373116493
leaf_count=214 76 595 223 29 164
internal_value=0.000116066 -0.000461616 0.0005303 0.00586848 -0.00279442
internal_weight=158.269 143.826 100.916 14.4436 42.9097
internal_count=1301 1196 818 105 378
is_linear=0
shrinkage=0.05


Tree=18
num_leaves=6
num_cat=0
split_feature=4 0 0 0 0
split_gain=0.189135 0.120394 0.0347096 0.0229053 0.000774355
threshold=0.83478903887067168 0.067897181957960143 0.12011111527681352 0.10188376531004907 0.042136656120419509
decision_type=2 2 2 2 2
left_child=1 4 -3 -2 -1
right_child=3 2 -4 -5 -6
leaf_value=-0.0028501314236238882 0.0042614139702917787 -7.1184327782019424e-05 0.0019990567178240883 0.0086109403159063524 -0.0024221409967785292
leaf_weight=23.831336200237274 10.194749832153319 72.92582231760025 28.027760833501816 4.305046170949935 18.989910408854485
leaf_count=214 76 595 223 29 164
internal_value=0.000110149 -0.000438747 0.000503577 0.00555281 -0.00266033
internal_weight=158.275 143.775 100.954 14.4998 42.8212
internal_count=1301 1196 818 105 378
is_linear=0
shrinkage=0.05


Tree=19
num_leaves=6
num_cat=0
split_feature=4 0 0 0 0
split_gain=0.170077 0.108872 0.0312697 0.0204309 0.000703336
threshold=0.83478903887067168 0.067897181957960143 0.12011111527681352 0.10188376531004907 0.042136656120419509
decision_type=2 2 2 2 2
left_child=1 4 -3 -2 -1
right_child=3 2 -4 -5 -6
leaf_value=-0.0027135161788404585 0.0040363199338513235 -6.7632408275168385e-05 0.0018963612395419391 0.0081345370648339271 -0.0023052308870764068
leaf_weight=23.780940689146519 10.224342882633207 72.922117382287979 28.06726947426796 4.3286899328231803 18.956227645277977
leaf_count=214 76 595 223 29 164
internal_value=0.000104536 -0.000417005 0.000478207 0.0052553 -0.00253242
internal_weight=158.28 143.727 100.989 14.553 42.7372
internal_count=1301 1196 818 105 378
is_linear=0
shrinkage=0.05


Tree=20
num_leaves=6
num_cat=0
split_feature=0 4 4 4 4
split_gain=0.154179 2.85521 0.766199 0.0343614 0.00188035
threshold=0.12011111527681352 0.13850358376733876 0.58878869675619239 0.83478903887067168 0.0055153037444235298
decision_type=2 2 2 2 2
left_child=3 -2 -3 4 -1
right_child=1 2 -4 -5 -6
leaf_value=-0.0013338711661323114 0.0013454338125378636 0.02002927064160287 0.051483331793695852 0.0013454338125378636 -0.00082943098363028359
leaf_weight=23.084909245371819 20.110867023468021 6.9624365866184217 2.6818727552890778 12.953061580657957 92.490910798311234
leaf_count=203 161 54 19 94 770
internal_value=9.92182e-05 0.00334248 0.028776 -0.000651617 -0.000930187
internal_weight=158.284 29.7552 9.64431 128.529 115.576
internal_count=1301 234 73 1067 973
is_linear=0
shrinkage=0.05


Tree=21
num_leaves=6
num_cat=0
split_feature=4 0 0 0 0
split_gain=0.134955 0.0902566 0.0163098 0.0097729 0.00064546
threshold=0.83478903887067168 0.067897181957960143 0.12011111527681352 0.10188376531004907 0.042136656120419509
decision_type=2 2 2 2 2
left_child=1 4 -3 -2 -1
right_child=3 2 -4 -5 -6
leaf_value=-0.0025392203359069594 0.0037530009996347494 -1.7816902690194329e-05 0.0013972664930893839 0.0065680517878366936 -0.0021475991055377504
leaf_weight=23.716807216405869 10.261767089366911 72.870187431573868 28.258525535464287 4.4072817862033835 18.91094970703125
leaf_count=214 76 595 223 29 164
internal_value=3.03657e-05 -0.000435799 0.000377602 0.00459878 -0.00236549
internal_weight=158.426 143.756 101.129 14.669 42.6278
internal_count=1301 1196 818 105 378
is_linear=0
shrinkage=0.05


Tree=22
num_leaves=6
num_cat=0
split_feature=4 0 0 0 0
split_gain=0.121447 0.0816087 0.0147008 0.00874038 0.000585852
threshold=0.83478903887067168 0.067897181957960143 0.12011111527681352 0.10188376531004907 0.042136656120419509
decision_type=2 2 2 2 2
left_child=1 4 -3 -2 -1
right_child=3 2 -4 -5 -6
leaf_value=-0.0024169434772720261 0.0035560559686436143 -1.6927171240814422e-05 0.0013260688374581789 0.006213414022838766 -0.0020435230971235642
leaf_weight=23.672036565840244 10.287898123264311 72.869259864091873 28.286244183778763 4.4254116117954245 18.881154403090477
leaf_count=214 76 595 223 29 164
internal_value=2.87791e-05 -0.000414185 0.000358617 0.00435533 -0.00225125
internal_weight=158.422 143.709 101.156 14.7133 42.5532
internal_count=1301 1196 818 105 378
is_linear=0
shrinkage=0.05


Tree=23
num_leaves=6
num_cat=0
split_feature=4 0 0 0 0
split_gain=0.109308 0.073783 0.0132513 0.00782103 0.000531592
threshold=0.83478903887067168 0.067897181957960143 0.12011111527681352 0.10188376531004907 0.042136656120419509
decision_type=2 2 2 2 2
left_child=1 4 -3 -2 -1
right_child=3 2 -4 -5 -6
leaf_value=-0.0023003410681432324 0.0033699208926223296 -1.6079512343517512e-05 0.0012585643471360215 0.0058793339314109679 -0.0019443428710217694
leaf_weight=23.629467949271202 10.312683761119841 72.868378430604935 28.312563717365265 4.4425774067640296 18.852826900780201
leaf_count=214 76 595 223 29 164
internal_value=2.72798e-05 -0.000393634 0.000340593 0.00412547 -0.00214236
internal_weight=158.418 143.663 101.181 14.7553 42.4823
internal_count=1301 1196 818 105 378
is_linear=0
shrinkage=0.05


Tree=24
num_leaves=6
num_cat=0
split_feature=4 0 0 0 0
split_gain=0.0983969 0.0667018 0.0119454 0.00700184 0.000482245
threshold=0.83478903887067168 0.067897181957960143 0.12011111527681352 0.10188376531004907 0.042136656120419509
decision_type=2 2 2 2 2
left_child=1 4 -3 -2 -1
right_child=3 2 -4 -5 -6
leaf_value=-0.0021891703437523476 0.0031939543647711388 -1.5277047707484044e-05 0.0011945520115672194 0.0055644713556332569 -0.0018498340006756137
leaf_weight=23.588995896279812 10.336194217205046 72.867543131113052 28.337552458047867 4.4588329195976248 18.825898468494415
leaf_count=214 76 595 223 29 164
internal_value=2.58608e-05 -0.000374096 0.000323477 0.00390837 -0.00203856
internal_weight=158.415 143.62 101.205 14.795 42.4149
internal_count=1301 1196 818 105 378
is_linear=0
shrinkage=0.05


Tree=25
num_leaves=6
num_cat=0
split_feature=0 4 4 4 4
split_gain=0.0896576 2.66795 0.627057 0.0131406 0.00170657
threshold=0.12011111527681352 0.6039886039886041 0.13850358376733876 0.83478903887067168 0.0055153037444235298
decision_type=2 2 2 2 2
left_child=3 2 -2 4 -1
right_child=1 -3 -4 -5 -6
leaf_value=-0.0011074014684229426 0.00096470531833797637 0.051220343931757742 0.016986210119134964 0.00094888674171702842 -0.00062602233406691644
leaf_weight=23.004699438810349 20.203722745180137 2.6682625561952582 7.2191173881292334 13.102904140949247 92.21286629140377
leaf_count=203 161 18 55 94 770
internal_value=2.45181e-05 0.00248092 0.000964705 -0.000551507 -0.000722136
internal_weight=158.412 30.0911 27.4228 128.32 115.218
internal_count=1301 234 216 1067 973
is_linear=0
shrinkage=0.05


Tree=26
num_leaves=6
num_cat=0
split_feature=4 0 0 0 0
split_gain=0.0753906 0.0548305 0.00486441 0.00182369 0.000442657
threshold=0.83478903887067168 0.067897181957960143 0.12011111527681352 0.10188376531004907 0.042136656120419509
decision_type=2 2 2 2 2
left_child=1 4 -3 -2 -1
right_child=3 2 -4 -5 -6
leaf_value=-0.0020489575233728465 0.002978184660203827 2.154927086203045e-05 0.00079212836229835106 0.0041808175129711576 -0.0017235186578109603
leaf_weight=23.538026735186577 10.365125894546507 72.829175472259521 28.49273057281971 4.5299277901649466 18.789988800883293
leaf_count=214 76 595 223 29 164
internal_value=-4.20445e-05 -0.000393136 0.000238244 0.00334393 -0.00190449
internal_weight=158.545 143.65 101.322 14.8951 42.328
internal_count=1301 1196 818 105 378
is_linear=0
shrinkage=0.05


Tree=27
num_leaves=6
num_cat=0
split_feature=4 0 0 0 0
split_gain=0.0679056 0.0495634 0.00438678 0.00163661 0.000401335
threshold=0.83478903887067168 0.067897181957960143 0.12011111527681352 0.10188376531004907 0.042136656120419509
decision_type=2 2 2 2 2
left_child=1 4 -3 -2 -1
right_child=3 2 -4 -5 -6
leaf_value=-0.001949566825054526 0.0028234536585151973 2.0472593773227204e-05 0.00075209606065747639 0.0039613730917387431 -0.0016394753479168685
leaf_weight=23.502059869468212 10.385944426059721 72.830297261476517 28.508501708507538 4.5415183901786795 18.76616245508194
leaf_count=214 76 595 223 29 164
internal_value=-3.99816e-05 -0.000373612 0.000226292 0.00316965 -0.00181189
internal_weight=158.534 143.607 101.339 14.9275 42.2682
internal_count=1301 1196 818 105 378
is_linear=0
shrinkage=0.05


Tree=28
num_leaves=6
num_cat=0
split_feature=4 0 0 0 0
split_gain=0.0611702 0.0447989 0.00395615 0.00146919 0.000363787
threshold=0.83478903887067168 0.067897181957960143 0.12011111527681352 0.10188376531004907 0.042136656120419509
decision_type=2 2 2 2 2
left_child=1 4 -3 -2 -1
right_child=3 2 -4 -5 -6
leaf_value=-0.0018548587738034272 0.0026770540147035525 1.9450306240806814e-05 0.00071410380034701707 0.0037539847919881028 -0.001559434697250959
leaf_weight=23.467868626117706 10.405697286128996 72.831362262368202 28.523479431867599 4.552504986524581 18.743514627218246
leaf_count=214 76 595 223 29 164
internal_value=-3.80188e-05 -0.000355053 0.000214941 0.00300482 -0.00172368
internal_weight=158.524 143.566 101.355 14.9582 42.2114
internal_count=1301 1196 818 105 378
is_linear=0
shrinkage=0.05


Tree=29
num_leaves=6
num_cat=0
split_feature=4 0 0 0 0
split_gain=0.0551086 0.0404892 0.00356799 0.00131928 0.000329685
threshold=0.83478903887067168 0.067897181957960143 0.12011111527681352 0.10188376531004907 0.042136656120419509
decision_type=2 2 2 2 2
left_child=1 4 -3 -2 -1
right_child=3 2 -4 -5 -6
leaf_value=-0.001764622648180813 0.0025385124339580723 1.8476510462264513e-05 0.00067805274974930708 0.0035579322313554658 -0.0014832094902186954
leaf_weight=23.435366846621037 10.424438834190367 72.832373157143593 28.537704512476921 4.5629200488328925 18.721986666321754
leaf_count=214 76 595 223 29 164
internal_value=-3.61501e-05 -0.000337409 0.00020416 0.00284888 -0.00163965
internal_weight=158.515 143.527 101.37 14.9874 42.1574
internal_count=1301 1196 818 105 378
is_linear=0
shrinkage=0.05


Tree=30
num_leaves=6
num_cat=0
split_feature=0 4 4 4 4
split_gain=0.051186 2.74214 0.41383 0.0034981 0.00154724
threshold=0.12011111527681352 0.66671110814834578 0.13850358376733876 0.83478903887067168 0.0055153037444235298
decision_type=2 2 2 2 2
left_child=3 2 -2 4 -1
right_child=1 -3 -4 -5 -6
leaf_value=-0.00092757932542412774 0.00067013814377075596 0.051828358410719512 0.014353149997639321 0.0002987741767318166 -0.00046860784931599016
leaf_weight=22.941220462322235 20.259367018938072 2.6345043778419486 7.457582399249076 13.214779168367384 91.99811053276062
leaf_count=203 161 17 56 94 770
internal_value=-3.4373e-05 0.00181192 0.000670138 -0.00047164 -0.000560216
internal_weight=158.506 30.3515 27.7169 128.154 114.939
internal_count=1301 234 217 1067 973
is_linear=0
shrinkage=0.05


Tree=31
num_leaves=5
num_cat=0
split_feature=4 0 0 0
split_gain=0.040345 0.032974 0.000779035 0.000302821
threshold=0.83478903887067168 0.067897181957960143 0.12011111527681352 0.042136656120419509
decision_type=2 2 2 2
left_child=1 3 -3 -1
right_child=-2 2 -4 -5
leaf_value=-0.0016520697938370373 0.0023636828826334054 4.5532245175186357e-05 0.00035326365245319622 -0.0013821476593439514
leaf_weight=23.394850797951221 15.072477355599402 72.804193675518036 28.663086488842964 18.693493902683258
leaf_count=214 105 595 223 164
internal_value=-9.72083e-05 -0.000355587 0.000132462 -0.00153218
internal_weight=158.628 143.556 101.467 42.0883
internal_count=1301 1196 818 378
is_linear=0
shrinkage=0.05


Tree=32
num_leaves=5
num_cat=0
split_feature=4 0 0 0
split_gain=0.0363643 0.0370978 0.0194622 0.000702797
threshold=0.83478903887067168 -0.013490689918398855 0.067897181957960143 0.12011111527681352
decision_type=2 2 2 2
left_child=1 -1 -3 -4
right_child=-2 2 3 -5
leaf_value=-0.0071122649266837689 0.0022419678716058648 -0.0011758707772593826 4.3255359065525392e-05 0.00033551444826374847
leaf_weight=1.9928746223449696 15.095610365271567 40.047522529959679 72.806562229990959 28.67013843357563
leaf_count=18 105 360 595 223
internal_value=-9.2377e-05 -0.000337911 -0.000242518 0.000125827
internal_weight=158.613 143.517 141.524 101.477
internal_count=1301 1196 1178 818
is_linear=0
shrinkage=0.05


Tree=33
num_leaves=5
num_cat=0
split_feature=4 0 0 0
split_gain=0.0327788 0.0269298 0.000634062 0.00022436
threshold=0.83478903887067168 0.067897181957960143 0.12011111527681352 0.042136656120419509
decision_type=2 2 2 2
left_child=1 3 -3 -1
right_child=-2 2 -4 -5
leaf_value=-0.0014893218071331885 0.0021266955741131121 4.108929727414873e-05 0.00031866447291680161 -0.0012567342844152789
leaf_weight=23.336598165333271 15.117562532424925 72.808811977505684 28.676834493875504 18.658243142068386
leaf_count=214 105 595 223 164
internal_value=-8.77927e-05 -0.000321118 0.000119524 -0.00138598
internal_weight=158.598 143.48 101.486 41.9948
internal_count=1301 1196 818 378
is_linear=0
shrinkage=0.05


Tree=34
num_leaves=5
num_cat=0
split_feature=4 0 0 0
split_gain=0.0295486 0.0243342 0.00057203 0.000203166
threshold=0.83478903887067168 0.067897181957960143 0.12011111527681352 0.042136656120419509
decision_type=2 2 2 2
left_child=1 3 -3 -1
right_child=-2 2 -4 -5
leaf_value=-0.0014164766322182542 0.0020175077901243349 3.9036880840440325e-05 0.00030266269213949468 -0.0011950350731924078
leaf_weight=23.310587912797928 15.138396069407461 72.810948133468628 28.683197617530823 18.640938967466354
leaf_count=214 105 595 223 164
internal_value=-8.34258e-05 -0.000305146 0.00011354 -0.00131808
internal_weight=158.584 143.446 101.494 41.9515
internal_count=1301 1196 818 378
is_linear=0
shrinkage=0.05


Tree=35
num_leaves=6
num_cat=0
split_feature=0 4 4 4 4
split_gain=0.0282411 2.37585 0.359413 0.00163305 0.00017148
threshold=0.12011111527681352 0.66671110814834578 0.13850358376733876 0.0055153037444235298 0.83478903887067168
decision_type=2 2 2 2 2
left_child=3 2 -2 -1 -5
right_child=1 -3 -4 4 -6
leaf_value=-0.00078795085993337607 0.00044065440930810516 0.047184899307159155 0.01342175285099444 -0.00034622407507146029 -0.00015408783096878623
leaf_weight=22.892066158354282 20.28764088451863 2.728334665298461 7.5376136898994437 91.831271715462208 13.293818712234495
leaf_count=203 161 17 56 770 94
internal_value=-7.92775e-05 0.00128657 0.000440654 -0.000405262 -0.000321927
internal_weight=158.571 30.5536 27.8253 128.017 105.125
internal_count=1301 234 217 1067 864
is_linear=0
shrinkage=0.05


Tree=36
num_leaves=4
num_cat=0
split_feature=4 0 0
split_gain=0.0208487 0.0194568 0.00018702
threshold=0.83478903887067168 0.067897181957960143 0.042136656120419509
decision_type=2 2 2
left_child=1 2 -1
right_child=-2 -3 -4
leaf_value=-0.0013265330039337665 0.0016215766729598343 4.8505483787998368e-05 -0.0011139355970398244
leaf_weight=23.278464175760746 15.206688344478605 101.58145149052143 18.618223324418068
leaf_count=214 105 818 164
internal_value=-0.000138848 -0.000325429 -0.00123206
internal_weight=158.685 143.478 41.8967
internal_count=1301 1196 378
is_linear=0
shrinkage=0.05


Tree=37
num_leaves=4
num_cat=0
split_feature=4 0 0
split_gain=0.0188015 0.0175803 0.000169279
threshold=0.83478903887067168 0.067897181957960143 0.042136656120419509
decision_type=2 2 2
left_child=1 2 -1
right_child=-2 -3 -4
leaf_value=-0.0012614899744147674 0.0015388492177071118 4.6077089587087992e-05 -0.001059136847581188
leaf_weight=23.255332097411156 15.222581222653387 101.58494471013546 18.602903813123703
leaf_count=214 105 818 164
internal_value=-0.000131934 -0.000309242 -0.00117156
internal_weight=158.666 143.443 41.8582
internal_count=1301 1196 378
is_linear=0
shrinkage=0.05


Tree=38
num_leaves=4
num_cat=0
split_feature=4 0 0
split_gain=0.0169559 0.0158839 0.000153203
threshold=0.83478903887067168 0.067897181957960143 0.042136656120419509
decision_type=2 2 2
left_child=1 2 -1
right_child=-2 -3 -4
leaf_value=-0.0011995779126499045 0.0014604209757891891 4.3773572970291204e-05 -0.0010069903619510608
leaf_weight=23.233346991240978 15.237666845321653 101.58826348185539 18.588345848023891
leaf_count=214 105 818 164
internal_value=-0.000125361 -0.000293854 -0.00111398
internal_weight=158.648 143.41 41.8217
internal_count=1301 1196 378
is_linear=0
shrinkage=0.05


Tree=39
num_leaves=4
num_cat=0
split_feature=4 0 0
split_gain=0.015292 0.0143503 0.000138647
threshold=0.83478903887067168 0.067897181957960143 0.042136656120419509
decision_type=2 2 2
left_child=1 2 -1
right_child=-2 -3 -4
leaf_value=-0.0011406525827729278 0.0013860627296574104 4.1581699955262039e-05 -0.00095736772692226369
leaf_weight=23.212451577186584 15.251988321542738 101.59141166508198 18.574510328471661
leaf_count=214 105 818 164
internal_value=-0.000119116 -0.000279231 -0.00105918
internal_weight=158.63 143.378 41.787
internal_count=1301 1196 378
is_linear=0
shrinkage=0.05


Tree=40
num_leaves=5
num_cat=0
split_feature=0 4 4 4
split_gain=0.0144339 2.07537 0.315039 0.00117676
threshold=0.12011111527681352 0.66671110814834578 0.13850358376733876 0.0055153037444235298
decision_type=2 2 2 2
left_child=3 2 -2 -1
right_child=1 -3 -4 -5
leaf_value=-0.00067209561389177741 0.00025660080854186801 0.043262816172617138 0.012621668919397972 -0.0002761837253011123
leaf_weight=22.851374693214893 20.296505391597755 2.8113113492727271 7.6074000000953665 105.0473559871316
leaf_count=203 161 17 56 864
internal_value=-0.000113179 0.000860122 0.000256601 -0.00034692
internal_weight=158.614 30.7152 27.9039 127.899
internal_count=1301 234 217 1067
is_linear=0
shrinkage=0.05


Tree=41
num_leaves=4
num_cat=0
split_feature=4 0 0
split_gain=0.0100744 0.0111938 0.000127716
threshold=0.83478903887067168 0.067897181957960143 0.042136656120419509
decision_type=2 2 2
left_child=1 2 -1
right_child=-2 -3 -4
leaf_value=-0.0010677256261924907 0.001049292768216631 -1.7036880183618449e-05 -0.00089172263566245948
leaf_weight=23.186571426689625 15.308696940541266 101.6692378371954 18.556222222745419
leaf_count=214 105 818 164
internal_value=-0.000169938 -0.000300087 -0.000989486
internal_weight=158.721 143.412 41.7428
internal_count=1301 1196 378
is_linear=0
shrinkage=0.05


Tree=42
num_leaves=4
num_cat=0
split_feature=4 0 0
split_gain=0.00908865 0.0101127 0.000115529
threshold=0.83478903887067168 0.067897181957960143 0.042136656120419509
decision_type=2 2 2
left_child=1 2 -1
right_child=-2 -3 -4
leaf_value=-0.0010151722667757635 0.0009961379890193571 -1.6185627346037354e-05 -0.00084771652219543738
leaf_weight=23.167996034026146 15.318986788392065 101.66801245510578 18.543982498347759
leaf_count=214 105 818 164
internal_value=-0.000161471 -0.000285152 -0.000940726
internal_weight=158.699 143.38 41.712
internal_count=1301 1196 378
is_linear=0
shrinkage=0.05


Tree=43
num_leaves=4
num_cat=0
split_feature=4 0 0
split_gain=0.00819956 0.00913558 0.000104508
threshold=0.83478903887067168 0.067897181957960143 0.042136656120419509
decision_type=2 2 2
left_child=1 2 -1
right_child=-2 -3 -4
leaf_value=-0.00096517038843791031 0.00094571288836889063 -1.5375699654005973e-05 -0.00080584758166020844
leaf_weight=23.150343053042889 15.328756794333456 101.66684441268444 18.532350666821003
leaf_count=214 105 818 164
internal_value=-0.000153423 -0.000270956 -0.000894335
internal_weight=158.678 143.35 41.6827
internal_count=1301 1196 378
is_linear=0
shrinkage=0.05


Tree=44
num_leaves=4
num_cat=0
split_feature=4 0 0
split_gain=0.00739755 0.00825237 9.45259e-05
threshold=0.83478903887067168 0.067897181957960143 0.042136656120419509
decision_type=2 2 2
left_child=1 2 -1
right_child=-2 -3 -4
leaf_value=-0.00091759208820525696 0.00089786808638390309 -1.4606725332733329e-05 -0.00076601928821435185
leaf_weight=23.133567325770855 15.338033720850943 101.66573938727379 18.521298624575138
leaf_count=214 105 818 164
internal_value=-0.000145774 -0.000257464 -0.000850197
internal_weight=158.659 143.321 41.6549
internal_count=1301 1196 378
is_linear=0
shrinkage=0.05


Tree=45
num_leaves=4
num_cat=0
split_feature=4 0 0
split_gain=0.00667416 0.0074543 8.5484e-05
threshold=0.83478903887067168 0.067897181957960143 0.042136656120419509
decision_type=2 2 2
left_child=1 2 -1
right_child=-2 -3 -4
leaf_value=-0.00087233075196929471 0.00085247341575313122 -1.3876766568320289e-05 -0.00072814471197028569
leaf_weight=23.117626823484898 15.346842765808104 101.66468642652035 18.510795213282108
leaf_count=214 105 818 164
internal_value=-0.000138507 -0.000244642 -0.000808216
internal_weight=158.64 143.293 41.6284
internal_count=1301 1196 378
is_linear=0
shrinkage=0.05


Tree=46
num_leaves=4
num_cat=0
split_feature=4 0 0
split_gain=0.00602158 0.00673307 7.73039e-05
threshold=0.83478903887067168 0.067897181957960143 0.042136656120419509
decision_type=2 2 2
left_child=1 2 -1
right_child=-2 -3 -4
leaf_value=-0.00082927385963873417 0.0008093959194433128 -1.3184513728126002e-05 -0.00069211944545873939
leaf_weight=23.102476999163628 15.355206698179243 101.66368658840656 18.500814467668533
leaf_count=214 105 818 164
internal_value=-0.000131602 -0.000232457 -0.000768282
internal_weight=158.622 143.267 41.6033
internal_count=1301 1196 378
is_linear=0
shrinkage=0.05


Tree=47
num_leaves=5
num_cat=0
split_feature=0 4 4 4
split_gain=0.00558104 1.81856 0.274501 0.000813279
threshold=0.12011111527681352 0.66671110814834578 0.13850358376733876 0.0055153037444235298
decision_type=2 2 2 2
left_child=3 2 -2 -1
right_child=1 -3 -4 -5
leaf_value=-0.00054143561599582851 0.0001038131831638442 0.039804421153863324 0.011891577580931552 -0.00021199994923486724
leaf_weight=22.80564209073782 20.298881992697723 2.8872598707675925 7.671925723552703 104.94158989936113
leaf_count=203 161 17 56 864
internal_value=-0.000125038 0.000478438 0.000103813 -0.000270811
internal_weight=158.605 30.8581 27.9708 127.747
internal_count=1301 234 217 1067
is_linear=0
shrinkage=0.05


Tree=48
num_leaves=4
num_cat=0
split_feature=4 0 0
split_gain=0.00332874 0.00498326 7.12996e-05
threshold=0.83478903887067168 0.067897181957960143 0.042136656120419509
decision_type=2 2 2
left_child=1 2 -1
right_child=-2 -3 -4
leaf_value=-0.00077511453626365006 0.0005182667329339816 -6.6787350523484488e-05 -0.00064334335148169618
leaf_weight=23.083393551409245 15.402912795543669 101.73401102423668 18.487307943403721
leaf_count=214 105 818 164
internal_value=-0.000180191 -0.000255264 -0.000716513
internal_weight=158.708 143.305 41.5707
internal_count=1301 1196 378
is_linear=0
shrinkage=0.05


Tree=49
num_leaves=4
num_cat=0
split_feature=4 0 0
split_gain=0.00300407 0.00450103 6.44545e-05
threshold=0.83478903887067168 0.067897181957960143 0.042136656120419509
decision_type=2 2 2
left_child=1 2 -1
right_child=-2 -3 -4
leaf_value=-0.00073679877603857193 0.00049218624036739562 -6.3452450340249495e-05 -0.0006114796079263764
leaf_weight=23.069945096969604 15.407995268702505 101.72919923067093 18.478495940566063
leaf_count=214 105 818 164
internal_value=-0.00017121 -0.000242551 -0.000681064
internal_weight=158.686 143.278 41.5484
internal_count=1301 1196 378
is_linear=0
shrinkage=0.05


Tree=50
num_leaves=4
num_cat=0
split_feature=4 0 0
split_gain=0.00271106 0.00406532 5.82728e-05
threshold=0.83478903887067168 0.067897181957960143 0.042136656120419509
decision_type=2 2 2
left_child=1 2 -1
right_child=-2 -3 -4
leaf_value=-0.00070035939782367147 0.00046742684525014511 -6.0281052624181598e-05 -0.00058117153318918964
leaf_weight=23.05716572701931 15.41282297670841 101.72462943196297 18.470123514533043
leaf_count=214 105 818 164
internal_value=-0.000162672 -0.000230466 -0.000647348
internal_weight=158.665 143.252 41.5273
internal_count=1301 1196 378
is_linear=0
shrinkage=0.05


Tree=51
num_leaves=4
num_cat=0
split_feature=4 0 0
split_gain=0.00244665 0.00367162 5.26685e-05
threshold=0.83478903887067168 0.067897181957960143 0.042136656120419509
decision_type=2 2 2
left_child=1 2 -1
right_child=-2 -3 -4
leaf_value=-0.00066569850616315712 0.00044392053493514673 -5.727030146307303e-05 -0.00055236010787058096
leaf_weight=23.045022070407867 15.417408168315886 101.72028870880604 18.462167143821716
leaf_count=214 105 818 164
internal_value=-0.000154561 -0.000218983 -0.000615286
internal_weight=158.645 143.227 41.5072
internal_count=1301 1196 378
is_linear=0
shrinkage=0.05


Tree=52
num_leaves=4
num_cat=0
split_feature=4 0 0
split_gain=0.00220802 0.00331592 4.76061e-05
threshold=0.83478903887067168 0.067897181957960143 0.042136656120419509
decision_type=2 2 2
left_child=1 2 -1
right_child=-2 -3 -4
leaf_value=-0.00063273999113527954 0.00042160017639024231 -5.4410811204429736e-05 -0.00052496179229335538
leaf_weight=23.033483661711216 15.42176406085491 101.71616233885288 18.454607583582401
leaf_count=214 105 818 164
internal_value=-0.000146854 -0.000208071 -0.000584798
internal_weight=158.626 143.204 41.4881
internal_count=1301 1196 378
is_linear=0
shrinkage=0.05


Tree=53
num_leaves=4
num_cat=0
split_feature=4 0 0
split_gain=0.00199267 0.0029946 4.30245e-05
threshold=0.83478903887067168 0.067897181957960143 0.042136656120419509
decision_type=2 2 2
left_child=1 2 -1
right_child=-2 -3 -4
leaf_value=-0.00060139546571512186 0.00040041088678221035 -5.1690909070364031e-05 -0.00049891284916235286
leaf_weight=23.022519037127495 15.425899773836134 101.71224312484264 18.447425283491611
leaf_count=214 105 818 164
internal_value=-0.000139528 -0.000197698 -0.000555807
internal_weight=158.608 143.182 41.4699
internal_count=1301 1196 378
is_linear=0
shrinkage=0.05


Tree=54
num_leaves=4
num_cat=0
split_feature=4 0 0
split_gain=0.00179833 0.00270432 3.88798e-05
threshold=0.83478903887067168 0.067897181957960143 0.042136656120419509
decision_type=2 2 2
left_child=1 2 -1
right_child=-2 -3 -4
leaf_value=-0.00057158999814333345 0.00038029113086240505 -4.9108654564373093e-05 -0.00047414874716313619
leaf_weight=23.012101531028748 15.429828524589537 101.708521515131 18.440599471330643
leaf_count=214 105 818 164
internal_value=-0.000132567 -0.000187843 -0.000528242
internal_weight=158.591 143.161 41.4527
internal_count=1301 1196 378
is_linear=0
shrinkage=0.05


Tree=55
num_leaves=4
num_cat=0
split_feature=4 0 0
split_gain=0.00162296 0.00244212 3.51362e-05
threshold=0.83478903887067168 0.067897181957960143 0.042136656120419509
decision_type=2 2 2
left_child=1 2 -1
right_child=-2 -3 -4
leaf_value=-0.00054325251739218566 0.00036118893911232639 -4.6654832605464585e-05 -0.00045060327172013386
leaf_weight=23.002202205359936 15.433560296893118 101.70498205721378 18.43411548435688
leaf_count=214 105 818 164
internal_value=-0.000125954 -0.000178478 -0.000502035
internal_weight=158.575 143.141 41.4363
internal_count=1301 1196 378
is_linear=0
shrinkage=0.05


Tree=56
num_leaves=4
num_cat=0
split_feature=4 0 0
split_gain=0.00146466 0.00220526 3.17492e-05
threshold=0.83478903887067168 0.067897181957960143 0.042136656120419509
decision_type=2 2 2
left_child=1 2 -1
right_child=-2 -3 -4
leaf_value=-0.00051630742294589448 0.0003430455445325235 -4.4323916765523869e-05 -0.00042822065398613948
leaf_weight=22.992796823382378 15.437104150652884 101.70162469148636 18.427953466773033
leaf_count=214 105 818 164
internal_value=-0.00011967 -0.000169578 -0.000477118
internal_weight=158.559 143.122 41.4208
internal_count=1301 1196 378
is_linear=0
shrinkage=0.05


Tree=57
num_leaves=4
num_cat=0
split_feature=4 0 0
split_gain=0.00132183 0.00199133 2.86885e-05
threshold=0.83478903887067168 0.067897181957960143 0.042136656120419509
decision_type=2 2 2
left_child=1 2 -1
right_child=-2 -3 -4
leaf_value=-0.00049068828061029528 0.00032582291018783908 -4.2108348787655649e-05 -0.00040694037179309658
leaf_weight=22.983859896659851 15.440471202135084 101.69843265414238 18.422099366784096
leaf_count=214 105 818 164
internal_value=-0.000113697 -0.00016112 -0.000453428
internal_weight=158.545 143.104 41.406
internal_count=1301 1196 378
is_linear=0
shrinkage=0.05


Tree=58
num_leaves=4
num_cat=0
split_feature=4 0 0
split_gain=0.00119292 0.00179808 2.59143e-05
threshold=0.83478903887067168 0.067897181957960143 0.042136656120419509
decision_type=2 2 2
left_child=1 2 -1
right_child=-2 -3 -4
leaf_value=-0.00046632577102057667 0.00030946509321073349 -4.0004093805203973e-05 -0.00038671678806454618
leaf_weight=22.975367687642574 15.443668305873869 101.6954001635313 18.416536688804626
leaf_count=214 105 818 164
internal_value=-0.000108023 -0.000153083 -0.000430905
internal_weight=158.531 143.087 41.3919
internal_count=1301 1196 378
is_linear=0
shrinkage=0.05


Tree=59
num_leaves=4
num_cat=0
split_feature=4 0 0
split_gain=0.00107659 0.00162356 2.34161e-05
threshold=0.83478903887067168 0.067897181957960143 0.042136656120419509
decision_type=2 2 2
left_child=1 2 -1
right_child=-2 -3 -4
leaf_value=-0.00044317299735380515 0.00029393357776564687 -3.8005365074703025e-05 -0.00036748645699454197
leaf_weight=22.967299595475197 15.446706086397169 101.69251820445061 18.411251686513424
leaf_count=214 105 818 164
internal_value=-0.000102632 -0.000145447 -0.000409497
internal_weight=158.518 143.071 41.3786
internal_count=1301 1196 378
is_linear=0
shrinkage=0.05


Tree=60
num_leaves=4
num_cat=0
split_feature=4 0 0
split_gain=0.000971598 0.00146592 2.11533e-05
threshold=0.83478903887067168 0.067897181957960143 0.042136656120419509
decision_type=2 2 2
left_child=1 2 -1
right_child=-2 -3 -4
leaf_value=-0.00042115564648074013 0.00027918309004886058 -3.6106174902528607e-05 -0.00034920822674425862
leaf_weight=22.959634155035019 15.449591830372809 101.68977998197079 18.406230002641678
leaf_count=214 105 818 164
internal_value=-9.75081e-05 -0.00013819 -0.000389142
internal_weight=158.505 143.056 41.3659
internal_count=1301 1196 378
is_linear=0
shrinkage=0.05


Tree=61
num_leaves=5
num_cat=0
split_feature=0 4 4 4
split_gain=0.000920137 1.59648 0.236604 0.000518572
threshold=0.12011111527681352 0.66671110814834578 0.13850358376733876 0.0055153037444235298
decision_type=2 2 2 2
left_child=3 2 -2 -1
right_child=1 -3 -4 -5
leaf_value=-0.00036842272896785177 -1.160092903438356e-07 0.036744798002418089 0.01124229252330638 -0.0001050380724811472
leaf_weight=22.745397225022316 20.291075885295875 2.9565556049346915 7.7299922853708258 104.77030018717051
leaf_count=203 161 17 56 864
internal_value=-9.26398e-05 0.000151787 -1.16009e-07 -0.000152019
internal_weight=158.493 30.9776 28.0211 127.516
internal_count=1301 234 217 1067
is_linear=0
shrinkage=0.05


Tree=62
num_leaves=2
num_cat=0
split_feature=4
split_gain=0.000212554
threshold=0.83478903887067168
decision_type=2
left_child=-1
right_child=-2
leaf_value=-0.00016760649041731195 2.7379123291672326e-05
leaf_weight=143.10721953213215 15.489512875676153
leaf_count=1196 105
internal_value=-0.000148563
internal_weight=158.597
internal_count=1301
is_linear=0
shrinkage=0.05


Tree=63
num_leaves=2
num_cat=0
split_feature=4
split_gain=0.000191878
threshold=0.83478903887067168
decision_type=2
left_child=-1
right_child=-2
leaf_value=-0.0001592463673698565 2.6012417774008555e-05
leaf_weight=143.08996137976646 15.489780962467192
leaf_count=1196 105
internal_value=-0.000141151
internal_weight=158.58
internal_count=1301
is_linear=0
shrinkage=0.05


Tree=64
num_leaves=2
num_cat=0
split_feature=4
split_gain=0.000173202
threshold=0.83478903887067168
decision_type=2
left_child=-1
right_child=-2
leaf_value=-0.0001513018349186879 2.4710089033846782e-05
leaf_weight=143.07356391102076 15.49003593623638
leaf_count=1196 105
internal_value=-0.000134107
internal_weight=158.564
internal_count=1301
is_linear=0
shrinkage=0.05


Tree=65
num_leaves=2
num_cat=0
split_feature=4
split_gain=0.000156342
threshold=0.83478903887067168
decision_type=2
left_child=-1
right_child=-2
leaf_value=-0.00014375224921281231 2.3473524694160391e-05
leaf_weight=143.05798453092575 15.490278288722036
leaf_count=1196 105
internal_value=-0.000127414
internal_weight=158.548
internal_count=1301
is_linear=0
shrinkage=0.05


Tree=66
num_leaves=2
num_cat=0
split_feature=4
split_gain=0.000141124
threshold=0.83478903887067168
decision_type=2
left_child=-1
right_child=-2
leaf_value=-0.00013657830548606366 2.2300071104674774e-05
leaf_weight=143.04318480193615 15.490509524941443
leaf_count=1196 105
internal_value=-0.000121054
internal_weight=158.534
internal_count=1301
is_linear=0
shrinkage=0.05


Tree=67
num_leaves=2
num_cat=0
split_feature=4
split_gain=0.000127383
threshold=0.83478903887067168
decision_type=2
left_child=-1
right_child=-2
leaf_value=-0.00012976210281731847 2.1183281151095965e-05
leaf_weight=143.02912656962872 15.490727275609968
leaf_count=1196 105
internal_value=-0.000115012
internal_weight=158.52
internal_count=1301
is_linear=0
shrinkage=0.05


Tree=68
num_leaves=2
num_cat=0
split_feature=4
split_gain=0.000114984
threshold=0.83478903887067168
decision_type=2
left_child=-1
right_child=-2
leaf_value=-0.0001232870168051739 2.0123818327840048e-05
leaf_weight=143.01576570421457 15.490935042500494
leaf_count=1196 105
internal_value=-0.000109271
internal_weight=158.507
internal_count=1301
is_linear=0
shrinkage=0.05


Tree=69
num_leaves=2
num_cat=0
split_feature=4
split_gain=0.000103792
threshold=0.83478903887067168
decision_type=2
left_child=-1
right_child=-2
leaf_value=-0.00011713268775313031 1.9119849904707746e-05
leaf_weight=143.00307537615299 15.491133421659468
leaf_count=1196 105
internal_value=-0.000103815
internal_weight=158.494
internal_count=1301
is_linear=0
shrinkage=0.05


Tree=70
num_leaves=2
num_cat=0
split_feature=4
split_gain=9.36825e-05
threshold=0.83478903887067168
decision_type=2
left_child=-1
right_child=-2
leaf_value=-0.00011128586812025677 1.8160841227102841e-05
leaf_weight=142.99101853370667 15.491320580244063
leaf_count=1196 105
internal_value=-9.86327e-05
internal_weight=158.482
internal_count=1301
is_linear=0
shrinkage=0.05


Tree=71
num_leaves=2
num_cat=0
split_feature=4
split_gain=8.45603e-05
threshold=0.83478903887067168
decision_type=2
left_child=-1
right_child=-2
leaf_value=-0.00010573023517728355 1.7252605511500519e-05
leaf_weight=142.97956162691116 15.49149878323078
leaf_count=1196 105
internal_value=-9.37079e-05
internal_weight=158.471
internal_count=1301
is_linear=0
shrinkage=0.05


Tree=72
num_leaves=2
num_cat=0
split_feature=4
split_gain=7.63256e-05
threshold=0.83478903887067168
decision_type=2
left_child=-1
right_child=-2
leaf_value=-0.00010045119322414012 1.6389993990957555e-05
leaf_weight=142.96867953240871 15.491667434573172
leaf_count=1196 105
internal_value=-8.90284e-05
internal_weight=158.46
internal_count=1301
is_linear=0
shrinkage=0.05


Tree=73
num_leaves=2
num_cat=0
split_feature=4
split_gain=6.88931e-05
threshold=0.83478903887067168
decision_type=2
left_child=-1
right_child=-2
leaf_value=-9.5435282551849427e-05 1.5571126296033904e-05
leaf_weight=142.95834044367075 15.491828158497809
leaf_count=1196 105
internal_value=-8.45821e-05
internal_weight=158.45
internal_count=1301
is_linear=0
shrinkage=0.05


Tree=74
num_leaves=2
num_cat=0
split_feature=4
split_gain=6.21874e-05
threshold=0.83478903887067168
decision_type=2
left_child=-1
right_child=-2
leaf_value=-9.0671634228619086e-05 1.4794028046222618e-05
leaf_weight=142.94851773232222 15.491980895400046
leaf_count=1196 105
internal_value=-8.03594e-05
internal_weight=158.44
internal_count=1301
is_linear=0
shrinkage=0.05


Tree=75
num_leaves=2
num_cat=0
split_feature=4
split_gain=5.61276e-05
threshold=0.83478903887067168
decision_type=2
left_child=-1
right_child=-2
leaf_value=-8.6142530571835615e-05 1.4052781254142105e-05
leaf_weight=142.93918558210135 15.492125809192656
leaf_count=1196 105
internal_value=-7.6345e-05
internal_weight=158.431
internal_count=1301
is_linear=0
shrinkage=0.05


Tree=76
num_leaves=2
num_cat=0
split_feature=4
split_gain=5.06587e-05
threshold=0.83478903887067168
decision_type=2
left_child=-1
right_child=-2
leaf_value=-8.1840410936733388e-05 1.3348392752672719e-05
leaf_weight=142.9303228482604 15.49226403236389
leaf_count=1196 105
internal_value=-7.25318e-05
internal_weight=158.423
internal_count=1301
is_linear=0
shrinkage=0.05


Tree=77
num_leaves=2
num_cat=0
split_feature=4
split_gain=4.57264e-05
threshold=0.83478903887067168
decision_type=2
left_child=-1
right_child=-2
leaf_value=-7.7753600535118161e-05 1.2682544430961839e-05
leaf_weight=142.92189854383469 15.492394864559172
leaf_count=1196 105
internal_value=-6.89092e-05
internal_weight=158.414
internal_count=1301
is_linear=0
shrinkage=0.05


Tree=78
num_leaves=2
num_cat=0
split_feature=4
split_gain=4.12715e-05
threshold=0.83478903887067168
decision_type=2
left_child=-1
right_child=-2
leaf_value=-7.3870209998713022e-05 1.2047635025896008e-05
leaf_weight=142.91389841586351 15.492519438266752
leaf_count=1196 105
internal_value=-6.54672e-05
internal_weight=158.406
internal_count=1301
is_linear=0
shrinkage=0.05


Tree=79
num_leaves=2
num_cat=0
split_feature=4
split_gain=3.72506e-05
threshold=0.83478903887067168
decision_type=2
left_child=-1
right_child=-2
leaf_value=-7.0180160771995891e-05 1.1445057861880888e-05
leaf_weight=142.90629920363426 15.49263748526573
leaf_count=1196 105
internal_value=-6.21966e-05
internal_weight=158.399
internal_count=1301
is_linear=0
shrinkage=0.05


Tree=80
num_leaves=2
num_cat=0
split_feature=4
split_gain=3.36227e-05
threshold=0.83478903887067168
decision_type=2
left_child=-1
right_child=-2
leaf_value=-6.6675278422195029e-05 1.0873224255004039e-05
leaf_weight=142.89907515794039 15.492749273777006
leaf_count=1196 105
internal_value=-5.909e-05
internal_weight=158.392
internal_count=1301
is_linear=0
shrinkage=0.05


Tree=81
num_leaves=2
num_cat=0
split_feature=4
split_gain=3.03489e-05
threshold=0.83478903887067168
decision_type=2
left_child=-1
right_child=-2
leaf_value=-6.3345140111547118e-05 1.033126617567759e-05
leaf_weight=142.89221619069576 15.492856368422506
leaf_count=1196 105
internal_value=-5.61383e-05
internal_weight=158.385
internal_count=1301
is_linear=0
shrinkage=0.05


Tree=82
num_leaves=2
num_cat=0
split_feature=4
split_gain=2.73897e-05
threshold=0.83478903887067168
decision_type=2
left_child=-1
right_child=-2
leaf_value=-6.0180207281100334e-05 9.8121140869503228e-06
leaf_weight=142.88569762557745 15.492957472801207
leaf_count=1196 105
internal_value=-5.33334e-05
internal_weight=158.379
internal_count=1301
is_linear=0
shrinkage=0.05


Tree=83
num_leaves=2
num_cat=0
split_feature=4
split_gain=2.47203e-05
threshold=0.83478903887067168
decision_type=2
left_child=-1
right_child=-2
leaf_value=-5.7172825904723776e-05 9.3212959691359752e-06
leaf_weight=142.87950622290373 15.49305474758148
leaf_count=1196 105
internal_value=-5.06679e-05
internal_weight=158.373
internal_count=1301
is_linear=0
shrinkage=0.05


Tree=84
num_leaves=2
num_cat=0
split_feature=4
split_gain=2.23144e-05
threshold=0.83478903887067168
decision_type=2
left_child=-1
right_child=-2
leaf_value=-5.4317080779741141e-05 8.858427443815732e-06
leaf_weight=142.87362413853407 15.493146032094954
leaf_count=1196 105
internal_value=-4.81366e-05
internal_weight=158.367
internal_count=1301
is_linear=0
shrinkage=0.05


Tree=85
num_leaves=2
num_cat=0
split_feature=4
split_gain=2.01379e-05
threshold=0.83478903887067168
decision_type=2
left_child=-1
right_child=-2
leaf_value=-5.1602720390259366e-05 8.4127348380979046e-06
leaf_weight=142.86803577840328 15.493232518434523
leaf_count=1196 105
internal_value=-4.57311e-05
internal_weight=158.361
internal_count=1301
is_linear=0
shrinkage=0.05


Tree=86
num_leaves=2
num_cat=0
split_feature=4
split_gain=1.81764e-05
threshold=0.83478903887067168
decision_type=2
left_child=-1
right_child=-2
leaf_value=-4.9024594044644899e-05 7.9931137239407729e-06
leaf_weight=142.86272627860308 15.493314579129217
leaf_count=1196 105
internal_value=-4.34461e-05
internal_weight=158.356
internal_count=1301
is_linear=0
shrinkage=0.05


Tree=87
num_leaves=2
num_cat=0
split_feature=4
split_gain=1.64051e-05
threshold=0.83478903887067168
decision_type=2
left_child=-1
right_child=-2
leaf_value=-4.6575518871853531e-05 7.5927340878871186e-06
leaf_weight=142.85768049955368 15.493393510580061
leaf_count=1196 105
internal_value=-4.12756e-05
internal_weight=158.351
internal_count=1301
is_linear=0
shrinkage=0.05


Tree=88
num_leaves=2
num_cat=0
split_feature=4
split_gain=1.48058e-05
threshold=0.83478903887067168
decision_type=2
left_child=-1
right_child=-2
leaf_value=-4.4247414467182422e-05 7.212750322515576e-06
leaf_weight=142.85289019346237 15.493467584252356
leaf_count=1196 105
internal_value=-3.92123e-05
internal_weight=158.346
internal_count=1301
is_linear=0
shrinkage=0.05


Tree=89
num_leaves=2
num_cat=0
split_feature=4
split_gain=1.33649e-05
threshold=0.83478903887067168
decision_type=2
left_child=-1
right_child=-2
leaf_value=-4.2037910826305224e-05 6.8541228256175118e-06
leaf_weight=142.84833983331919 15.493538424372671
leaf_count=1196 105
internal_value=-3.72539e-05
internal_weight=158.342
internal_count=1301
is_linear=0
shrinkage=0.05


Tree=90
num_leaves=2
num_cat=0
split_feature=4
split_gain=1.20624e-05
threshold=0.83478903887067168
decision_type=2
left_child=-1
right_child=-2
leaf_value=-3.9936313756838678e-05 6.5120903829749298e-06
leaf_weight=142.84401299804449 15.493605971336363
leaf_count=1196 105
internal_value=-3.53913e-05
internal_weight=158.338
internal_count=1301
is_linear=0
shrinkage=0.05


Tree=91
num_leaves=2
num_cat=0
split_feature=4
split_gain=1.08852e-05
threshold=0.83478903887067168
decision_type=2
left_child=-1
right_child=-2
leaf_value=-3.7941609489243907e-05 6.1822769470548238e-06
leaf_weight=142.83990237861872 15.493669256567953
leaf_count=1196 105
internal_value=-3.36239e-05
internal_weight=158.334
internal_count=1301
is_linear=0
shrinkage=0.05


Tree=92
num_leaves=2
num_cat=0
split_feature=4
split_gain=9.82472e-06
threshold=0.83478903887067168
decision_type=2
left_child=-1
right_child=-2
leaf_value=-3.6045088482324601e-05 5.8742507951096621e-06
leaf_weight=142.83600224554539 15.493730276823042
leaf_count=1196 105
internal_value=-3.1943e-05
internal_weight=158.33
internal_count=1301
is_linear=0
shrinkage=0.05


Tree=93
num_leaves=2
num_cat=0
split_feature=4
split_gain=8.86704e-06
threshold=0.83478903887067168
decision_type=2
left_child=-1
right_child=-2
leaf_value=-3.424352220719846e-05 5.5803662397738908e-06
leaf_weight=142.83229254931211 15.493787303566931
leaf_count=1196 105
internal_value=-3.03464e-05
internal_weight=158.326
internal_count=1301
is_linear=0
shrinkage=0.05


Tree=94
num_leaves=2
num_cat=0
split_feature=4
split_gain=8.00297e-06
threshold=0.83478903887067168
decision_type=2
left_child=-1
right_child=-2
leaf_value=-3.2531998659809359e-05 5.3017763113131726e-06
leaf_weight=142.82877188175917 15.49384233355522
leaf_count=1196 105
internal_value=-2.88295e-05
internal_weight=158.323
internal_count=1301
is_linear=0
shrinkage=0.05


Tree=95
num_leaves=2
num_cat=0
split_feature=4
split_gain=7.22354e-06
threshold=0.83478903887067168
decision_type=2
left_child=-1
right_child=-2
leaf_value=-3.0906682376608498e-05 5.0375193099456997e-06
leaf_weight=142.82542400062084 15.493894398212431
leaf_count=1196 105
internal_value=-2.7389e-05
internal_weight=158.319
internal_count=1301
is_linear=0
shrinkage=0.05


Tree=96
num_leaves=2
num_cat=0
split_feature=4
split_gain=6.5195e-06
threshold=0.83478903887067168
decision_type=2
left_child=-1
right_child=-2
leaf_value=-2.9361740702150113e-05 4.785911644100141e-06
leaf_weight=142.82224562764168 15.493944302201269
leaf_count=1196 105
internal_value=-2.60198e-05
internal_weight=158.316
internal_count=1301
is_linear=0
shrinkage=0.05


Tree=97
num_leaves=2
num_cat=0
split_feature=4
split_gain=5.8842e-06
threshold=0.83478903887067168
decision_type=2
left_child=-1
right_child=-2
leaf_value=-2.7894482069897118e-05 4.5467612284389899e-06
leaf_weight=142.81922410428524 15.493990376591681
leaf_count=1196 105
internal_value=-2.47195e-05
internal_weight=158.313
internal_count=1301
is_linear=0
shrinkage=0.05


Tree=98
num_leaves=2
num_cat=0
split_feature=4
split_gain=5.31118e-06
threshold=0.83478903887067168
decision_type=2
left_child=-1
right_child=-2
leaf_value=-2.6500720147931451e-05 4.3204515961227441e-06
leaf_weight=142.8163546025753 15.494035750627516
leaf_count=1196 105
internal_value=-2.34842e-05
internal_weight=158.31
internal_count=1301
is_linear=0
shrinkage=0.05


Tree=99
num_leaves=2
num_cat=0
split_feature=4
split_gain=4.79299e-06
threshold=0.83478903887067168
decision_type=2
left_child=-1
right_child=-2
leaf_value=-2.517545694407864e-05 4.1035690254110166e-06
leaf_weight=142.81362894177437 15.494078263640402
leaf_count=1196 105
internal_value=-2.23098e-05
internal_weight=158.308
internal_count=1301
is_linear=0
shrinkage=0.05


Tree=100
num_leaves=2
num_cat=0
split_feature=4
split_gain=4.32537e-06
threshold=0.83478903887067168
decision_type=2
left_child=-1
right_child=-2
leaf_value=-2.3916252280038391e-05 3.897844459170992e-06
leaf_weight=142.81103924661875 15.49411781132221
leaf_count=1196 105
internal_value=-2.11939e-05
internal_weight=158.305
internal_count=1301
is_linear=0
shrinkage=0.05


Tree=101
num_leaves=2
num_cat=0
split_feature=4
split_gain=3.90358e-06
threshold=0.83478903887067168
decision_type=2
left_child=-1
right_child=-2
leaf_value=-2.2721043144033913e-05 3.7021232856361905e-06
leaf_weight=142.80857911705971 15.494155794382094
leaf_count=1196 105
internal_value=-2.01348e-05
internal_weight=158.303
internal_count=1301
is_linear=0
shrinkage=0.05


Tree=102
num_leaves=2
num_cat=0
split_feature=4
split_gain=3.52332e-06
threshold=0.83478903887067168
decision_type=2
left_child=-1
right_child=-2
leaf_value=-2.1587406003233141e-05 3.5157800305315734e-06
leaf_weight=142.8062409311533 15.494193181395529
leaf_count=1196 105
internal_value=-1.91303e-05
internal_weight=158.3
internal_count=1301
is_linear=0
shrinkage=0.05


Tree=103
num_leaves=2
num_cat=0
split_feature=4
split_gain=3.17962e-06
threshold=0.83478903887067168
decision_type=2
left_child=-1
right_child=-2
leaf_value=-2.050671774357605e-05 3.3406425758116141e-06
leaf_weight=142.80402156710625 15.494226738810537
leaf_count=1196 105
internal_value=-1.81725e-05
internal_weight=158.298
internal_count=1301
is_linear=0
shrinkage=0.05


Tree=104
num_leaves=2
num_cat=0
split_feature=4
split_gain=2.86981e-06
threshold=0.83478903887067168
decision_type=2
left_child=-1
right_child=-2
leaf_value=-1.948145260859188e-05 3.1743538597765561e-06
leaf_weight=142.80191196501255 15.49425959587097
leaf_count=1196 105
internal_value=-1.72639e-05
internal_weight=158.296
internal_count=1301
is_linear=0
shrinkage=0.05


Tree=105
num_leaves=2
num_cat=0
split_feature=4
split_gain=2.59022e-06
threshold=0.83478903887067168
decision_type=2
left_child=-1
right_child=-2
leaf_value=-1.8508227139490379e-05 3.0156636843534895e-06
leaf_weight=142.79990838468075 15.494291156530378
leaf_count=1196 105
internal_value=-1.64014e-05
internal_weight=158.294
internal_count=1301
is_linear=0
shrinkage=0.05


Tree=106
num_leaves=2
num_cat=0
split_feature=4
split_gain=2.33806e-06
threshold=0.83478903887067168
decision_type=2
left_child=-1
right_child=-2
leaf_value=-1.7582851507110941e-05 2.8665435835469328e-06
leaf_weight=142.7980048507452 15.49432088434696
leaf_count=1196 105
internal_value=-1.55812e-05
internal_weight=158.292
internal_count=1301
is_linear=0
shrinkage=0.05


Tree=107
num_leaves=2
num_cat=0
split_feature=4
split_gain=2.10996e-06
threshold=0.83478903887067168
decision_type=2
left_child=-1
right_child=-2
leaf_value=-1.6704344099084483e-05 2.7219443938910492e-06
leaf_weight=142.79619570821524 15.494349047541617
leaf_count=1196 105
internal_value=-1.48028e-05
internal_weight=158.291
internal_count=1301
is_linear=0
shrinkage=0.05


Tree=108
num_leaves=2
num_cat=0
split_feature=4
split_gain=1.90474e-06
threshold=0.83478903887067168
decision_type=2
left_child=-1
right_child=-2
leaf_value=-1.5869398191504458e-05 2.5879728873458402e-06
leaf_weight=142.79447753727436 15.494375914335249
leaf_count=1196 105
internal_value=-1.40627e-05
internal_weight=158.289
internal_count=1301
is_linear=0
shrinkage=0.05


Tree=109
num_leaves=2
num_cat=0
split_feature=4
split_gain=1.71841e-06
threshold=0.83478903887067168
decision_type=2
left_child=-1
right_child=-2
leaf_value=-1.5074975343057612e-05 2.4564063487746473e-06
leaf_weight=142.79284710437059 15.494401380419729
leaf_count=1196 105
internal_value=-1.33589e-05
internal_weight=158.287
internal_count=1301
is_linear=0
shrinkage=0.05


Tree=110
num_leaves=2
num_cat=0
split_feature=4
split_gain=1.551e-06
threshold=0.83478903887067168
decision_type=2
left_child=-1
right_child=-2
leaf_value=-1.4322141177654605e-05 2.3333516859878449e-06
leaf_weight=142.79129496961832 15.49442484974861
leaf_count=1196 105
internal_value=-1.26918e-05
internal_weight=158.286
internal_count=1301
is_linear=0
shrinkage=0.05


Tree=111
num_leaves=2
num_cat=0
split_feature=4
split_gain=1.39945e-06
threshold=0.83478903887067168
decision_type=2
left_child=-1
right_child=-2
leaf_value=-1.360553437406708e-05 2.2153463718888602e-06
leaf_weight=142.7898206114769 15.49444831907749
leaf_count=1196 105
internal_value=-1.20568e-05
internal_weight=158.284
internal_count=1301
is_linear=0
shrinkage=0.05


Tree=112
num_leaves=2
num_cat=0
split_feature=4
split_gain=1.26368e-06
threshold=0.83478903887067168
decision_type=2
left_child=-1
right_child=-2
leaf_value=-1.2927200240773869e-05 2.1066703154395924e-06
leaf_weight=142.78842180967331 15.494469359517096
leaf_count=1196 105
internal_value=-1.14555e-05
internal_weight=158.283
internal_count=1301
is_linear=0
shrinkage=0.05


Tree=113
num_leaves=2
num_cat=0
split_feature=4
split_gain=1.14012e-06
threshold=0.83478903887067168
decision_type=2
left_child=-1
right_child=-2
leaf_value=-1.2279197320565556e-05 2.0007835951213297e-06
leaf_weight=142.78709051012993 15.494489699602125
leaf_count=1196 105
internal_value=-1.08813e-05
internal_weight=158.282
internal_count=1301
is_linear=0
shrinkage=0.05


Tree=114
num_leaves=2
num_cat=0
split_feature=4
split_gain=1.02914e-06
threshold=0.83478903887067168
decision_type=2
left_child=-1
right_child=-2
leaf_value=-1.1665612920604007e-05 1.9015329232785576e-06
leaf_weight=142.78582870960236 15.494510039687155
leaf_count=1196 105
internal_value=-1.03375e-05
internal_weight=158.28
internal_count=1301
is_linear=0
shrinkage=0.05


Tree=115
num_leaves=2
num_cat=0
split_feature=4
split_gain=9.28574e-07
threshold=0.83478903887067168
decision_type=2
left_child=-1
right_child=-2
leaf_value=-1.1082757624364656e-05 1.8044946148176824e-06
leaf_weight=142.7846293374896 15.494528815150259
leaf_count=1196 105
internal_value=-9.82118e-06
internal_weight=158.279
internal_count=1301
is_linear=0
shrinkage=0.05


Tree=116
num_leaves=2
num_cat=0
split_feature=4
split_gain=8.38196e-07
threshold=0.83478903887067168
decision_type=2
left_child=-1
right_child=-2
leaf_value=-1.0529370361671504e-05 1.7146694615056011e-06
leaf_weight=142.78349008411169 15.49454629421234
leaf_count=1196 105
internal_value=-9.33075e-06
internal_weight=158.278
internal_count=1301
is_linear=0
shrinkage=0.05


Tree=117
num_leaves=2
num_cat=0
split_feature=4
split_gain=7.56321e-07
threshold=0.83478903887067168
decision_type=2
left_child=-1
right_child=-2
leaf_value=-1.0001309677076227e-05 1.629364540952855e-06
leaf_weight=142.78240609169006 15.494563505053518
leaf_count=1196 105
internal_value=-8.86272e-06
internal_weight=158.277
internal_count=1301
is_linear=0
shrinkage=0.05


Tree=118
num_leaves=2
num_cat=0
split_feature=4
split_gain=6.82752e-07
threshold=0.83478903887067168
decision_type=2
left_child=-1
right_child=-2
leaf_value=-9.5021433720061751e-06 1.5483876229180239e-06
leaf_weight=142.78137751668692 15.494579151272772
leaf_count=1196 105
internal_value=-8.42034e-06
internal_weight=158.276
internal_count=1301
is_linear=0
shrinkage=0.05


Tree=119
num_leaves=2
num_cat=0
split_feature=4
split_gain=6.1591e-07
threshold=0.83478903887067168
decision_type=2
left_child=-1
right_child=-2
leaf_value=-9.0267773145812096e-06 1.4689016117207978e-06
leaf_weight=142.7804004997015 15.494593665003775
leaf_count=1196 105
internal_value=-7.99929e-06
internal_weight=158.275
internal_count=1301
is_linear=0
shrinkage=0.05


Tree=120
num_leaves=2
num_cat=0
split_feature=4
split_gain=5.56299e-07
threshold=0.83478903887067168
decision_type=2
left_child=-1
right_child=-2
leaf_value=-8.5764807500641786e-06 1.3983594699241196e-06
leaf_weight=142.77947156876326 15.494609147310255
leaf_count=1196 105
internal_value=-7.59997e-06
internal_weight=158.274
internal_count=1301
is_linear=0
shrinkage=0.05


Tree=121
num_leaves=2
num_cat=0
split_feature=4
split_gain=5.02066e-07
threshold=0.83478903887067168
decision_type=2
left_child=-1
right_child=-2
leaf_value=-8.1463129347115008e-06 1.3298372538956108e-06
leaf_weight=142.77859038859606 15.494622096419333
leaf_count=1196 105
internal_value=-7.21862e-06
internal_weight=158.273
internal_count=1301
is_linear=0
shrinkage=0.05


Tree=122
num_leaves=2
num_cat=0
split_feature=4
split_gain=4.53049e-07
threshold=0.83478903887067168
decision_type=2
left_child=-1
right_child=-2
leaf_value=-7.7394137453092621e-06 1.26227679344973e-06
leaf_weight=142.77775213867426 15.494635745882986
leaf_count=1196 105
internal_value=-6.85816e-06
internal_weight=158.272
internal_count=1301
is_linear=0
shrinkage=0.05


Tree=123
num_leaves=2
num_cat=0
split_feature=4
split_gain=4.08887e-07
threshold=0.83478903887067168
decision_type=2
left_child=-1
right_child=-2
leaf_value=-7.3534408988550769e-06 1.1982749068962276e-06
leaf_weight=142.77695734798908 15.494647130370138
leaf_count=1196 105
internal_value=-6.51624e-06
internal_weight=158.272
internal_count=1301
is_linear=0
shrinkage=0.05


Tree=124
num_leaves=2
num_cat=0
split_feature=4
split_gain=3.68994e-07
threshold=0.83478903887067168
decision_type=2
left_child=-1
right_child=-2
leaf_value=-6.9855773799679417e-06 1.1382640722966484e-06
leaf_weight=142.7762019559741 15.494659647345541
leaf_count=1196 105
internal_value=-6.19026e-06
internal_weight=158.271
internal_count=1301
is_linear=0
shrinkage=0.05


Tree=125
num_leaves=2
num_cat=0
split_feature=4
split_gain=3.32889e-07
threshold=0.83478903887067168
decision_type=2
left_child=-1
right_child=-2
leaf_value=-6.6362206112634167e-06 1.079936411359159e-06
leaf_weight=142.77548094838858 15.494670599699019
leaf_count=1196 105
internal_value=-5.88081e-06
internal_weight=158.27
internal_count=1301
is_linear=0
shrinkage=0.05


Tree=126
num_leaves=2
num_cat=0
split_feature=4
split_gain=3.00599e-07
threshold=0.83478903887067168
decision_type=2
left_child=-1
right_child=-2
leaf_value=-6.3047185930750073e-06 1.0276675127690068e-06
leaf_weight=142.7747995480895 15.494681552052496
leaf_count=1196 105
internal_value=-5.58687e-06
internal_weight=158.269
internal_count=1301
is_linear=0
shrinkage=0.05


Tree=127
num_leaves=2
num_cat=0
split_feature=4
split_gain=2.71318e-07
threshold=0.83478903887067168
decision_type=2
left_child=-1
right_child=-2
leaf_value=-5.9890368902806148e-06 9.7708173526734949e-07
leaf_weight=142.7741524130106 15.49469120800495
leaf_count=1196 105
internal_value=-5.30705e-06
internal_weight=158.269
internal_count=1301
is_linear=0
shrinkage=0.05


Tree=128
num_leaves=2
num_cat=0
split_feature=4
split_gain=2.4464e-07
threshold=0.83478903887067168
decision_type=2
left_child=-1
right_child=-2
leaf_value=-5.6886594673294669e-06 9.2611135923618723e-07
leaf_weight=142.77353578805923 15.494700595736502
leaf_count=1196 105
internal_value=-5.04106e-06
internal_weight=158.268
internal_count=1301
is_linear=0
shrinkage=0.05


Tree=129
num_leaves=2
num_cat=0
split_feature=4
split_gain=2.21036e-07
threshold=0.83478903887067168
decision_type=2
left_child=-1
right_child=-2
leaf_value=-5.4050217694126334e-06 8.8254608457881425e-07
leaf_weight=142.77295041829348 15.494709983468054
leaf_count=1196 105
internal_value=-4.78946e-06
internal_weight=158.268
internal_count=1301
is_linear=0
shrinkage=0.05


Tree=130
num_leaves=2
num_cat=0
split_feature=4
split_gain=1.9936e-07
threshold=0.83478903887067168
decision_type=2
left_child=-1
right_child=-2
leaf_value=-5.1352280502442067e-06 8.3609584519999527e-07
leaf_weight=142.77239268273115 15.494718238711355
leaf_count=1196 105
internal_value=-4.55062e-06
internal_weight=158.267
internal_count=1301
is_linear=0
shrinkage=0.05


Tree=131
num_leaves=2
num_cat=0
split_feature=4
split_gain=1.80083e-07
threshold=0.83478903887067168
decision_type=2
left_child=-1
right_child=-2
leaf_value=-4.8784278882588322e-06 7.9685831253336957e-07
leaf_weight=142.77186613529921 15.494727194309233
leaf_count=1196 105
internal_value=-4.3228e-06
internal_weight=158.267
internal_count=1301
is_linear=0
shrinkage=0.05


Tree=132
num_leaves=2
num_cat=0
split_feature=4
split_gain=1.62415e-07
threshold=0.83478903887067168
decision_type=2
left_child=-1
right_child=-2
leaf_value=-4.6352975809623493e-06 7.5439921272438801e-07
leaf_weight=142.77136509120464 15.49473501741886
leaf_count=1196 105
internal_value=-4.10763e-06
internal_weight=158.266
internal_count=1301
is_linear=0
shrinkage=0.05


Tree=133
num_leaves=2
num_cat=0
split_feature=4
split_gain=1.46575e-07
threshold=0.83478903887067168
decision_type=2
left_child=-1
right_child=-2
leaf_value=-4.4027610931709776e-06 7.1737376472579756e-07
leaf_weight=142.77088857442141 15.494741708040236
leaf_count=1196 105
internal_value=-3.90148e-06
internal_weight=158.266
internal_count=1301
is_linear=0
shrinkage=0.05


Tree=134
num_leaves=2
num_cat=0
split_feature=4
split_gain=1.32155e-07
threshold=0.83478903887067168
decision_type=2
left_child=-1
right_child=-2
leaf_value=-4.1827026140094005e-06 6.7905002330812048e-07
leaf_weight=142.77043460309505 15.494749367237089
leaf_count=1196 105
internal_value=-3.70672e-06
internal_weight=158.265
internal_count=1301
is_linear=0
shrinkage=0.05


Tree=135
num_leaves=2
num_cat=0
split_feature=4
split_gain=1.19387e-07
threshold=0.83478903887067168
decision_type=2
left_child=-1
right_child=-2
leaf_value=-3.9733845156538203e-06 6.4755437427336277e-07
leaf_weight=142.7700053602457 15.494755789637564
leaf_count=1196 105
internal_value=-3.52098e-06
internal_weight=158.265
internal_count=1301
is_linear=0
shrinkage=0.05


Tree=136
num_leaves=2
num_cat=0
split_feature=4
split_gain=1.07737e-07
threshold=0.83478903887067168
decision_type=2
left_child=-1
right_child=-2
leaf_value=-3.7751593940953198e-06 6.1452005350548216e-07
leaf_weight=142.76959575712681 15.494762048125265
leaf_count=1196 105
internal_value=-3.34539e-06
internal_weight=158.264
internal_count=1301
is_linear=0
shrinkage=0.05


Tree=137
num_leaves=2
num_cat=0
split_feature=4
split_gain=9.73093e-08
threshold=0.83478903887067168
decision_type=2
left_child=-1
right_child=-2
leaf_value=-3.5877168611314532e-06 5.841304064727596e-07
leaf_weight=142.76920808851719 15.494768306612967
leaf_count=1196 105
internal_value=-3.17927e-06
internal_weight=158.264
internal_count=1301
is_linear=0
shrinkage=0.05


Tree=138
num_leaves=2
num_cat=0
split_feature=4
split_gain=8.77267e-08
threshold=0.83478903887067168
decision_type=2
left_child=-1
right_child=-2
leaf_value=-3.4060238051436762e-06 5.5508715508820067e-07
leaf_weight=142.7688388004899 15.494774401187895
leaf_count=1196 105
internal_value=-3.01821e-06
internal_weight=158.264
internal_count=1301
is_linear=0
shrinkage=0.05


Tree=139
num_leaves=2
num_cat=0
split_feature=4
split_gain=7.91409e-08
threshold=0.83478903887067168
decision_type=2
left_child=-1
right_child=-2
leaf_value=-3.2364810098958211e-06 5.2580354625069069e-07
leaf_weight=142.76848785579205 15.494779258966444
leaf_count=1196 105
internal_value=-2.86813e-06
internal_weight=158.263
internal_count=1301
is_linear=0
shrinkage=0.05


Tree=140
num_leaves=2
num_cat=0
split_feature=4
split_gain=7.13602e-08
threshold=0.83478903887067168
decision_type=2
left_child=-1
right_child=-2
leaf_value=-3.0731524239857426e-06 4.9940501897735704e-07
leaf_weight=142.76815450191498 15.494784221053122
leaf_count=1196 105
internal_value=-2.72338e-06
internal_weight=158.263
internal_count=1301
is_linear=0
shrinkage=0.05


Tree=141
num_leaves=2
num_cat=0
split_feature=4
split_gain=6.45637e-08
threshold=0.83478903887067168
decision_type=2
left_child=-1
right_child=-2
leaf_value=-2.9210297697202981e-06 4.7714177759524582e-07
leaf_weight=142.76784060895443 15.494788914918898
leaf_count=1196 105
internal_value=-2.58833e-06
internal_weight=158.263
internal_count=1301
is_linear=0
shrinkage=0.05


Tree=142
num_leaves=2
num_cat=0
split_feature=4
split_gain=5.82242e-08
threshold=0.83478903887067168
decision_type=2
left_child=-1
right_child=-2
leaf_value=-2.7751791022540979e-06 4.5184923166449748e-07
leaf_weight=142.76753689348698 15.494793608784674
leaf_count=1196 105
internal_value=-2.45923e-06
internal_weight=158.262
internal_count=1301
is_linear=0
shrinkage=0.05


Tree=143
num_leaves=2
num_cat=0
split_feature=4
split_gain=5.25615e-08
threshold=0.83478903887067168
decision_type=2
left_child=-1
right_child=-2
leaf_value=-2.6355428844762088e-06 4.3054770615145409e-07
leaf_weight=142.76725433766842 15.49479830265045
leaf_count=1196 105
internal_value=-2.33535e-06
internal_weight=158.262
internal_count=1301
is_linear=0
shrinkage=0.05


Tree=144
num_leaves=2
num_cat=0
split_feature=4
split_gain=4.7431e-08
threshold=0.83478903887067168
decision_type=2
left_child=-1
right_child=-2
leaf_value=-2.5036035530277701e-06 4.0900577162344636e-07
leaf_weight=142.76697999984026 15.494802996516226
leaf_count=1196 105
internal_value=-2.21844e-06
internal_weight=158.262
internal_count=1301
is_linear=0
shrinkage=0.05


Tree=145
num_leaves=2
num_cat=0
split_feature=4
split_gain=4.27821e-08
threshold=0.83478903887067168
decision_type=2
left_child=-1
right_child=-2
leaf_value=-2.3784869032549914e-06 3.8770431114413169e-07
leaf_weight=142.76672215759754 15.494806125760077
leaf_count=1196 105
internal_value=-2.10766e-06
internal_weight=158.262
internal_count=1301
is_linear=0
shrinkage=0.05


Tree=146
num_leaves=2
num_cat=0
split_feature=4
split_gain=3.8682e-08
threshold=0.83478903887067168
decision_type=2
left_child=-1
right_child=-2
leaf_value=-2.2601486416426506e-06 3.7015340234082665e-07
leaf_weight=142.76648174226284 15.494810819625853
leaf_count=1196 105
internal_value=-2.00262e-06
internal_weight=158.261
internal_count=1301
is_linear=0
shrinkage=0.05


Tree=147
num_leaves=2
num_cat=0
split_feature=4
split_gain=3.48426e-08
threshold=0.83478903887067168
decision_type=2
left_child=-1
right_child=-2
leaf_value=-2.1467833458762124e-06 3.4957322571522353e-07
leaf_weight=142.76624681800604 15.494813948869703
leaf_count=1196 105
internal_value=-1.90237e-06
internal_weight=158.261
internal_count=1301
is_linear=0
shrinkage=0.05


Tree=148
num_leaves=2
num_cat=0
split_feature=4
split_gain=3.14508e-08
threshold=0.83478903887067168
decision_type=2
left_child=-1
right_child=-2
leaf_value=-2.0386101048230916e-06 3.3312831068137117e-07
leaf_weight=142.7660268843174 15.494817078113554
leaf_count=1196 105
internal_value=-1.8064e-06
internal_weight=158.261
internal_count=1301
is_linear=0
shrinkage=0.05


Tree=149
num_leaves=2
num_cat=0
split_feature=4
split_gain=2.83984e-08
threshold=0.83478903887067168
decision_type=2
left_child=-1
right_child=-2
leaf_value=-1.9383245268424208e-06 3.1538511990020004e-07
leaf_weight=142.76581680029631 15.494820475578306
leaf_count=1196 105
internal_value=-1.71767e-06
internal_weight=158.261
internal_count=1301
is_linear=0
shrinkage=0.05


Tree=150
num_leaves=2
num_cat=0
split_feature=4
split_gain=2.56102e-08
threshold=0.83478903887067168
decision_type=2
left_child=-1
right_child=-2
leaf_value=-1.8412741435377282e-06 2.9894021869768219e-07
leaf_weight=142.76561721414328 15.494823604822157
leaf_count=1196 105
internal_value=-1.63173e-06
internal_weight=158.26
internal_count=1301
is_linear=0
shrinkage=0.05


Tree=151
num_leaves=2
num_cat=0
split_feature=4
split_gain=2.3148e-08
threshold=0.83478903887067168
decision_type=2
left_child=-1
right_child=-2
leaf_value=-1.7491603161298613e-06 2.8557272000884906e-07
leaf_weight=142.76542718708515 15.494826734066008
leaf_count=1196 105
internal_value=-1.54995e-06
internal_weight=158.26
internal_count=1301
is_linear=0
shrinkage=0.05


Tree=152
num_leaves=2
num_cat=0
split_feature=4
split_gain=2.08529e-08
threshold=0.83478903887067168
decision_type=2
left_child=-1
right_child=-2
leaf_value=-1.661142853413678e-06 2.700895221602524e-07
leaf_weight=142.76524744927883 15.494829595088957
leaf_count=1196 105
internal_value=-1.47206e-06
internal_weight=158.26
internal_count=1301
is_linear=0
shrinkage=0.05


Tree=153
num_leaves=2
num_cat=0
split_feature=4
split_gain=1.88248e-08
threshold=0.83478903887067168
decision_type=2
left_child=-1
right_child=-2
leaf_value=-1.5782420769889245e-06 2.5667395017387582e-07
leaf_weight=142.76507640630007 15.494832724332808
leaf_count=1196 105
internal_value=-1.39859e-06
internal_weight=158.26
internal_count=1301
is_linear=0
shrinkage=0.05


Tree=154
num_leaves=2
num_cat=0
split_feature=4
split_gain=1.69856e-08
threshold=0.83478903887067168
decision_type=2
left_child=-1
right_child=-2
leaf_value=-1.499863078088149e-06 2.4311415110012833e-07
leaf_weight=142.7649142369628 15.494834557175635
leaf_count=1196 105
internal_value=-1.32921e-06
internal_weight=158.26
internal_count=1301
is_linear=0
shrinkage=0.05


Tree=155
num_leaves=2
num_cat=0
split_feature=4
split_gain=1.53313e-08
threshold=0.83478903887067168
decision_type=2
left_child=-1
right_child=-2
leaf_value=-1.4245446434449285e-06 2.3138154254067421e-07
leaf_weight=142.76475939154625 15.494837418198584
leaf_count=1196 105
internal_value=-1.26242e-06
internal_weight=158.26
internal_count=1301
is_linear=0
shrinkage=0.05


Tree=156
num_leaves=2
num_cat=0
split_feature=4
split_gain=1.38583e-08
threshold=0.83478903887067168
decision_type=2
left_child=-1
right_child=-2
leaf_value=-1.3529365084900597e-06 2.2142807093999543e-07
leaf_weight=142.76461451500654 15.494839251041411
leaf_count=1196 105
internal_value=-1.19879e-06
internal_weight=158.259
internal_count=1301
is_linear=0
shrinkage=0.05


Tree=157
num_leaves=2
num_cat=0
split_feature=4
split_gain=1.24952e-08
threshold=0.83478903887067168
decision_type=2
left_child=-1
right_child=-2
leaf_value=-1.2858163320060461e-06 2.0911845878566859e-07
leaf_weight=142.76447599381208 15.49484211206436
leaf_count=1196 105
internal_value=-1.13945e-06
internal_weight=158.259
internal_count=1301
is_linear=0
shrinkage=0.05


Tree=158
num_leaves=2
num_cat=0
split_feature=4
split_gain=1.13036e-08
threshold=0.83478903887067168
decision_type=2
left_child=-1
right_child=-2
leaf_value=-1.2216002322989036e-06 2.0027093074652854e-07
leaf_weight=142.76434370875359 15.494843944907187
leaf_count=1196 105
internal_value=-1.08239e-06
internal_weight=158.259
internal_count=1301
is_linear=0
shrinkage=0.05


Tree=159
num_leaves=2
num_cat=0
split_feature=4
split_gain=1.01645e-08
threshold=0.83478903887067168
decision_type=2
left_child=-1
right_child=-2
leaf_value=-1.1597846158453811e-06 1.8853835298049471e-07
leaf_weight=142.76421713083982 15.494845509529112
leaf_count=1196 105
internal_value=-1.02777e-06
internal_weight=158.259
internal_count=1301
is_linear=0
shrinkage=0.05


Tree=160
num_leaves=2
num_cat=0
split_feature=4
split_gain=9.19581e-09
threshold=0.83478903887067168
decision_type=2
left_child=-1
right_child=-2
leaf_value=-1.1027753456651143e-06 1.7969083052530629e-07
leaf_weight=142.76409886777401 15.49484723806381
leaf_count=1196 105
internal_value=-9.77211e-07
internal_weight=158.259
internal_count=1301
is_linear=0
shrinkage=0.05


Tree=161
num_leaves=2
num_cat=0
split_feature=4
split_gain=8.23596e-09
threshold=0.83478903887067168
decision_type=2
left_child=-1
right_child=-2
leaf_value=-1.0459251229642056e-06 1.677659203629111e-07
leaf_weight=142.7639849409461 15.494848802685736
leaf_count=1196 105
internal_value=-9.27095e-07
internal_weight=158.259
internal_count=1301
is_linear=0
shrinkage=0.05


Tree=162
num_leaves=2
num_cat=0
split_feature=4
split_gain=7.48119e-09
threshold=0.83478903887067168
decision_type=2
left_child=-1
right_child=-2
leaf_value=-9.9460149778396457e-07 1.6214004767567501e-07
leaf_weight=142.7638761177659 15.494850367307661
leaf_count=1196 105
internal_value=-8.81347e-07
internal_weight=158.259
internal_count=1301
is_linear=0
shrinkage=0.05


Tree=163
num_leaves=2
num_cat=0
split_feature=4
split_gain=6.74281e-09
threshold=0.83478903887067168
decision_type=2
left_child=-1
right_child=-2
leaf_value=-9.4488252297479587e-07 1.5329253256074999e-07
leaf_weight=142.76377602666616 15.494851931929587
leaf_count=1196 105
internal_value=-8.37362e-07
internal_weight=158.259
internal_count=1301
is_linear=0
shrinkage=0.05


Tree=164
num_leaves=2
num_cat=0
split_feature=4
split_gain=6.09058e-09
threshold=0.83478903887067168
decision_type=2
left_child=-1
right_child=-2
leaf_value=-8.9801555851001042e-07 1.4569520914607859e-07
leaf_weight=142.76367682218552 15.494853496551512
leaf_count=1196 105
internal_value=-7.95827e-07
internal_weight=158.259
internal_count=1301
is_linear=0
shrinkage=0.05


Tree=165
num_leaves=2
num_cat=0
split_feature=4
split_gain=5.50696e-09
threshold=0.83478903887067168
decision_type=2
left_child=-1
right_child=-2
leaf_value=-8.5218442857598729e-07 1.4026167728206502e-07
leaf_weight=142.76358381658792 15.494855061173437
leaf_count=1196 105
internal_value=-7.55015e-07
internal_weight=158.258
internal_count=1301
is_linear=0
shrinkage=0.05


Tree=166
num_leaves=2
num_cat=0
split_feature=4
split_gain=4.96727e-09
threshold=0.83478903887067168
decision_type=2
left_child=-1
right_child=-2
leaf_value=-8.1042649490504801e-07 1.3213543172028269e-07
leaf_weight=142.76349768787622 15.494856461882589
leaf_count=1196 105
internal_value=-7.18142e-07
internal_weight=158.258
internal_count=1301
is_linear=0
shrinkage=0.05


Tree=167
num_leaves=2
num_cat=0
split_feature=4
split_gain=4.46444e-09
threshold=0.83478903887067168
decision_type=2
left_child=-1
right_child=-2
leaf_value=-7.6918776542543803e-07 1.2439386002293116e-07
leaf_weight=142.76341509819031 15.494858026504515
leaf_count=1196 105
internal_value=-6.81698e-07
internal_weight=158.258
internal_count=1301
is_linear=0
shrinkage=0.05


Tree=168
num_leaves=2
num_cat=0
split_feature=4
split_gain=4.04908e-09
threshold=0.83478903887067168
decision_type=2
left_child=-1
right_child=-2
leaf_value=-7.3131772952009552e-07 1.1968159502628487e-07
leaf_weight=142.7633355781436 15.49485959112644
leaf_count=1196 105
internal_value=-6.47997e-07
internal_weight=158.258
internal_count=1301
is_linear=0
shrinkage=0.05


Tree=169
num_leaves=2
num_cat=0
split_feature=4
split_gain=3.66027e-09
threshold=0.83478903887067168
decision_type=2
left_child=-1
right_child=-2
leaf_value=-6.94525325967296e-07 1.1458465735191656e-07
leaf_weight=142.76325917243958 15.494861155748366
leaf_count=1196 105
internal_value=-6.15306e-07
internal_weight=158.258
internal_count=1301
is_linear=0
shrinkage=0.05


Tree=170
num_leaves=2
num_cat=0
split_feature=4
split_gain=3.30018e-09
threshold=0.83478903887067168
decision_type=2
left_child=-1
right_child=-2
leaf_value=-6.6090852080632442e-07 1.0737202566518194e-07
leaf_weight=142.76318832486868 15.494861319661139
leaf_count=1196 105
internal_value=-5.85687e-07
internal_weight=158.258
internal_count=1301
is_linear=0
shrinkage=0.05


Tree=171
num_leaves=2
num_cat=0
split_feature=4
split_gain=2.96932e-09
threshold=0.83478903887067168
decision_type=2
left_child=-1
right_child=-2
leaf_value=-6.2662105377676637e-07 1.0213083828785305e-07
leaf_weight=142.763119161129 15.494862720370291
leaf_count=1196 105
internal_value=-5.5527e-07
internal_weight=158.258
internal_count=1301
is_linear=0
shrinkage=0.05


Tree=172
num_leaves=2
num_cat=0
split_feature=4
split_gain=2.68572e-09
threshold=0.83478903887067168
decision_type=2
left_child=-1
right_child=-2
leaf_value=-5.9508125202637978e-07 9.7995587294286454e-08
leaf_weight=142.76305545866489 15.494864284992216
leaf_count=1196 105
internal_value=-5.27223e-07
internal_weight=158.258
internal_count=1301
is_linear=0
shrinkage=0.05


Tree=173
num_leaves=2
num_cat=0
split_feature=4
split_gain=2.42798e-09
threshold=0.83478903887067168
decision_type=2
left_child=-1
right_child=-2
leaf_value=-5.6627607836874322e-07 9.2706324977785036e-08
leaf_weight=142.76299655437469 15.494864448904989
leaf_count=1196 105
internal_value=-5.01756e-07
internal_weight=158.258
internal_count=1301
is_linear=0
shrinkage=0.05


Tree=174
num_leaves=2
num_cat=0
split_feature=4
split_gain=2.18047e-09
threshold=0.83478903887067168
decision_type=2
left_child=-1
right_child=-2
leaf_value=-5.3842071064355177e-07 8.6070698500598914e-08
leaf_weight=142.76293781399727 15.494865849614142
leaf_count=1196 105
internal_value=-4.77277e-07
internal_weight=158.258
internal_count=1301
is_linear=0
shrinkage=0.05


Tree=175
num_leaves=2
num_cat=0
split_feature=4
split_gain=1.9688e-09
threshold=0.83478903887067168
decision_type=2
left_child=-1
right_child=-2
leaf_value=-5.1147078308702924e-07 8.1935457370685641e-08
leaf_weight=142.76288113743067 15.494866013526915
leaf_count=1196 105
internal_value=-4.53371e-07
internal_weight=158.258
internal_count=1301
is_linear=0
shrinkage=0.05


Tree=176
num_leaves=2
num_cat=0
split_feature=4
split_gain=1.77589e-09
threshold=0.83478903887067168
decision_type=2
left_child=-1
right_child=-2
leaf_value=-4.8506358221519682e-07 7.8521472882034741e-08
leaf_weight=142.76282814890146 15.494867414236067
leaf_count=1196 105
internal_value=-4.29883e-07
internal_weight=158.258
internal_count=1301
is_linear=0
shrinkage=0.05


Tree=177
num_leaves=2
num_cat=0
split_feature=4
split_gain=1.61737e-09
threshold=0.83478903887067168
decision_type=2
left_child=-1
right_child=-2
leaf_value=-4.6158152255792721e-07 7.6261515415499372e-08
leaf_weight=142.7627772539854 15.49486757814884
leaf_count=1196 105
internal_value=-4.08922e-07
internal_weight=158.258
internal_count=1301
is_linear=0
shrinkage=0.05


Tree=178
num_leaves=2
num_cat=0
split_feature=4
split_gain=1.45257e-09
threshold=0.83478903887067168
decision_type=2
left_child=-1
right_child=-2
leaf_value=-4.3758015291706108e-07 7.212626909356047e-08
leaf_weight=142.76273193955421 15.494868978857992
leaf_count=1196 105
internal_value=-3.87675e-07
internal_weight=158.258
internal_count=1301
is_linear=0
shrinkage=0.05


Tree=179
num_leaves=2
num_cat=0
split_feature=4
split_gain=1.3117e-09
threshold=0.83478903887067168
decision_type=2
left_child=-1
right_child=-2
leaf_value=-4.1636824659077685e-07 6.7991028946285249e-08
leaf_weight=142.76268681883812 15.494869142770765
leaf_count=1196 105
internal_value=-3.68945e-07
internal_weight=158.258
internal_count=1301
is_linear=0
shrinkage=0.05


Tree=180
num_leaves=2
num_cat=0
split_feature=4
split_gain=1.1789e-09
threshold=0.83478903887067168
decision_type=2
left_child=-1
right_child=-2
leaf_value=-3.9480143578793861e-07 6.4384709709491188e-08
leaf_weight=142.76264483481646 15.494870543479918
leaf_count=1196 105
internal_value=-3.49843e-07
internal_weight=158.258
internal_count=1301
is_linear=0
shrinkage=0.05


Tree=181
num_leaves=2
num_cat=0
split_feature=4
split_gain=1.06429e-09
threshold=0.83478903887067168
decision_type=2
left_child=-1
right_child=-2
leaf_value=-3.7532476914195636e-07 6.0970733317128336e-08
leaf_weight=142.76260157674551 15.494870543479918
leaf_count=1196 105
internal_value=-3.32607e-07
internal_weight=158.257
internal_count=1301
is_linear=0
shrinkage=0.05


Tree=182
num_leaves=2
num_cat=0
split_feature=4
split_gain=9.55426e-10
threshold=0.83478903887067168
decision_type=2
left_child=-1
right_child=-2
leaf_value=-3.5712147541126585e-07 5.6258482643194007e-08
leaf_weight=142.76256533712149 15.494870975613592
leaf_count=1196 105
internal_value=-3.16648e-07
internal_weight=158.257
internal_count=1301
is_linear=0
shrinkage=0.05


Tree=183
num_leaves=2
num_cat=0
split_feature=4
split_gain=8.69458e-10
threshold=0.83478903887067168
decision_type=2
left_child=-1
right_child=-2
leaf_value=-3.3866245506986677e-07 5.568146849515826e-08
leaf_weight=142.76252618432045 15.494872108101843
leaf_count=1196 105
internal_value=-3.00053e-07
internal_weight=158.257
internal_count=1301
is_linear=0
shrinkage=0.05


Tree=184
num_leaves=2
num_cat=0
split_feature=4
split_gain=7.81e-10
threshold=0.83478903887067168
decision_type=2
left_child=-1
right_child=-2
leaf_value=-3.2219962965580519e-07 5.1546229356970906e-08
leaf_weight=142.76249171793461 15.494872272014616
leaf_count=1196 105
internal_value=-2.85606e-07
internal_weight=158.257
internal_count=1301
is_linear=0
shrinkage=0.05


Tree=185
num_leaves=2
num_cat=0
split_feature=4
split_gain=7.10153e-10
threshold=0.83478903887067168
decision_type=2
left_child=-1
right_child=-2
leaf_value=-3.0595076332654001e-07 5.0440292592779856e-08
leaf_weight=142.76246026158333 15.494872540235518
leaf_count=1196 105
internal_value=-2.71057e-07
internal_weight=158.257
internal_count=1301
is_linear=0
shrinkage=0.05


Tree=186
num_leaves=2
num_cat=0
split_feature=4
split_gain=6.44415e-10
threshold=0.83478903887067168
decision_type=2
left_child=-1
right_child=-2
leaf_value=-2.9208430787449843e-07 4.7410986521941281e-08
leaf_weight=142.76242613047361 15.494873672723768
leaf_count=1196 105
internal_value=-2.58845e-07
internal_weight=158.257
internal_count=1301
is_linear=0
shrinkage=0.05


Tree=187
num_leaves=2
num_cat=0
split_feature=4
split_gain=5.72671e-10
threshold=0.83478903887067168
decision_type=2
left_child=-1
right_child=-2
leaf_value=-2.7623466490355451e-07 4.3804674159724655e-08
leaf_weight=142.76239773631096 15.494873672723768
leaf_count=1196 105
internal_value=-2.449e-07
internal_weight=158.257
internal_count=1301
is_linear=0
shrinkage=0.05


Tree=188
num_leaves=2
num_cat=0
split_feature=4
split_gain=5.17677e-10
threshold=0.83478903887067168
decision_type=2
left_child=-1
right_child=-2
leaf_value=-2.6144183649701276e-07 4.2842989668293314e-08
leaf_weight=142.76236936450005 15.494874104857443
leaf_count=1196 105
internal_value=-2.31649e-07
internal_weight=158.257
internal_count=1301
is_linear=0
shrinkage=0.05


Tree=189
num_leaves=2
num_cat=0
split_feature=4
split_gain=4.66438e-10
threshold=0.83478903887067168
decision_type=2
left_child=-1
right_child=-2
leaf_value=-2.4974118133850185e-07 3.909242205900268e-08
leaf_weight=142.76234167069197 15.494875237345694
leaf_count=1196 105
internal_value=-2.21462e-07
internal_weight=158.257
internal_count=1301
is_linear=0
shrinkage=0.05


Tree=190
num_leaves=2
num_cat=0
split_feature=4
split_gain=4.23093e-10
threshold=0.83478903887067168
decision_type=2
left_child=-1
right_child=-2
leaf_value=-2.3637830767838586e-07 3.8707748779209296e-08
leaf_weight=142.76231617480516 15.494875237345694
leaf_count=1196 105
internal_value=-2.09445e-07
internal_weight=158.257
internal_count=1301
is_linear=0
shrinkage=0.05


Tree=191
num_leaves=2
num_cat=0
split_feature=4
split_gain=3.76696e-10
threshold=0.83478903887067168
decision_type=2
left_child=-1
right_child=-2
leaf_value=-2.2446366283688487e-07 3.5101436781146315e-08
leaf_weight=142.76229275763035 15.494875237345694
leaf_count=1196 105
internal_value=-1.9905e-07
internal_weight=158.257
internal_count=1301
is_linear=0
shrinkage=0.05


Tree=192
num_leaves=2
num_cat=0
split_feature=4
split_gain=3.40711e-10
threshold=0.83478903887067168
decision_type=2
left_child=-1
right_child=-2
leaf_value=-2.1247595013995632e-07 3.4380173422711501e-08
leaf_weight=142.7622691616416 15.494875669479368
leaf_count=1196 105
internal_value=-1.88306e-07
internal_weight=158.257
internal_count=1301
is_linear=0
shrinkage=0.05


Tree=193
num_leaves=2
num_cat=0
split_feature=4
split_gain=3.14654e-10
threshold=0.83478903887067168
decision_type=2
left_child=-1
right_child=-2
leaf_value=-2.0323335616771234e-07 3.3995497668985944e-08
leaf_weight=142.76224881410599 15.494876801967619
leaf_count=1196 105
internal_value=-1.80006e-07
internal_weight=158.257
internal_count=1301
is_linear=0
shrinkage=0.05


Tree=194
num_leaves=2
num_cat=0
split_feature=4
split_gain=2.78665e-10
threshold=0.83478903887067168
decision_type=2
left_child=-1
right_child=-2
leaf_value=-1.9228418835655891e-07 3.0966195896502054e-08
leaf_weight=142.76222806423903 15.494876801967619
leaf_count=1196 105
internal_value=-1.70426e-07
internal_weight=158.257
internal_count=1301
is_linear=0
shrinkage=0.05


Tree=195
num_leaves=2
num_cat=0
split_feature=4
split_gain=2.51687e-10
threshold=0.83478903887067168
decision_type=2
left_child=-1
right_child=-2
leaf_value=-1.823083384582078e-07 2.9860260328769837e-08
leaf_weight=142.76220654696226 15.494876801967619
leaf_count=1196 105
internal_value=-1.61535e-07
internal_weight=158.257
internal_count=1301
is_linear=0
shrinkage=0.05


Tree=196
num_leaves=2
num_cat=0
split_feature=4
split_gain=2.30153e-10
threshold=0.83478903887067168
decision_type=2
left_child=-1
right_child=-2
leaf_value=-1.7360588669982133e-07 2.9283250157571056e-08
leaf_weight=142.76218869537115 15.494876965880392
leaf_count=1196 105
internal_value=-1.53741e-07
internal_weight=158.257
internal_count=1301
is_linear=0
shrinkage=0.05


Tree=197
num_leaves=2
num_cat=0
split_feature=4
split_gain=2.09763e-10
threshold=0.83478903887067168
decision_type=2
left_child=-1
right_child=-2
leaf_value=-1.6441024867907783e-07 2.9283249650669344e-08
leaf_weight=142.76217111200094 15.494877234101294
leaf_count=1196 105
internal_value=-1.45446e-07
internal_weight=158.257
internal_count=1301
is_linear=0
shrinkage=0.05


Tree=198
num_leaves=2
num_cat=0
split_feature=4
split_gain=1.84874e-10
threshold=0.83478903887067168
decision_type=2
left_child=-1
right_child=-2
leaf_value=-1.566915497132309e-07 2.5148012425780078e-08
leaf_weight=142.76215421408415 15.494877234101294
leaf_count=1196 105
internal_value=-1.38888e-07
internal_weight=158.257
internal_count=1301
is_linear=0
shrinkage=0.05


Tree=199
num_leaves=2
num_cat=0
split_feature=4
split_gain=1.7129e-10
threshold=0.83478903887067168
decision_type=2
left_child=-1
right_child=-2
leaf_value=-1.498835424472069e-07 2.5148010587764452e-08
leaf_weight=142.76213783025742 15.494878366589544
leaf_count=1196 105
internal_value=-1.32746e-07
internal_weight=158.257
internal_count=1301
is_linear=0
shrinkage=0.05


end of trees

feature_importances:
check_fit=234
text_similarity=187

parameters:
[boosting: gbdt]
[objective: binary]
[metric: auc]
[tree_learner: serial]
[device_type: cpu]
[data_sample_strategy: bagging]
[data: ]
[valid: ]
[num_iterations: 200]
[learning_rate: 0.05]
[num_leaves: 31]
[num_threads: 0]
[seed: 0]
[deterministic: 0]
