tree
version=v4
num_class=1
num_tree_per_iteration=1
label_index=0
max_feature_idx=4
objective=binary sigmoid:1
feature_names=text_similarity industry_overlap stage_fit place_fit check_fit
monotone_constraints=1 1 1 1 1
feature_infos=[-0.078536167740821838:0.63349950313568115] [0:1] [0:1] [0:1] [7.6922781066226666e-06:1]
tree_sizes=1585 1654 1649 1656 1557 1216 1998 1555 1554 1218 1564 2005 1564 1223 1784 1891 1226 1892 1457 1225 1893 1460 1896 1460 1678 1234 1455 1461 1460 1572 1463 1571 1464 1470 1461 1467 1351 1462 1358 1470 1017 1470 1019 1469 1250 1359 1023 1244 1253 1239 1254 1238 1252 1023 1242 1254 1243 1259 1127 1031 1131 1150 1129 815 817 705 818 704 818 1014 706 711 705 704 1018 710 709 709 696 698 710 906 591 707 588 595 585 597 587 597 591 597 591 909 599 591 597 593 599 593 597 917 602 921 599 926 601 927 599 595 602 925 600 595 598 595 600 594 598 927 600 596 601 596 600 693 488 812 487 487 488 813 604 604 602 605 602 605 816 712 713 486 489 490 489 490 489 490 489 489 485 488 486 489 488 488 489 485 714 488 484 489 484 488 486 488 486 485 484 483 483 485 485 487 485 489 485 488 486 488 485 488 486 488 483 489 487 488 487 488 487 484 488 488 486 489 487 488 485 374

Tree=0
num_leaves=14
num_cat=0
split_feature=1 4 0 4 0 0 4 2 0 0 0 0 1
split_gain=144.477 5.42029 3.54838 4.18897 1.57615 1.2211 0.596164 0.562006 0.498892 0.213685 0.196063 0.172385 0.0713017
threshold=0.75000000000000011 0.44142890280677344 0.32162870466709143 0.00056184078609067614 0.1797473877668381 0.19483071565628055 0.1090161636924227 1.0000000180025095e-35 -0.031654927879571908 0.3796710073947907 0.041949767619371421 0.2756995707750321 0.22500000000000003
decision_type=2 2 2 2 2 2 2 2 2 2 2 2 2
left_child=1 2 3 -1 -3 7 -4 8 -5 -8 -9 12 -7
right_child=-2 4 6 5 -6 11 9 10 -10 -11 -12 -13 -14
leaf_value=-1.7205130638998749 -1.4180942003732102 -1.6475154071865421 -1.66786788737042 -1.6968125260059357 -1.5995455184892091 -1.6719932617573887 -1.662551469366697 -1.6748260804969004 -1.6760938274124242 -1.6566013955751888 -1.6730037769419883 -1.6689588356930585 -1.6703537392888161
leaf_weight=4.7946744561195365 5.5937868654727927 4.7946744561195365 3.8623766452074042 2.9300788342952719 2.6637080311775208 248.52395930886269 34.361833602190018 45.549407333135605 346.41522945463657 26.90345111489296 281.95349510014057 70.987819030880928 3.196449637413024
leaf_count=36 42 36 29 22 20 1866 258 342 2601 202 2117 533 24
internal_value=-1.67154 -1.67286 -1.67316 -1.67389 -1.63038 -1.67367 -1.66185 -1.67487 -1.67627 -1.65994 -1.67338 -1.67113 -1.67175
internal_weight=1082.53 1076.94 1069.48 1004.35 7.45838 999.556 65.1277 676.848 349.345 61.2653 327.503 322.708 251.72
internal_count=8128 8086 8030 7541 56 7505 489 5082 2623 460 2459 2423 1890
is_linear=0
shrinkage=1


Tree=1
num_leaves=14
num_cat=0
split_feature=1 4 0 4 0 0 4 2 0 0 0 0 1
split_gain=109.731 4.75861 3.14652 3.92962 1.29141 1.11322 0.557526 0.508512 0.461531 0.188065 0.184775 0.153956 0.0674772
threshold=0.75000000000000011 0.44142890280677344 0.32162870466709143 0.00056184078609067614 0.1797473877668381 0.19483071565628055 0.1090161636924227 1.0000000180025095e-35 -0.031654927879571908 0.3796710073947907 0.041949767619371421 0.2756995707750321 0.22500000000000003
decision_type=2 2 2 2 2 2 2 2 2 2 2 2 2
left_child=1 2 3 -1 -3 7 -4 8 -5 -8 -9 12 -7
right_child=-2 4 6 5 -6 11 9 10 -10 -11 -12 -13 -14
leaf_value=-0.04816208987861454 0.20336701368430307 0.022446797248761627 0.0034185032859533216 -0.024437001605790286 0.065074060563491354 -0.00042744393777571299 0.0084887638563732916 -0.0031302139872058142 -0.0043366795780955354 0.014047349518719582 -0.0013881900148236988 0.0024509470304318777 0.0011335790904468609
leaf_weight=4.6353710889816275 6.5919386744499198 4.8736993074417105 3.8720862567424765 2.8796589374542227 2.7961194515228271 248.44757741689682 34.573319524526596 45.447254061698914 345.33845691382885 27.178836166858673 281.67210693657398 71.113291785120964 3.1990499496459952
leaf_count=36 42 36 29 22 20 1866 258 342 2601 202 2117 533 24
internal_value=-1.01905e-05 -0.00125612 -0.00153785 -0.00223202 0.037987 -0.00201871 0.00906902 -0.0031731 -0.0045029 0.0109353 -0.00175752 0.000396719 -0.000183789
internal_weight=1082.62 1076.03 1068.36 1002.73 7.66982 998.097 65.6242 675.337 348.218 61.7522 327.119 322.76 251.647
internal_count=8128 8086 8030 7541 56 7505 489 5082 2623 460 2459 2423 1890
is_linear=0
shrinkage=0.05


Tree=2
num_leaves=14
num_cat=0
split_feature=1 4 0 4 0 0 4 2 0 0 0 0 1
split_gain=87.5707 4.18949 2.78921 3.68616 1.07014 1.01501 0.521838 0.459861 0.426683 0.174199 0.16579 0.137441 0.0638691
threshold=0.75000000000000011 0.44142890280677344 0.32162870466709143 0.00056184078609067614 0.1797473877668381 0.19483071565628055 0.1090161636924227 1.0000000180025095e-35 -0.031654927879571908 0.041949767619371421 0.3796710073947907 0.2756995707750321 0.22500000000000003
decision_type=2 2 2 2 2 2 2 2 2 2 2 2 2
left_child=1 2 3 -1 -3 7 -4 8 -5 -9 -8 12 -7
right_child=-2 4 6 5 -6 11 10 9 -10 -11 -12 -13 -14
leaf_value=-0.04737010548860577 0.17125068925020726 0.020995821917443536 0.0031792229028432743 -0.023622337375365648 0.059174264968364934 -0.00040619587650652191 0.0080166849901347551 -0.0029846620616144725 -0.0041324309762974607 -0.0013193383078628045 0.01321522139418542 0.0023244070484174434 0.001080473488092495
leaf_weight=4.4811572134494773 7.412420153617858 4.9480007886886588 3.8811260610818854 2.8312741816043845 2.9178157448768616 248.37497708201408 34.773475706577301 45.349931985139847 344.31358122825623 281.40472508966923 27.438800811767578 71.232355087995529 3.2015279531478873
leaf_count=36 42 36 29 22 20 1866 258 342 2601 2117 202 533 24
internal_value=-1.78398e-05 -0.00119862 -0.00146657 -0.0021233 0.0351581 -0.00191988 0.00848175 -0.0030242 -0.00429139 -0.00167794 0.0103095 0.000385523 -0.00016346
internal_weight=1082.56 1075.15 1067.28 1001.19 7.86582 996.708 66.0934 673.9 347.145 326.755 62.2123 322.809 251.577
internal_count=8128 8086 8030 7541 56 7505 489 5082 2623 2459 460 2423 1890
is_linear=0
shrinkage=0.05


Tree=3
num_leaves=14
num_cat=0
split_feature=1 4 0 4 0 0 4 2 0 0 0 0 1
split_gain=72.1125 3.69747 2.47144 3.45747 0.925624 0.895354 0.488825 0.415637 0.394201 0.164286 0.146377 0.122642 0.0604637
threshold=0.75000000000000011 0.44142890280677344 0.32162870466709143 0.00056184078609067614 0.19483071565628055 0.1797473877668381 0.1090161636924227 1.0000000180025095e-35 -0.031654927879571908 0.041949767619371421 0.3796710073947907 0.2756995707750321 0.22500000000000003
decision_type=2 2 2 2 2 2 2 2 2 2 2 2 2
left_child=1 2 3 -1 7 -3 -4 8 -5 -9 -8 12 -6
right_child=-2 5 6 4 11 -7 10 9 -10 -11 -12 -13 -14
leaf_value=-0.046591491816427348 0.14869268254143106 0.019660891120510268 0.0029562444017436876 -0.022825025761233894 -0.00038599536457052989 0.054082760277262366 0.0075734973525277069 -0.0028456936092281803 -0.0039372591741292156 -0.001253627974562511 0.012440215841011243 0.002204594414856968 0.0010302288578566477
leaf_weight=4.3320432901382437 8.0904622077941877 5.0178959369659406 3.8895410001277915 2.7848681807517996 248.30599147081375 3.0298230051994324 34.962936490774155 45.25721687078476 343.33823816478252 281.15071864426136 27.684278160333633 71.345350459218025 3.2038908004760733
leaf_count=36 42 36 29 22 1866 20 258 342 2601 2117 202 533 24
internal_value=-2.38749e-05 -0.00114384 -0.00139868 -0.0020197 -0.00182572 0.0326201 0.00793219 -0.00288215 -0.00408923 -0.00160216 0.00972414 0.000374892 -0.000144137
internal_weight=1082.39 1074.3 1066.26 999.718 995.386 8.04772 66.5368 672.531 346.123 326.408 62.6472 322.855 251.51
internal_count=8128 8086 8030 7541 7505 56 489 5082 2623 2459 460 2423 1890
is_linear=0
shrinkage=0.05


Tree=4
num_leaves=13
num_cat=0
split_feature=1 4 4 0 0 0 2 0 0 0 0 2
split_gain=60.6867 3.27022 2.23403 2.04473 0.755332 0.502599 0.375455 0.351388 0.341902 0.13579 0.0825039 0.0174762
threshold=0.75000000000000011 0.44142890280677344 0.00056184078609067614 0.2756995707750321 0.1797473877668381 0.19483071565628055 1.0000000180025095e-35 -0.031654927879571908 0.32162870466709143 0.041949767619371421 0.3796710073947907 1.0000000180025095e-35
decision_type=2 2 2 2 2 2 2 2 2 2 2 2
left_child=1 2 -1 5 -3 6 7 -4 -5 -8 -10 -7
right_child=-2 4 3 8 -6 11 9 -9 10 -11 -12 -13
leaf_value=-0.036136836239031703 0.13187781912971655 0.018429815961941483 -0.018660114520195826 0.0020911403088369807 0.049641416885076027 -0.00051278323748020743 -0.0027130405145692469 -0.003750802402804447 0.0055250535677827742 -0.0014362137823247941 0.0090755203421003256 0.00032319859133849956
leaf_weight=4.5911905020475379 8.6499797701835615 5.0836749672889692 2.7403835654258719 71.452587649226189 3.1330439448356628 135.04174165427685 45.168899774551392 342.41006349027157 37.561368137598038 280.90945668518543 28.991281390190125 116.40482850372791
leaf_count=39 42 36 22 533 20 1015 342 2601 276 2117 210 875
internal_value=-2.87879e-05 -0.00109167 -0.00133404 -0.00118339 0.0303308 -0.00203241 -0.00274665 -0.00389605 0.004493 -0.00153003 0.00707169 -0.000125773
internal_weight=1082.14 1073.49 1065.27 1060.68 8.21672 922.675 671.229 345.15 138.005 326.078 66.5526 251.447
internal_count=8128 8086 8030 7991 56 6972 5082 2623 1019 2459 486 1890
is_linear=0
shrinkage=0.05


Tree=5
num_leaves=10
num_cat=0
split_feature=1 4 4 0 0 0 0 0 0
split_gain=51.8867 2.89689 2.07698 1.84305 0.641778 0.454721 0.305653 0.300089 0.0733595
threshold=0.75000000000000011 0.44142890280677344 0.00056184078609067614 0.2756995707750321 0.1797473877668381 0.19483071565628055 0.32162870466709143 -0.031654927879571908 0.3796710073947907
decision_type=2 2 2 2 2 2 2 2 2
left_child=1 2 -1 5 -3 7 -5 -4 -8
right_child=-2 4 3 6 -6 -7 8 -9 -10
leaf_value=-0.035273093934573889 0.11880154626041949 0.017292049866446953 -0.011945533400515559 0.0019836859695071354 0.045731560500107862 -0.00011949900323939661 0.0052287703995119589 -0.0024931561222337403 0.0085682690902178591
leaf_weight=4.471508100628852 9.1090317070484144 5.1456087827682477 8.5046627521514875 71.554376408457756 3.228277862071991 251.42495080828667 37.701553791761398 661.44442147016525 29.167546629905701
leaf_count=39 42 36 66 533 20 1890 276 5016 210
internal_value=-2.83586e-05 -0.00103748 -0.00126797 -0.00112449 0.028256 -0.00193268 0.00425498 -0.00261315 0.00668542
internal_weight=1081.75 1072.64 1064.27 1059.8 8.37389 921.374 138.423 669.949 66.8691
internal_count=8128 8086 8030 7991 56 6972 1019 5082 486
is_linear=0
shrinkage=0.05


Tree=6
num_leaves=17
num_cat=0
split_feature=1 0 4 0 4 0 2 0 4 0 0 4 1 4 0 4
split_gain=44.9046 2.59895 2.95133 0.713947 0.508602 0.406165 0.373138 0.329446 0.284152 0.111818 0.0460349 0.0472794 0.0387831 0.0338983 0.0188499 0.0141205
threshold=0.75000000000000011 0.32162870466709143 0.00056184078609067614 0.19483071565628055 0.1090161636924227 0.3796710073947907 1.0000000180025095e-35 -0.031654927879571908 0.0070707990383767723 0.041949767619371421 0.2756995707750321 0.26275582382344626 0.22500000000000003 0.55464154191974757 0.39872649312019354 0.068443917250888386
decision_type=2 2 2 2 2 2 2 2 2 2 2 2 2 2 2 2
left_child=1 2 -1 6 -3 -6 7 -4 -9 -8 12 -12 -5 -10 -7 -11
right_child=-2 4 3 10 5 14 9 8 13 15 11 -13 -14 -15 -16 -17
leaf_value=-0.044641977717589924 0.1083022677317152 0.0033947328961943385 -0.020983682725191081 -8.8190778250892097e-05 0.0068007130194601834 0.012623647917385445 -0.0023482563465983359 -0.012186635932333094 -0.0033419338538533336 -0.001654447793203074 0.00086507286912810514 0.0023867813727297248 0.00086507286912810514 -0.0023482563465983359 0.015454102333639261 -0.00096063923980781228
leaf_weight=3.9726291596889487 9.4820682406425458 3.9086517989635459 2.6813026815652838 249.52606379985809 36.060885310173035 8.2501445561647433 45.259014487266541 5.6364624947309485 335.75889809429646 7.5431106984615317 4.9738958925008765 67.008714586496353 3.2048374563455573 4.3791366517543784 20.493548631668091 273.18888348340988
leaf_count=36 42 29 22 1874 262 59 344 43 2561 57 37 498 24 30 146 2064
internal_value=-2.83451e-05 -0.00098669 -0.00163107 -0.00146006 0.00842054 0.0102067 -0.00238745 -0.00352497 -0.00338959 -0.00117154 0.000466172 0.0015817 0.00014845 -0.00320004 0.0146417 -0.000960639
internal_weight=1081.33 1071.85 1003.13 999.16 68.7132 64.8046 674.447 348.456 345.774 325.991 324.714 71.9826 252.731 340.138 28.7437 280.732
internal_count=8128 8086 7590 7554 496 467 5121 2656 2634 2465 2433 535 1898 2591 205 2121
is_linear=0
shrinkage=0.05


Tree=7
num_leaves=13
num_cat=0
split_feature=1 4 4 0 0 0 2 0 0 0 0 2
split_gain=39.2359 2.56242 1.76746 1.44696 0.532488 0.373096 0.309934 0.291856 0.225163 0.112373 0.048892 0.0158187
threshold=0.75000000000000011 0.44142890280677344 0.00056184078609067614 0.2756995707750321 0.1797473877668381 0.19483071565628055 1.0000000180025095e-35 -0.031654927879571908 0.32162870466709143 0.041949767619371421 0.3796710073947907 1.0000000180025095e-35
decision_type=2 2 2 2 2 2 2 2 2 2 2 2
left_child=1 2 -1 5 -3 6 7 -4 -5 -8 -10 -7
right_child=-2 4 3 8 -6 11 9 -9 10 -11 -12 -13
leaf_value=-0.033430963296133064 0.099657436792319101 0.016374744366423232 -0.017231253458876977 0.0017650013093597626 0.042002853806278474 -0.00047808281593097037 -0.0023408065643707584 -0.003287830487321996 0.0045992658852767989 -0.0012397195493782905 0.0073092846501912169 0.00031733879436768677
leaf_weight=4.2261513322591773 9.7810487151145917 5.1963451206684095 2.6411845386028281 71.762153044342995 3.3229338824748993 134.97720389068127 44.897226512432098 340.12071143090725 38.001863479614258 279.9655836969614 29.611577317118645 116.41412062942982
leaf_count=39 42 36 22 533 20 1015 342 2601 276 2117 210 875
internal_value=-3.11269e-05 -0.000941429 -0.0011604 -0.00103154 0.026371 -0.0017515 -0.0023697 -0.0034185 0.00371572 -0.00126312 0.00578613 -0.00010974
internal_weight=1080.92 1071.14 1062.62 1058.39 8.51928 919.016 667.625 342.762 139.376 324.863 67.6134 251.391
internal_count=8128 8086 8030 7991 56 6972 5082 2623 1019 2459 486 1890
is_linear=0
shrinkage=0.05


Tree=8
num_leaves=13
num_cat=0
split_feature=1 4 4 0 0 0 2 0 0 0 0 2
split_gain=34.5423 2.27667 1.64098 1.30408 0.457873 0.336971 0.283169 0.273493 0.201645 0.105933 0.0436028 0.0142792
threshold=0.75000000000000011 0.44142890280677344 0.00056184078609067614 0.2756995707750321 0.1797473877668381 0.19483071565628055 1.0000000180025095e-35 -0.031654927879571908 0.32162870466709143 0.041949767619371421 0.3796710073947907 1.0000000180025095e-35
decision_type=2 2 2 2 2 2 2 2 2 2 2 2
left_child=1 2 -1 5 -3 6 7 -4 -5 -8 -10 -7
right_child=-2 4 3 8 -6 11 9 -9 10 -11 -12 -13
leaf_value=-0.032592982975260809 0.092392828016202966 0.01538757041733224 -0.016786101165269057 0.0016746928511074139 0.038930341721313134 -0.00045432945366066498 -0.0022256506920779267 -0.0031307274547433353 0.0043555122568152277 -0.0011784164479752288 0.006909562567650413 0.00030140920717169938
leaf_weight=4.1207764148712149 10.016081213951109 5.2517526447772962 2.6084832847118369 71.84821380674839 3.4037510454654694 134.93306802213192 44.824826896190643 339.34880581498146 38.119082272052765 279.72744561731815 29.754604414105415 116.43938933312893
leaf_count=39 42 36 22 533 20 1015 342 2601 276 2117 210 875
internal_value=-2.8878e-05 -0.000893714 -0.00110192 -0.000979219 0.0246457 -0.00166423 -0.00225257 -0.0032566 0.00352087 -0.0011947 0.00547516 -0.00010426
internal_weight=1080.4 1070.38 1061.72 1057.6 8.6555 917.882 666.51 341.957 139.722 324.552 67.8737 251.372
internal_count=8128 8086 8030 7991 56 6972 5082 2623 1019 2459 486 1890
is_linear=0
shrinkage=0.05


Tree=9
num_leaves=10
num_cat=0
split_feature=1 4 4 0 0 0 0 0 0
split_gain=30.5999 2.02539 1.5228 1.1753 0.395592 0.304252 0.235973 0.180661 0.0389126
threshold=0.75000000000000011 0.44142890280677344 0.00056184078609067614 0.2756995707750321 0.1797473877668381 0.19483071565628055 -0.031654927879571908 0.32162870466709143 0.3796710073947907
decision_type=2 2 2 2 2 2 2 2 2
left_child=1 2 -1 5 -3 6 -4 -5 -9
right_child=-2 4 3 7 -6 -7 -8 8 -10
leaf_value=-0.031762805574743362 0.08618365746140727 0.014470462430005229 -0.010517707523492547 0.0015891048238680879 0.036167672639940959 -9.9057522402182639e-05 -0.0020350779438702842 0.0041253938376752753 0.0065335621912164842
leaf_weight=4.0196571350097647 10.195823729038237 5.3039800226688367 8.3022263795137388 71.929906293749809 3.4785458147525787 251.35450373589993 657.14636290073395 38.230213344097137 29.890029072761536
leaf_count=39 42 36 66 533 20 1890 5016 276 210
internal_value=-2.6537e-05 -0.000848282 -0.00104624 -0.000929416 0.0230642 -0.00158111 -0.00214091 0.00333671 0.00518206
internal_weight=1079.85 1069.66 1060.87 1056.85 8.78253 916.803 665.449 140.05 68.1202
internal_count=8128 8086 8030 7991 56 6972 5082 1019 486
is_linear=0
shrinkage=0.05


Tree=10
num_leaves=13
num_cat=0
split_feature=1 4 4 0 0 0 2 0 0 0 0 2
split_gain=27.2482 1.80418 1.41227 1.06007 0.343223 0.275339 0.259952 0.244631 0.161927 0.0939386 0.0347496 0.0128903
threshold=0.75000000000000011 0.44142890280677344 0.00056184078609067614 0.2756995707750321 0.1797473877668381 0.19483071565628055 1.0000000180025095e-35 -0.031654927879571908 0.32162870466709143 0.041949767619371421 0.3796710073947907 1.0000000180025095e-35
decision_type=2 2 2 2 2 2 2 2 2 2 2 2
left_child=1 2 -1 5 -3 6 7 -4 -5 -8 -10 -7
right_child=-2 4 3 8 -6 11 9 -9 10 -11 -12 -13
leaf_value=-0.030940390897133626 0.080799759843367749 0.013617147250370649 -0.015912001692756774 0.0015079791593836734 0.033670639529220933 -0.00042682888593947632 -0.0020335239153845054 -0.0028831877691428637 0.0039080662304539337 -0.0010655388319781745 0.006179669904305885 0.00029125084158390999
leaf_weight=3.9226731061935416 10.327761411666868 5.3532278239727003 2.5571258068084708 72.007468774914742 3.5478293001651764 134.88197445869446 44.659622460603714 338.13763843476772 38.335585445165634 279.11050862073898 30.018274754285812 116.4555049687624
leaf_count=39 42 36 22 533 20 1015 342 2601 276 2117 210 875
internal_value=-2.57334e-05 -0.000806609 -0.000994833 -0.000883612 0.0216102 -0.00150376 -0.00203697 -0.00300151 0.0031626 -0.00106554 0.00490566 -9.41115e-05
internal_weight=1079.32 1068.99 1060.09 1056.16 8.90106 915.802 664.465 340.695 140.361 323.77 68.3539 251.337
internal_count=8128 8086 8030 7991 56 6972 5082 2623 1019 2459 486 1890
is_linear=0
shrinkage=0.05


Tree=11
num_leaves=17
num_cat=0
split_feature=1 0 4 0 4 0 2 4 0 0 4 0 1 4 0 4
split_gain=24.3668 1.64075 2.2814 0.428734 0.399797 0.303867 0.274643 0.274647 0.144622 0.0824266 0.0267082 0.0683177 0.0429095 0.0179106 0.0141195 0.0014651
threshold=0.75000000000000011 0.32162870466709143 0.00056184078609067614 0.19483071565628055 0.1090161636924227 0.3796710073947907 1.0000000180025095e-35 0.0070707990383767723 -0.031654927879571908 0.041949767619371421 0.33466666666666672 0.2756995707750321 0.22500000000000003 0.55464154191974757 0.39872649312019354 0.068443917250888386
decision_type=2 2 2 2 2 2 2 2 2 2 2 2 2 2 2 2
left_child=1 2 -1 6 -3 -6 7 -4 -9 -8 11 12 -5 -10 -7 -11
right_child=-2 4 3 10 5 14 9 8 13 15 -12 -13 -14 -15 -16 -17
leaf_value=-0.041704662181895627 0.076073331092266827 0.0026699888196171986 -0.013886045107595566 -0.00034247713726185053 0.005482803946049484 0.01034686987460017 -0.0018352194603924587 -0.0082770986417846758 -0.0026454545675387406 -0.0012976005727852102 0.0026699888196171986 0.0014810861537026658 0.00069045268111555082 -0.0018352194603924587 0.012763685805404795 -0.00075998168517796164
leaf_weight=3.4787631332874289 10.418401837348936 3.9318803623318663 5.545354261994361 247.3196674734354 36.688686430454254 8.4677783250808734 44.896841675043106 2.5274608731269828 332.39692033827305 7.5060307681560507 2.8714608997106543 71.81060728430748 3.2037465423345557 4.5595870912075034 21.106746435165405 272.0005167722702
leaf_count=36 42 29 43 1860 262 59 344 22 2561 57 18 531 24 30 146 2064
internal_value=-2.25331e-05 -0.000764636 -0.00128428 -0.00114291 0.00662426 0.00829562 -0.00186644 -0.00284845 -0.00266815 -0.000821991 0.000346475 0.000292183 -0.000100181 -0.00255265 0.0120717 -0.000759982
internal_weight=1078.73 1068.31 998.117 994.638 70.1951 66.2632 669.433 345.029 339.484 324.403 325.205 322.334 250.523 336.957 29.5745 279.507
internal_count=8128 8086 7590 7554 496 467 5121 2656 2613 2465 2433 2415 1884 2591 205 2121
is_linear=0
shrinkage=0.05


Tree=12
num_leaves=13
num_cat=0
split_feature=1 4 4 0 0 0 2 0 0 0 0 2
split_gain=21.87 1.59801 1.18844 0.824891 0.287318 0.227626 0.215117 0.221157 0.11533 0.0843947 0.0218611 0.0116735
threshold=0.75000000000000011 0.44142890280677344 0.00056184078609067614 0.2756995707750321 0.1797473877668381 0.19483071565628055 1.0000000180025095e-35 -0.031654927879571908 0.32162870466709143 0.041949767619371421 0.3796710073947907 1.0000000180025095e-35
decision_type=2 2 2 2 2 2 2 2 2 2 2 2
left_child=1 2 -1 5 -3 6 7 -4 -5 -8 -10 -7
right_child=-2 4 3 8 -6 11 9 -9 10 -11 -12 -13
leaf_value=-0.029123806067128451 0.071879073855854528 0.012924436895705937 -0.014964664746418119 0.0013553974761861085 0.031134686946133999 -0.00039019045697969378 -0.0018388770971160423 -0.0026084368331819969 0.0034250912386445814 -0.00095713179625648822 0.0052185460970631953 0.00029324352528613962
leaf_weight=3.7180284708738318 10.473428964614866 5.3936698138713819 2.5121083110570899 72.15366218984127 3.619719386100769 134.81394776701927 44.540286034345627 336.80035664141178 38.571185141801834 278.75754597783089 30.370247513055801 116.45234097540379
leaf_count=39 42 36 22 533 20 1015 342 2601 276 2117 210 875
internal_value=-2.12008e-05 -0.000726493 -0.000904975 -0.000805523 0.0202376 -0.00135489 -0.00184082 -0.00272062 0.00275272 -0.000957132 0.00421515 -7.34449e-05
internal_weight=1078.18 1067.7 1058.69 1054.97 9.01339 913.877 662.61 339.312 141.095 323.298 68.9414 251.266
internal_count=8128 8086 8030 7991 56 6972 5082 2623 1019 2459 486 1890
is_linear=0
shrinkage=0.05


Tree=13
num_leaves=10
num_cat=0
split_feature=1 4 4 0 0 0 0 0 0
split_gain=19.6885 1.42598 1.10045 0.743225 0.251126 0.215448 0.181883 0.103502 0.0195644
threshold=0.75000000000000011 0.44142890280677344 0.00056184078609067614 0.2756995707750321 0.1797473877668381 -0.031654927879571908 0.19483071565628055 0.32162870466709143 0.3796710073947907
decision_type=2 2 2 2 2 2 2 2 2
left_child=1 2 -1 5 -3 -4 -7 -5 -9
right_child=-2 4 3 7 -6 6 -8 8 -10
leaf_value=-0.028326896236568939 0.06812150870323011 0.012175853172230668 -0.0093812442770235954 0.0012864184463266628 0.029090695024807892 -0.001652643243275332 -6.9778452737937101e-05 0.0032462542997020423 0.0049404312544308309
leaf_weight=3.6336688846349707 10.497820794582365 5.437841594219206 8.1457131206989271 72.219899013638496 3.6787668466567993 653.58708681166172 251.25362722575665 38.658950597047806 30.473194912075996
leaf_count=39 42 36 66 533 20 5016 1890 276 210
internal_value=-1.8298e-05 -0.000688645 -0.000858315 -0.000763647 0.0190014 -0.00128599 -0.00121312 0.00261017 0.00399304
internal_weight=1077.59 1067.09 1057.97 1054.34 9.11661 912.986 904.841 141.352 69.1321
internal_count=8128 8086 8030 7991 56 6972 6906 1019 486
is_linear=0
shrinkage=0.05


Tree=14
num_leaves=15
num_cat=0
split_feature=1 4 4 0 0 0 2 0 0 2 0 0 0 0
split_gain=17.772 1.27381 1.01825 0.670492 0.220135 0.196169 0.174321 0.188824 0.092916 0.0808983 0.0774705 0.017517 0.0103941 0.00056889
threshold=0.75000000000000011 0.44142890280677344 0.00056184078609067614 0.2756995707750321 0.1797473877668381 -0.031654927879571908 1.0000000180025095e-35 0.19682161509990695 0.32162870466709143 1.0000000180025095e-35 0.041949767619371421 0.3796710073947907 0.19483071565628055 0.20679198205471042
decision_type=2 2 2 2 2 2 2 2 2 2 2 2 2 2
left_child=1 2 -1 5 -3 9 7 -7 -5 -4 -8 -10 -12 -14
right_child=-2 4 3 8 -6 6 10 -9 11 -11 12 -13 13 -15
leaf_value=-0.027538346847489362 0.064726641725605646 0.011476738407275543 -0.014132132257853737 0.0012210073681366564 0.027219553988670521 -0.002556742816096825 -0.0011249707595867063 -0.0011249707595867063 0.0030771432312694277 -0.0055155129544491735 -0.0002805500169397787 0.0046780351117769537 4.6623622896720373e-05 0.00033389931622433542
leaf_weight=3.5529139414429656 10.495945751667021 5.4795332252979261 2.4672662019729596 72.282784700393677 3.7336049228906631 341.11615931987762 38.778000771999359 129.45998837053776 38.742202162742615 5.6242812871932983 278.25726689398289 30.570753946900368 21.030897617340088 95.439241021871567
leaf_count=39 42 36 22 533 20 2641 298 975 276 44 2117 210 158 717
internal_value=-1.75568e-05 -0.000654715 -0.000816015 -0.000725918 0.0178565 -0.00122283 -0.00115346 -0.00181984 0.00247525 -0.00897341 -0.000430097 0.00378322 -0.000114554 0.000282026
internal_weight=1077.03 1066.53 1057.32 1053.77 9.21314 912.173 904.082 470.576 141.596 8.09155 433.505 69.313 394.727 116.47
internal_count=8128 8086 8030 7991 56 6972 6906 3616 1019 66 3290 486 2992 875
is_linear=0
shrinkage=0.05


Tree=15
num_leaves=16
num_cat=0
split_feature=1 0 4 1 4 0 0 2 4 0 0 4 4 0 1
split_gain=16.0765 1.13896 1.86125 0.357235 0.42543 0.294854 0.251354 0.213288 0.251474 0.121637 0.0641993 0.009778 0.00975983 0.0458015 0.0363115
threshold=0.75000000000000011 0.32162870466709143 0.00056184078609067614 0.22500000000000003 0.1090161636924227 0.19483071565628055 0.3796710073947907 1.0000000180025095e-35 0.0070707990383767723 -0.031654927879571908 0.041949767619371421 0.55464154191974757 0.33466666666666672 0.2756995707750321 0.22500000000000003
decision_type=2 2 2 2 2 2 2 2 2 2 2 2 2 2 2
left_child=1 2 -1 4 -3 7 -6 8 -4 -10 -9 -11 13 14 -7
right_child=-2 3 5 -5 6 12 -8 10 9 11 -12 -13 -14 -15 -16
leaf_value=-0.039458192493061067 0.06163621705375949 0.0022174093544561437 -0.013045589317713222 0.022460479599056893 0.0046328422875152805 -0.00029387427758922804 0.010545907684434953 -0.0015130135873935981 -0.007639891195054674 -0.0021926683785021498 -0.00061945882034253449 -0.0015130135873935981 0.0022174093544561437 0.0012438762640673976 0.00059619450872001878
leaf_weight=3.1454096138477317 10.471641540527342 3.834724783897399 5.4657398015260688 2.9720803499221793 35.631734982132912 247.15432468056679 28.70825083553791 44.656984329223633 2.441455513238906 330.23630799353123 278.81759668886662 4.6682853996753684 2.9587586820125571 72.070802673697472 3.2018555849790564
leaf_count=36 42 28 43 20 252 1860 196 344 22 2561 2121 30 18 531 24
internal_value=-1.4167e-05 -0.000619798 -0.00105688 0.00549169 0.00475194 -0.000935074 0.00704828 -0.00153758 -0.00240657 -0.00223419 -0.000619459 -0.00213148 0.000298658 0.000270343 -5.14872e-05
internal_weight=1076.44 1065.96 994.818 71.1468 68.1747 991.672 64.34 666.286 342.812 337.346 323.475 334.905 325.386 322.427 250.356
internal_count=8128 8086 7590 496 476 7554 448 5121 2656 2613 2465 2591 2433 2415 1884
is_linear=0
shrinkage=0.05


Tree=16
num_leaves=10
num_cat=0
split_feature=1 4 4 0 0 0 0 0 0
split_gain=14.5729 1.12518 0.848595 0.511443 0.182677 0.159284 0.157567 0.0624874 0.0101743
threshold=0.75000000000000011 0.44142890280677344 0.00056184078609067614 0.2756995707750321 0.1797473877668381 0.19483071565628055 -0.031654927879571908 0.32162870466709143 0.3796710073947907
decision_type=2 2 2 2 2 2 2 2 2
left_child=1 2 -1 5 -3 6 -4 -5 -9
right_child=-2 4 3 7 -6 -7 -8 8 -10
leaf_value=-0.025760867384651026 0.058803791447653547 0.01090546743377694 -0.0084709353234168616 0.001095645091659624 0.025159467868306629 -2.7451815840498828e-05 -0.0014214200709613705 0.0026547052352036641 0.0038699738916265765
leaf_weight=3.3789278119802466 10.428282737731932 5.5139139592647535 8.0242494940757734 72.403516843914986 3.7946631461381912 251.10788154602051 651.44694271683693 38.951134756207466 30.873642310500145
leaf_count=39 42 36 66 533 20 1890 5016 276 210
internal_value=-1.56624e-05 -0.000591344 -0.000743882 -0.000663591 0.0167161 -0.00109913 -0.0015072 0.00212484 0.00319205
internal_weight=1075.92 1065.49 1056.19 1052.81 9.30858 910.579 659.471 142.228 69.8248
internal_count=8128 8086 8030 7991 56 6972 5082 1019 486
is_linear=0
shrinkage=0.05


Tree=17
num_leaves=16
num_cat=0
split_feature=1 1 4 0 0 4 0 2 4 0 0 0 0 4 4
split_gain=13.2305 1.01625 1.93554 1.65562 0.47614 0.319796 0.169337 0.164804 0.751395 0.166101 0.106459 0.0484913 0.0106223 0.0296318 0.00434737
threshold=0.75000000000000011 0.29166666666666669 0.00056184078609067614 0.18587695062160495 0.32162870466709143 0.1090161636924227 0.19483071565628055 1.0000000180025095e-35 0.0070707990383767723 -0.031654927879571908 0.3796710073947907 0.041949767619371421 0.27425320446491247 0.26275582382344626 0.55464154191974757
decision_type=2 2 2 2 2 2 2 2 2 2 2 2 2 2 2
left_child=1 2 -1 -3 6 -6 7 8 -4 -10 -7 -9 -8 -14 -11
right_child=-2 3 4 -5 5 10 12 11 9 14 -12 -13 13 -15 -16
leaf_value=-0.039525132593445499 0.056191896889097703 0.0083977704714533596 -0.020050785571745042 0.027814871347805217 0.0012831380472605105 0.0035718021494478506 -7.994531916426451e-05 -0.0013553520487803487 -0.010922865964038603 -0.0017417380676414806 0.0076108136072081355 -0.00061881553412764727 0.00025757405643596815 0.0012831380472605105 -0.0013553520487803487
leaf_weight=3.1994380205869666 10.368835240602492 2.9573901295661917 5.2846131920814505 4.7822744026780128 3.6272168159484854 35.95219224691391 246.91027668118477 44.540933787822723 2.4122297018766394 326.06808106601238 29.867965921759605 278.4305816590786 5.025019720196723 71.25703102350235 4.6977859735488883
leaf_count=38 42 23 42 34 26 253 1855 344 22 2535 202 2121 37 524 30
internal_value=-1.49315e-05 -0.000562154 -0.000694302 0.0174898 -0.000576439 0.00342494 -0.000858662 -0.00131701 -0.00209189 -0.00179495 0.00540463 -0.000618816 7.93819e-05 0.000595093 -0.00169346
internal_weight=1075.38 1065.01 1057.27 7.73966 1054.07 69.4474 984.627 661.434 338.463 333.178 65.8202 322.972 323.192 76.2821 330.766
internal_count=8128 8086 8029 57 7991 481 7510 5094 2629 2587 455 2465 2416 561 2565
is_linear=0
shrinkage=0.05


Tree=18
num_leaves=12
num_cat=0
split_feature=1 4 4 0 0 0 2 0 0 0 0
split_gain=12.0312 0.995428 0.693217 0.398993 0.152078 0.149277 0.146922 0.158935 0.0868363 0.0224248 0.00655946
threshold=0.75000000000000011 0.44142890280677344 0.00056184078609067614 0.19483071565628055 0.1797473877668381 0.32162870466709143 1.0000000180025095e-35 -0.031654927879571908 0.041949767619371421 0.2756995707750321 0.3796710073947907
decision_type=2 2 2 2 2 2 2 2 2 2 2
left_child=1 2 -1 6 -3 9 7 -4 -8 -5 -7
right_child=-2 4 3 5 -6 10 8 -9 -10 -11 -12
leaf_value=-0.023884991873311931 0.053770013871200964 0.0103614822442086 -0.012249397885011212 -3.2181247205818596e-05 0.023295309898575953 0.0023037620229523592 -0.0013507397756024179 -0.0020034196680551743 -0.00036108983429601485 0.00096592090041672902 0.0032766136139352497
leaf_weight=3.2099281176924697 10.295907586812971 5.5469141602516157 2.3925367295742026 251.123894110322 3.8503964841365814 39.125689536333084 44.190928488969803 333.88149011135101 277.69408641755581 72.528684929013252 31.098558500409126
leaf_count=39 42 36 22 1890 20 276 342 2601 2117 533 210
internal_value=-2.01233e-05 -0.000540315 -0.000684592 -0.000613804 0.0156609 0.000644896 -0.00136708 -0.00209797 -0.000603513 0.000191488 0.00273459
internal_weight=1074.94 1064.64 1055.25 1052.04 9.39731 393.877 658.159 336.274 321.885 323.653 70.2242
internal_count=8128 8086 8030 7991 56 2909 5082 2623 2459 2423 486
is_linear=0
shrinkage=0.05


Tree=19
num_leaves=10
num_cat=0
split_feature=1 4 4 0 0 0 0 0 0
split_gain=10.9521 0.891344 0.639221 0.361613 0.134398 0.134364 0.131538 0.0202225 0.00588893
threshold=0.75000000000000011 0.44142890280677344 0.00056184078609067614 0.19483071565628055 0.32162870466709143 0.1797473877668381 -0.031654927879571908 0.2756995707750321 0.3796710073947907
decision_type=2 2 2 2 2 2 2 2 2
left_child=1 2 -1 6 7 -3 -4 -5 -6
right_child=-2 5 3 4 8 -7 -8 -9 -10
leaf_value=-0.02315088007863586 0.051513049282571791 0.0097789451213096592 -0.007706426527721604 -3.0573898590269448e-05 0.002185174139432203 0.021880716393735476 -0.001225014269318616 0.00091701414154005492 0.0031061153974361998
leaf_weight=3.1477367654442778 10.21179163455963 5.5825366675853711 7.9234911650419226 251.11837030947208 39.185011565685272 3.8932174146175385 649.6365691870451 72.575982481241226 31.163628920912743
leaf_count=39 42 36 66 1890 276 20 5016 533 210
internal_value=-2.10632e-05 -0.000515559 -0.000652713 -0.00058537 0.000612368 0.0147511 -0.00130311 0.000181886 0.00259314
internal_weight=1074.44 1064.23 1054.75 1051.6 394.043 9.47575 657.56 323.694 70.3486
internal_count=8128 8086 8030 7991 2909 56 5082 2423 486
is_linear=0
shrinkage=0.05


Tree=20
num_leaves=16
num_cat=0
split_feature=1 1 4 0 0 4 0 0 2 4 0 2 0 4 4
split_gain=9.97923 0.872404 1.66627 1.42325 0.338682 0.282805 0.139071 0.103011 0.131188 0.172231 0.090792 0.0688685 0.00632161 0.0259013 0.00256203
threshold=0.75000000000000011 0.29166666666666669 0.00056184078609067614 0.18587695062160495 0.32162870466709143 0.1090161636924227 -0.031654927879571908 0.19483071565628055 1.0000000180025095e-35 0.0070707990383767723 0.3796710073947907 1.0000000180025095e-35 0.27425320446491247 0.26275582382344626 0.55464154191974757
decision_type=2 2 2 2 2 2 2 2 2 2 2 2 2 2 2
left_child=1 2 -1 -3 6 -6 11 8 9 -8 -7 -4 -9 -14 -11
right_child=-2 3 4 -5 5 10 7 12 -10 14 -12 -13 13 -15 -16
leaf_value=-0.037948283718961917 0.049400219689838924 0.0077521444774720748 -0.014518489609791041 0.024455074830797938 0.0010535498430221902 0.0031171231447891805 -0.0040282360493852842 -8.6980610111702381e-05 -0.00050975396327980732 -0.0015013433213472269 0.0068332198335119242 -0.0043093303163606851 0.00017318493486048601 0.0010535498430221902 -0.0011340602918674782
leaf_weight=2.9801028072834006 10.118498861789702 2.9680530428886405 2.3568150550127021 4.8809308260679245 3.6425573825836173 36.15360900759697 5.198266088962554 246.91951170563698 316.89166669547558 324.94884988665581 30.138794705271721 5.5228474736213684 5.0322913825511923 71.411817073822021 4.7561403810977927
leaf_count=38 42 23 22 34 26 253 42 1855 2421 2535 202 44 37 524 30
internal_value=-2.00029e-05 -0.00049007 -0.000613518 0.0161178 -0.000507854 0.00285413 -0.000747031 -0.000693572 -0.00105554 -0.00175837 0.00480659 -0.0073629 3.60272e-05 0.00043335 -0.00147099
internal_weight=1073.92 1063.8 1055.95 7.84898 1052.97 69.935 983.038 975.159 651.795 334.903 66.2924 7.87966 323.364 76.4441 329.705
internal_count=8128 8086 8029 57 7991 481 7510 7444 5028 2607 455 66 2416 561 2565
is_linear=0
shrinkage=0.05


Tree=21
num_leaves=12
num_cat=0
split_feature=1 4 4 0 2 0 0 0 0 0 0
split_gain=9.10405 0.789627 0.514655 0.288106 0.124594 0.128617 0.112364 0.0972211 0.0738606 0.0160118 0.00352444
threshold=0.75000000000000011 0.44142890280677344 0.00056184078609067614 0.19483071565628055 1.0000000180025095e-35 -0.031654927879571908 0.1797473877668381 0.32162870466709143 0.041949767619371421 0.2756995707750321 0.3796710073947907
decision_type=2 2 2 2 2 2 2 2 2 2 2
left_child=1 2 -1 4 5 -4 -3 9 -6 -5 -9
right_child=-2 6 3 7 8 -7 -8 10 -10 -11 -12
leaf_value=-0.021291867199995058 0.047414166437700536 0.0092913341543315181 -0.010918776364972516 -3.3673684111568156e-05 -0.0011729665781945817 -0.0017772782699313303 0.020306425037884591 0.0018868962049249213 -0.00033260248368128902 0.00080903630629068938 0.0025975180678403996
leaf_weight=2.9978974089026442 10.017794787883757 5.6125774383544904 2.3310366570949546 251.12851805984974 44.056124746799469 332.80001437664032 3.9408259838819504 39.334342002868652 277.29298634827137 72.68038547039032 31.358604982495308
leaf_count=39 42 36 22 1890 342 2601 20 276 2117 533 210
internal_value=-2.81111e-05 -0.000474987 -0.000604695 -0.000545686 -0.00118743 -0.00186194 0.0138351 0.000522226 -0.000483993 0.000155476 0.00220212
internal_weight=1073.55 1063.53 1053.98 1050.98 656.48 335.131 9.5534 394.502 321.349 323.809 70.6929
internal_count=8128 8086 8030 7991 5082 2623 56 2909 2459 2423 486
is_linear=0
shrinkage=0.05


Tree=22
num_leaves=16
num_cat=0
split_feature=1 1 4 0 0 4 0 0 2 4 0 2 0 4 4
split_gain=8.30874 0.762401 1.49598 1.294 0.26412 0.259203 0.119911 0.0810366 0.111371 0.162088 0.0797561 0.0583397 0.00426755 0.0233804 0.00149154
threshold=0.75000000000000011 0.29166666666666669 0.00056184078609067614 0.18587695062160495 0.32162870466709143 0.1090161636924227 -0.031654927879571908 0.19483071565628055 1.0000000180025095e-35 0.0070707990383767723 0.3796710073947907 1.0000000180025095e-35 0.27425320446491247 0.26275582382344626 0.55464154191974757
decision_type=2 2 2 2 2 2 2 2 2 2 2 2 2 2 2
left_child=1 2 -1 -3 6 -6 11 8 9 -8 -7 -4 -9 -14 -11
right_child=-2 3 4 -5 5 10 7 12 -10 14 -12 -13 13 -15 -16
leaf_value=-0.036829162309611911 0.045540346550288741 0.0072060029290455909 -0.013517169441665845 0.022543994396287112 0.00090418521605414046 0.0028416840436532335 -0.0037426285943567396 -8.7421922537417459e-05 -0.00047045687888255626 -0.0013418427159262356 0.0063162147991067223 -0.0040514033601336506 0.00012623756291428467 0.00090418521605414046 -0.0010382908712118556
leaf_weight=2.836782455444335 9.9112233817577344 2.9804001152515402 2.3117677271366111 4.9623762294650078 3.6501917243003836 36.276849374175072 5.1768442243337622 246.91395291686058 316.69048655033112 324.2097654491663 30.320862099528313 5.5015027523040771 5.0356292128562918 71.502646952867508 4.7815008461475363
leaf_count=38 42 23 22 34 26 253 42 1855 2421 2535 202 44 37 524 30
internal_value=-2.75513e-05 -0.000452358 -0.000568524 0.0149805 -0.00047078 0.002491 -0.000682625 -0.000633151 -0.000954608 -0.00160612 0.00442358 -0.00685211 1.36943e-05 0.000339897 -0.0013202
internal_weight=1073.06 1063.15 1055.21 7.94278 1052.37 70.2479 982.124 974.311 650.859 334.168 66.5977 7.81327 323.452 76.5383 328.991
internal_count=8128 8086 8029 57 7991 481 7510 7444 5028 2607 455 66 2416 561 2565
is_linear=0
shrinkage=0.05


Tree=23
num_leaves=12
num_cat=0
split_feature=1 4 4 0 2 0 0 0 0 0 0
split_gain=7.59026 0.700107 0.409439 0.229484 0.105878 0.108854 0.0941517 0.0689678 0.0656381 0.0127121 0.00192253
threshold=0.75000000000000011 0.44142890280677344 0.00056184078609067614 0.19483071565628055 1.0000000180025095e-35 -0.031654927879571908 0.1797473877668381 0.32162870466709143 0.041949767619371421 0.2756995707750321 0.3796710073947907
decision_type=2 2 2 2 2 2 2 2 2 2 2
left_child=1 2 -1 4 5 -4 -3 9 -6 -5 -9
right_child=-2 6 3 7 8 -7 -8 10 -10 -11 -12
leaf_value=-0.019451567547181001 0.043766478327114951 0.0088285745628435656 -0.009980853719915958 -3.5965328313974523e-05 -0.0010709117498393071 -0.0016288340226384016 0.018868470407754592 0.0016207572281170695 -0.00032087286309407645 0.00071454036468824081 0.0021443949347368994
leaf_weight=2.8607826009392729 9.8001358509063703 5.6412753462791425 2.2880543023347846 251.13567993044853 43.991817384958267 332.09267380833626 3.9844094067811966 39.468064650893211 277.13935935497284 72.771812871098518 31.5336002856493
leaf_count=39 42 36 22 1890 342 2601 20 276 2117 533 210
internal_value=-3.50579e-05 -0.000438913 -0.000561586 -0.00051014 -0.00108376 -0.00170649 0.0129844 0.000442013 -0.000435332 0.00013265 0.00185332
internal_weight=1072.71 1062.91 1053.28 1050.42 655.512 334.381 9.62568 394.909 321.131 323.907 71.0017
internal_count=8128 8086 8030 7991 5082 2623 56 2909 2459 2423 486
is_linear=0
shrinkage=0.05


Tree=24
num_leaves=14
num_cat=0
split_feature=1 1 4 0 0 4 0 2 4 0 0 0 4
split_gain=6.93465 0.667289 1.3448 1.18053 0.204973 0.238113 0.0737726 0.0997934 0.677201 0.070462 0.0291571 0.00279746 0.00086759
threshold=0.75000000000000011 0.29166666666666669 0.00056184078609067614 0.18587695062160495 0.32162870466709143 0.1090161636924227 0.19483071565628055 1.0000000180025095e-35 0.0070707990383767723 0.3796710073947907 0.041949767619371421 0.27425320446491247 0.55464154191974757
decision_type=2 2 2 2 2 2 2 2 2 2 2 2 2
left_child=1 2 -1 -3 6 -6 7 8 -4 -7 -9 -8 -10
right_child=-2 3 4 -5 5 9 11 10 12 -11 -12 -13 -14
leaf_value=-0.03573174426996617 0.042082143893224566 0.0067073810614518394 -0.018084097487361461 0.02083223466515307 0.00077176069977471682 0.0025960743213964193 -8.7323864014829115e-05 -0.0010049243850020048 -0.0012763663154863566 0.0058548571627900356 -0.00046652227597444623 0.00025851113198555796 -0.0010049243850020048
leaf_weight=2.7056922763586035 9.6857100427150709 2.9919465780258161 5.157064586877822 5.0374712273478508 3.6566872894763938 36.387025639414787 246.90677586197853 44.274239838123322 325.81158331036568 30.48447747528553 277.71001410484314 76.62024387717247 4.8056260347366324
leaf_count=38 42 23 42 34 26 253 1855 344 2557 202 2121 561 30
internal_value=-3.37652e-05 -0.000417675 -0.000527012 0.0139418 -0.000436451 0.0021671 -0.000623576 -0.000927624 -0.00154333 0.00408164 -0.000466522 -5.42047e-06 -0.00126193
internal_weight=1072.23 1062.55 1054.52 8.02942 1051.81 70.5282 981.286 657.759 335.774 66.8715 321.984 323.527 330.617
internal_count=8128 8086 8029 57 7991 481 7510 5094 2629 455 2465 2416 2587
is_linear=0
shrinkage=0.05


Tree=25
num_leaves=10
num_cat=0
split_feature=1 4 4 0 0 0 0 0 0
split_gain=6.33892 0.620908 0.3215 0.181643 0.0896101 0.0790036 0.0473487 0.0108239 0.000897491
threshold=0.75000000000000011 0.44142890280677344 0.00056184078609067614 0.19483071565628055 -0.031654927879571908 0.1797473877668381 0.32162870466709143 0.2756995707750321 0.3796710073947907
decision_type=2 2 2 2 2 2 2 2 2
left_child=1 2 -1 4 -4 -3 7 -5 -8
right_child=-2 5 3 6 -6 -7 8 -9 -10
leaf_value=-0.017634888492022317 0.040478468402993795 0.0083938353452566328 -0.0063281773509046239 -3.7149564577638309e-05 -0.00091824935760065069 0.017554821231275709 0.0013831454631400614 0.00065516498486564842 0.0017401860624018731
leaf_weight=2.7354596853256217 9.5689723491668683 5.6684020459651929 7.746121644973754 251.13885144889355 646.82047267258167 4.0242424607276917 39.587819039821625 72.829175978899002 31.690719962120056
leaf_count=39 42 36 66 1890 5016 20 276 533 210
internal_value=-3.48477e-05 -0.000399803 -0.000515807 -0.0004712 -0.00098227 0.0121973 0.000375181 0.000118485 0.00154189
internal_weight=1071.81 1062.24 1052.55 1049.81 654.567 9.69264 395.247 323.968 71.2785
internal_count=8128 8086 8030 7991 5082 56 2909 2423 486
is_linear=0
shrinkage=0.05


Tree=26
num_leaves=12
num_cat=0
split_feature=1 1 0 4 0 0 2 0 0 0 0
split_gain=5.79538 0.583117 1.08059 0.607073 0.160211 0.0956609 0.11876 0.0267737 0.0104812 0.00468025 0.00127293
threshold=0.75000000000000011 0.29166666666666669 0.18587695062160495 0.00078430757646960451 0.3796710073947907 0.19483071565628055 1.0000000180025095e-35 0.041949767619371421 0.32162870466709143 0.1815120801329613 0.27425320446491247
decision_type=2 2 2 2 2 2 2 2 2 2 2
left_child=1 3 -3 9 5 6 -5 -8 10 -1 -7
right_child=-2 2 -4 4 -6 8 7 -9 -10 -11 -12
leaf_value=-0.024388447669180094 0.038947887273888759 0.0062461454039772091 0.019283951453318432 -0.0015584806094502569 0.0030788575187235701 -2.3132686033463783e-05 -0.00096946156698014341 -0.0003804425245100298 0.0008998214827202341 -0.020494653824084171 0.00021012839434973995
leaf_weight=1.6551199778914445 9.4508108496665937 3.0039533227682096 5.1070505157113075 335.10004130005836 31.77213828265667 246.63334684073925 44.066837087273598 277.44826181232929 39.00712163746357 1.445900924503803 76.66842882335186
leaf_count=23 42 23 34 2628 210 1853 343 2121 271 19 561
internal_value=-3.30603e-05 -0.000379984 0.0129751 -0.000482777 -0.000417581 -0.000526607 -0.000886481 -0.000380443 0.000125596 -0.0225729 3.21833e-05
internal_weight=1071.36 1061.91 8.111 1053.8 1050.7 1018.92 656.615 321.515 362.309 3.10102 323.302
internal_count=8128 8086 57 8029 7987 7777 5092 2464 2685 42 2414
is_linear=0
shrinkage=0.05


Tree=27
num_leaves=12
num_cat=0
split_feature=1 4 0 4 4 0 0 0 2 4 0
split_gain=5.2987 0.552664 0.206666 0.1279 1.53993 0.0672552 0.066282 0.0652328 0.0333802 0.0259177 0.00200192
threshold=0.75000000000000011 0.44142890280677344 0.19483071565628055 0.0070707990383767723 0.00056184078609067614 0.32162870466709143 0.1797473877668381 -0.031654927879571908 1.0000000180025095e-35 0.20933062880324546 0.2756995707750321
decision_type=2 2 2 2 2 2 2 2 2 2 2
left_child=1 2 3 4 -1 10 -3 -5 -9 -10 -4
right_child=-2 6 5 7 -6 -7 -8 8 9 -11 -12
leaf_value=-0.053793719168219213 0.037483892983755672 0.0080090040215390606 6.0524785151351255e-05 -0.0038064423706863772 -0.0038064423706863772 0.0018190909854560776 0.016370954469606885 -0.0012196992869492442 -0.00085788597736475918 -0.00028959847228733155 0.00035760067542004115
leaf_weight=1.5731948018074025 9.3319965898990613 5.6925477087497693 251.60731380432844 7.704148828983306 8.2120347246527654 71.734258763492107 4.0600957572460175 325.61336560547352 10.567886754870413 301.57375605404377 73.209302090108395
leaf_count=24 42 36 1897 66 66 489 20 2558 81 2311 538
internal_value=-2.78246e-05 -0.000357588 -0.000467444 -0.00101268 -0.00668621 0.000433486 0.0114901 -0.000926672 -0.000865529 -0.000496073 0.000127482
internal_weight=1070.88 1061.55 1051.8 655.244 9.78523 396.551 9.75264 645.459 637.755 312.142 324.817
internal_count=8128 8086 8030 5106 90 2924 56 5016 4950 2392 2435
is_linear=0
shrinkage=0.05


Tree=28
num_leaves=12
num_cat=0
split_feature=1 1 0 4 0 0 0 2 0 0 0
split_gain=4.84667 0.509156 0.990022 0.50344 0.134593 0.088117 0.0652201 0.0969297 0.00746896 0.0021401 0.00101811
threshold=0.75000000000000011 0.29166666666666669 0.18587695062160495 0.00078430757646960451 0.3796710073947907 -0.031654927879571908 0.19483071565628055 1.0000000180025095e-35 0.32162870466709143 0.1815120801329613 0.27425320446491247
decision_type=2 2 2 2 2 2 2 2 2 2 2
left_child=1 3 -3 9 5 -5 7 -7 10 -1 -8
right_child=-2 2 -4 4 -6 6 8 -9 -10 -11 -12
leaf_value=-0.02226507685962674 0.036080899216307104 0.0058208892665838272 0.017869902979389663 -0.0058141563911722266 0.0028200593433392639 -0.0013558510792862659 -3.0326093250598399e-05 -0.00032070713056331688 0.00075095993500905363 -0.019578400624996849 0.00017825070832390945
leaf_weight=1.5587056726217263 9.2131917178630811 3.01439620554447 5.1730184182524681 7.6828382015228263 31.871107265353203 332.21876914799213 246.65124535560608 315.89346481859684 39.079900920391083 1.4132666066288946 76.699712842702866
leaf_count=23 42 23 34 66 210 2606 1853 2420 271 19 561
internal_value=-2.76207e-05 -0.000341093 0.0120794 -0.000437661 -0.000379501 -0.000479649 -0.000439092 -0.000739472 9.8058e-05 -0.0209875 1.91489e-05
internal_weight=1070.47 1061.26 8.18741 1053.07 1050.1 1018.23 1010.54 648.112 362.431 2.97197 323.351
internal_count=8128 8086 57 8029 7987 7777 7711 5026 2685 42 2414
is_linear=0
shrinkage=0.05


Tree=29
num_leaves=13
num_cat=0
split_feature=1 4 0 4 2 0 0 0 0 2 4 0
split_gain=4.43265 0.49204 0.169426 0.0996764 0.459536 0.513676 0.0557517 0.0544375 0.0536031 0.0254914 0.0233592 0.00166282
threshold=0.75000000000000011 0.44142890280677344 0.19483071565628055 0.0070707990383767723 1.0000000180025095e-35 0.10929688066244127 0.1797473877668381 -0.031654927879571908 0.32162870466709143 1.0000000180025095e-35 0.20933062880324546 0.2756995707750321
decision_type=2 2 2 2 2 2 2 2 2 2 2 2
left_child=1 2 3 4 5 -1 -3 -5 11 -9 -11 -4
right_child=-2 6 8 7 -6 -7 -8 9 -10 10 -12 -13
leaf_value=-0.03632709078263343 0.034734093171985059 0.0076353841713101105 5.5432436126440193e-05 -0.0034031124062352518 -0.0034031124062352518 -0.010371828059447495 0.015279736339775925 -0.0010975063828280905 0.0016251480704801405 -0.00078115461140432782 -0.00026487560764250237 0.00032613744336140314
leaf_weight=2.3560424298048002 9.0949645042419416 5.7161093056201917 251.62209220975637 7.6503503620624533 3.4161248430609703 3.8836383149027824 4.093071848154068 325.04634417593479 71.907065197825432 10.559276118874548 301.44651184976101 73.238568335771561
leaf_count=22 42 36 1897 66 30 38 20 2558 489 81 2311 538
internal_value=-2.33512e-05 -0.000321313 -0.000425332 -0.000919635 -0.00596211 -0.0173405 0.0108251 -0.000844114 0.000389884 -0.00078763 -0.000464803 0.000116462
internal_weight=1070.03 1060.94 1051.13 654.358 9.65581 6.23968 9.80918 644.702 396.768 637.052 312.006 324.861
internal_count=8128 8086 8030 5106 90 60 56 5016 2924 4950 2392 2435
is_linear=0
shrinkage=0.05


Tree=30
num_leaves=12
num_cat=0
split_feature=1 1 0 4 0 0 0 2 0 0 0
split_gain=4.05483 0.44537 0.907968 0.450182 0.112985 0.0755895 0.0499179 0.0814289 0.00524287 0.00147793 0.000812678
threshold=0.75000000000000011 0.29166666666666669 0.18587695062160495 0.00078430757646960451 0.3796710073947907 -0.031654927879571908 0.19483071565628055 1.0000000180025095e-35 0.32162870466709143 0.1815120801329613 0.27425320446491247
decision_type=2 2 2 2 2 2 2 2 2 2 2
left_child=1 3 -3 9 5 -5 7 -7 10 -1 -8
right_child=-2 2 -4 4 -6 6 8 -9 -10 -11 -12
leaf_value=-0.021143136212642945 0.033439301738536202 0.0054327945508881523 0.01656709827286142 -0.0053909504024748593 0.0025857274090502216 -0.0012285640962949075 -3.6584227897471538e-05 -0.00029262673264128129 0.00062030277209192716 -0.018884436999036226 0.00014973788339965434
leaf_weight=1.5123756937682622 8.9777999818325025 3.0242242366075498 5.2334665507078171 7.6313705742359152 31.961013570427895 331.60757515579462 246.66622254252434 315.76016919314861 39.14374378323555 1.3897225596010683 76.727595433592796
leaf_count=23 42 23 34 66 210 2606 1853 2420 271 19 561
internal_value=-2.18773e-05 -0.000305105 0.0112615 -0.000395863 -0.000341483 -0.000433427 -0.000395965 -0.000659028 7.37742e-05 -0.0200615 7.62208e-06
internal_weight=1069.64 1060.66 8.25769 1052.4 1049.5 1017.54 1009.91 647.368 362.538 2.9021 323.394
internal_count=8128 8086 57 8029 7987 7777 7711 5026 2685 42 2414
is_linear=0
shrinkage=0.05


Tree=31
num_leaves=13
num_cat=0
split_feature=1 4 0 4 2 0 0 0 0 2 4 0
split_gain=3.70862 0.438113 0.138418 0.0711266 0.427178 0.493385 0.0469598 0.0441689 0.0426562 0.019305 0.0210624 0.00138302
threshold=0.75000000000000011 0.44142890280677344 0.19483071565628055 0.0070707990383767723 1.0000000180025095e-35 0.10929688066244127 0.1797473877668381 -0.031654927879571908 0.32162870466709143 1.0000000180025095e-35 0.20933062880324546 0.2756995707750321
decision_type=2 2 2 2 2 2 2 2 2 2 2 2
left_child=1 2 3 4 5 -1 -3 -5 11 -9 -11 -4
right_child=-2 6 8 7 -6 -7 -8 9 -10 10 -12 -13
leaf_value=-0.035402250489133168 0.032192909512343743 0.0072777059316982556 5.1171458275991538e-05 -0.002946035624239977 -0.002946035624239977 -0.0096869317448260942 0.014272608294810168 -0.00098710820247132551 0.00145148011737712 -0.00071167239841149021 -0.00024093323027900434 0.00029801801647398878
leaf_weight=2.2860696539282781 8.8621093332767469 5.7387753129005414 251.63398252427578 7.6013591289520255 3.3976852521300316 3.8377387151122093 4.1234121918678284 324.53525343537331 72.062021717429161 10.551433905959128 301.33031326532364 73.264565162360668
leaf_count=22 42 36 1897 66 30 38 20 2558 489 81 2311 538
internal_value=-1.78143e-05 -0.000287019 -0.000385494 -0.000832801 -0.00512269 -0.0164278 0.0102023 -0.000769377 0.000350935 -0.000717149 -0.000436237 0.000106835
internal_weight=1069.22 1060.36 1050.5 653.54 9.52149 6.12381 9.86219 644.018 396.961 636.417 311.882 324.899
internal_count=8128 8086 8030 5106 90 60 56 5016 2924 4950 2392 2435
is_linear=0
shrinkage=0.05


Tree=32
num_leaves=12
num_cat=0
split_feature=1 4 0 2 4 0 0 0 0 0 0
split_gain=3.39241 0.393426 0.124908 0.0635926 0.511514 0.481393 0.0873051 0.0458035 0.0419532 0.0384483 0.00124779
threshold=0.75000000000000011 0.44142890280677344 0.19483071565628055 1.0000000180025095e-35 0.0070707990383767723 0.10929688066244127 -0.031654927879571908 0.041949767619371421 0.1797473877668381 0.32162870466709143 0.2756995707750321
decision_type=2 2 2 2 2 2 2 2 2 2 2
left_child=1 2 3 4 5 -1 -6 -5 -3 10 -4
right_child=-2 8 9 7 6 -7 -8 -9 -10 -11 -12
leaf_value=-0.034562353326091193 0.030991796415150697 0.0068828622907183435 4.8611840763185322e-05 -0.00078217356049792405 -0.0083536473613484499 -0.0083536473613484499 -0.00093841884957477349 -0.00022895915864140477 0.013476999258158382 0.0013775941449669659 0.00028306012941780353
leaf_weight=2.2260822877287856 8.7482380270957929 5.7639225721359235 251.6428045630455 43.779731687158346 2.2179417610168448 3.8099560663104057 324.31046421825886 276.80415327101946 4.1478464156389236 72.12893383204937 73.279272027313709
leaf_count=22 42 36 1897 343 22 38 2558 2123 20 489 538
internal_value=-1.66075e-05 -0.000272495 -0.000366071 -0.000791225 -0.00127562 -0.0156983 -0.00100901 -0.000288727 0.00964236 0.000333306 0.000101487
internal_weight=1068.86 1060.11 1050.2 653.148 332.564 6.03604 326.528 320.584 9.91177 397.051 324.922
internal_count=8128 8086 8030 5106 2640 60 2580 2466 56 2924 2435
is_linear=0
shrinkage=0.05


Tree=33
num_leaves=12
num_cat=0
split_feature=1 1 0 4 0 0 0 2 0 0 0
split_gain=3.10287 0.385825 0.791577 0.392781 0.0888761 0.0615542 0.0321589 0.0628659 0.00269402 0.000644416 0.000570472
threshold=0.75000000000000011 0.29166666666666669 0.18587695062160495 0.00078430757646960451 0.3796710073947907 -0.031654927879571908 0.19483071565628055 1.0000000180025095e-35 0.32162870466709143 0.1815120801329613 0.27425320446491247
decision_type=2 2 2 2 2 2 2 2 2 2 2
left_child=1 3 -3 9 5 -5 7 -7 10 -1 -8
right_child=-2 2 -4 4 -6 6 8 -9 -10 -11 -12
leaf_value=-0.019701880883162892 0.029833207460283808 0.0050601290114368957 0.014787396195698122 -0.0048674803130962369 0.0022983917990008103 -0.001061124036532034 -4.8910946255034782e-05 -0.00025853623105019354 0.00042684267482900011 -0.018190160837101409 0.00010716190947311898
leaf_weight=1.4558889232575887 8.6364739537239057 3.0315308272838575 5.2929452434182167 7.5677011162042609 32.071266010403633 330.79927442222834 246.69615259766579 315.57866641879082 39.237717360258102 1.3667593859136102 76.768660858273506
leaf_count=23 42 23 34 66 210 2606 1853 2420 271 19 561
internal_value=-1.51911e-05 -0.000258415 0.0104636 -0.000343295 -0.000293161 -0.000374914 -0.000341222 -0.000552663 3.55908e-05 -0.0189699 -1.18698e-05
internal_weight=1068.5 1059.87 8.32448 1051.54 1048.72 1016.65 1009.08 646.378 362.703 2.82265 323.465
internal_count=8128 8086 57 8029 7987 7777 7711 5026 2685 42 2414
is_linear=0
shrinkage=0.05


Tree=34
num_leaves=12
num_cat=0
split_feature=1 4 0 2 4 0 0 0 0 0 0
split_gain=2.83719 0.35046 0.102003 0.0533624 0.453452 0.459052 0.078791 0.0409062 0.0353943 0.0305328 0.00104065
threshold=0.75000000000000011 0.44142890280677344 0.19483071565628055 1.0000000180025095e-35 0.0070707990383767723 0.10929688066244127 -0.031654927879571908 0.041949767619371421 0.1797473877668381 0.32162870466709143 0.2756995707750321
decision_type=2 2 2 2 2 2 2 2 2 2 2
left_child=1 2 3 4 5 -1 -6 -5 -3 10 -4
right_child=-2 8 9 7 6 -7 -8 -9 -10 -11 -12
leaf_value=-0.033656318773666483 0.028714773264173096 0.0065610942680669028 4.5764661607908301e-05 -0.00070749591995415391 -0.0078839563436970024 -0.0078839563436970024 -0.00084355611355292875 -0.00020736941741701342 0.012602291370101 0.0012303871123270185 0.00025984597126793471
leaf_weight=2.1622455753386012 8.5270543098449689 5.7845100760459882 251.64988056570292 43.727504625916481 2.1953663825988761 3.7717160359025002 323.87256035208702 276.70490498840809 4.1740391850471497 72.260457441210747 73.300504617393017
leaf_count=22 42 36 1897 343 22 38 2558 2123 20 489 538
internal_value=-1.11855e-05 -0.000242355 -0.000330926 -0.000715516 -0.00115976 -0.0148574 -0.000910478 -0.000255236 0.00909321 0.000300777 9.40559e-05
internal_weight=1068.13 1059.6 1049.65 652.434 332.002 5.93396 326.068 320.432 9.95855 397.211 324.95
internal_count=8128 8086 8030 5106 2640 60 2580 2466 56 2924 2435
is_linear=0
shrinkage=0.05


Tree=35
num_leaves=12
num_cat=0
split_feature=1 1 0 4 0 0 0 2 0 0 0
split_gain=2.59437 0.339354 0.725241 0.352239 0.0748705 0.0528168 0.0239406 0.0530669 0.00176028 0.000452502 0.000375639
threshold=0.75000000000000011 0.29166666666666669 0.18587695062160495 0.00078430757646960451 0.3796710073947907 -0.031654927879571908 0.19483071565628055 1.0000000180025095e-35 0.32162870466709143 0.27425320446491247 0.1815120801329613
decision_type=2 2 2 2 2 2 2 2 2 2 2
left_child=1 3 -3 10 5 -5 7 -7 9 -8 -1
right_child=-2 2 -4 4 -6 6 8 -9 -10 -11 -12
leaf_value=-0.018700844683511374 0.027634397485021125 0.0047404007311813963 0.013702365272501177 -0.0045112262590814526 0.0021132806115793032 -0.0009617177230675369 -5.2952710936970471e-05 -0.00023538192289495068 0.00033448223097062575 8.6034440417319662e-05 -0.017534793831587965
leaf_weight=1.4188997894525521 8.4201712310314161 3.0403258800506574 5.3427350446581841 7.5246359854936591 32.142734542489052 330.32231853157282 246.70429101586342 315.46757182478905 39.282692521810532 76.789117932319641 1.3457451499998567
leaf_count=23 42 23 34 66 210 2606 1853 2420 271 561 19
internal_value=-9.94422e-06 -0.000229667 0.00979039 -0.00030959 -0.000262581 -0.000337738 -0.000306601 -0.000489184 1.84197e-05 -1.99607e-05 -0.0181332
internal_weight=1067.8 1059.38 8.38306 1051 1048.23 1016.09 1008.57 645.79 362.776 323.493 2.76464
internal_count=8128 8086 57 8029 7987 7777 7711 5026 2685 2414 42
is_linear=0
shrinkage=0.05


Tree=36
num_leaves=11
num_cat=0
split_feature=1 4 0 0 0 0 4 4 4 0
split_gain=2.37145 0.312282 0.0832803 0.0405126 0.0298948 0.0241954 0.0216224 0.00724008 0.0056638 0.000869427
threshold=0.75000000000000011 0.44142890280677344 0.19483071565628055 -0.031654927879571908 0.1797473877668381 0.32162870466709143 0.0070707990383767723 0.0013721345380132632 0.30151515151515157 0.2756995707750321
decision_type=2 2 2 2 2 2 2 2 2 2
left_child=1 2 3 -1 -3 9 7 -5 -8 -4
right_child=-2 4 5 6 -6 -7 8 -9 -10 -11
leaf_value=-0.0043002721324326898 0.026590242824344447 0.006253172209883859 4.3488088597222015e-05 -0.0024521737218419345 0.011791978266654127 0.0010985031636765281 -0.00059724735964204474 -0.0015100869720351636 -0.0001874210309337715 0.00023914676021470394
leaf_weight=7.4997296035289756 8.3159780502319318 5.8042923510074598 251.65499391034245 2.2897778637707233 4.1981867402791977 72.378336369991302 631.97022403776646 6.918904170393942 3.1055924743413916 73.319307845085859
leaf_count=66 42 36 1897 32 20 489 4926 58 24 538
internal_value=-6.12419e-06 -0.000214949 -0.00029878 -0.000646605 0.00857789 0.000271763 -0.000604075 -0.00245217 -0.000568 8.76318e-05
internal_weight=1067.46 1059.14 1049.14 651.784 10.0025 397.353 644.284 9.20868 635.076 324.974
internal_count=8128 8086 8030 5106 56 2924 5040 90 4950 2435
is_linear=0
shrinkage=0.05


Tree=37
num_leaves=12
num_cat=0
split_feature=1 1 0 4 0 0 0 2 0 0 0
split_gain=2.16778 0.298331 0.664141 0.321707 0.0631502 0.0433819 0.0176531 0.0479989 0.0011079 0.000357819 0.000311042
threshold=0.75000000000000011 0.29166666666666669 0.18587695062160495 0.00078430757646960451 0.3796710073947907 -0.031654927879571908 0.19483071565628055 1.0000000180025095e-35 0.32162870466709143 0.27425320446491247 0.1815120801329613
decision_type=2 2 2 2 2 2 2 2 2 2 2
left_child=1 3 -3 10 5 -5 7 -7 9 -8 -1
right_child=-2 2 -4 4 -6 6 8 -9 -10 -11 -12
leaf_value=-0.017975637075803814 0.025580691737208613 0.0044402803404063208 0.012688333694822801 -0.0040985477069231929 0.0019450385775333368 -0.00089026698314920128 -5.6425432619113448e-05 -0.0002145850242016242 0.00025398223724947466 6.7156610411338749e-05 -0.016905854462962968
leaf_weight=1.3934103101491921 8.2145930528640729 3.0489783585071546 5.389373354613781 7.476032242178916 32.207827314734459 329.98106704652309 246.7107385545969 315.2884822934866 39.321789771318436 76.807314604520798 1.3261188976466654
leaf_count=23 42 23 34 66 210 2606 1853 2420 271 561 19
internal_value=-5.54444e-06 -0.000204024 0.0091598 -0.00027924 -0.000234663 -0.00030379 -0.000275648 -0.000432545 3.37448e-06 -2.70855e-05 -0.017454
internal_weight=1067.17 1058.95 8.43835 1050.51 1047.79 1015.59 1008.11 645.27 362.84 323.518 2.71953
internal_count=8128 8086 57 8029 7987 7777 7711 5026 2685 2414 42
is_linear=0
shrinkage=0.05


Tree=38
num_leaves=11
num_cat=0
split_feature=1 4 0 0 0 0 4 4 4 0
split_gain=1.98063 0.278397 0.0680368 0.0332723 0.0252707 0.0191274 0.0183252 0.00609062 0.00512118 0.000727783
threshold=0.75000000000000011 0.44142890280677344 0.19483071565628055 -0.031654927879571908 0.1797473877668381 0.32162870466709143 0.0070707990383767723 0.0013721345380132632 0.30151515151515157 0.2756995707750321
decision_type=2 2 2 2 2 2 2 2 2 2
left_child=1 2 3 -1 -3 9 7 -5 -8 -4
right_child=-2 4 5 6 -6 -7 8 -9 -10 -11
leaf_value=-0.0039057086065068533 0.024604303191784822 0.0059594761361874624 4.1713254557507748e-05 -0.002225739290757112 0.011040639263114015 0.00098035059155642998 -0.00054160982439483069 -0.0013691068476160589 -0.00016915941006870244 0.00022070982188872299
leaf_weight=7.4534870237112036 8.1161051094531995 5.8232333362102491 251.65840385854244 2.2610237039625645 4.2204612046480179 72.483949698507786 631.47408963739872 6.9093428626656515 3.1043653488159171 73.335928879678249
leaf_count=66 42 36 1897 32 20 489 4926 58 24 538
internal_value=-1.60818e-06 -0.000190235 -0.000269583 -0.000584227 0.00809463 0.000245908 -0.00054577 -0.00222574 -0.000512474 8.21044e-05
internal_weight=1066.84 1058.72 1048.68 651.202 10.0437 397.478 643.749 9.17037 634.578 324.994
internal_count=8128 8086 8030 5106 56 2924 5040 90 4950 2435
is_linear=0
shrinkage=0.05


Tree=39
num_leaves=12
num_cat=0
split_feature=1 1 0 4 0 0 0 2 0 0 0
split_gain=1.80972 0.262597 0.607386 0.293731 0.0533225 0.0356196 0.0127867 0.0433746 0.000758892 0.000256951 0.000186094
threshold=0.75000000000000011 0.29166666666666669 0.18587695062160495 0.00078430757646960451 0.3796710073947907 -0.031654927879571908 0.19483071565628055 1.0000000180025095e-35 0.27425320446491247 0.1815120801329613 0.32162870466709143
decision_type=2 2 2 2 2 2 2 2 2 2 2
left_child=1 3 -3 9 5 -5 7 -7 -8 -1 -10
right_child=-2 2 -4 4 -6 6 8 -9 10 -11 -12
leaf_value=-0.017271620097971795 0.023659805765687089 0.004163274575014685 0.011739654537628076 -0.0037214126843214419 0.0017919829009181985 -0.00082477802742587458 -5.9403750974077635e-05 -0.00019530216107353326 5.0287877594822159e-05 -0.016291610510482453 0.00018399343654545584
leaf_weight=1.3694222681224339 8.0205761790275556 3.0571301132440549 5.4324878305196762 7.4320395290851584 32.267155945301056 329.66847581416368 246.71574027836323 315.12601040303707 76.823498666286469 1.3074201829731462 39.355666160583496
leaf_count=23 42 23 34 66 210 2606 1853 2420 561 19 271
internal_value=-1.21924e-06 -0.000180497 0.00857786 -0.000251307 -0.000209031 -0.000272636 -0.0002472 -0.000380818 -9.78621e-06 -0.016793 9.55806e-05
internal_weight=1066.58 1058.56 8.48962 1050.07 1047.39 1015.12 1007.69 644.794 362.895 2.67684 116.179
internal_count=8128 8086 57 8029 7987 7777 7711 5026 2685 42 832
is_linear=0
shrinkage=0.05


Tree=40
num_leaves=8
num_cat=0
split_feature=1 4 0 0 0 0 0
split_gain=1.65262 0.248281 0.0555336 0.0273175 0.0213786 0.0150794 0.000610469
threshold=0.75000000000000011 0.44142890280677344 0.19483071565628055 -0.031654927879571908 0.1797473877668381 0.32162870466709143 0.2756995707750321
decision_type=2 2 2 2 2 2 2
left_child=1 2 3 -1 -3 6 -4
right_child=-2 4 5 -5 -6 -7 -8
leaf_value=-0.0035453282493253914 0.02274604169511836 0.0056793804832598665 4.0385439215436028e-05 -0.00049237114027757907 0.010343279916590798 0.0008745059167922513 0.00020430914893372284
leaf_weight=7.4116376340389243 7.928045690059661 5.8413628935813886 251.66033069416881 643.25859021767974 4.2410243898630142 72.578546203672886 73.350584119558334
leaf_count=66 42 36 1897 5040 20 489 538
internal_value=2.8083e-06 -0.000167561 -0.000242668 -0.000527147 0.00764119 0.000222893 7.73808e-05
internal_weight=1066.27 1058.34 1048.26 650.67 10.0824 397.589 325.011
internal_count=8128 8086 8030 5106 56 2924 2435
is_linear=0
shrinkage=0.05


Tree=41
num_leaves=12
num_cat=0
split_feature=1 1 0 4 0 0 0 2 0 0 0
split_gain=1.50929 0.231447 0.554557 0.269364 0.0450821 0.0292348 0.00907707 0.0391931 0.000509906 0.000234866 8.08422e-05
threshold=0.75000000000000011 0.29166666666666669 0.18587695062160495 0.00078430757646960451 0.3796710073947907 -0.031654927879571908 0.19483071565628055 1.0000000180025095e-35 0.27425320446491247 0.1815120801329613 0.32162870466709143
decision_type=2 2 2 2 2 2 2 2 2 2 2
left_child=1 3 -3 9 5 -5 7 -7 -8 -1 -10
right_child=-2 2 -4 4 -6 6 8 -9 10 -11 -12
leaf_value=-0.016643087982007528 0.021861986906614922 0.0039071110166846185 0.010851385215740677 -0.0033771355015953237 0.001652615069244176 -0.00076518944320631398 -6.1946998306356817e-05 -0.00017758888089380181 3.5221972986158413e-05 -0.015699365503690822 0.00012332323394528578
leaf_weight=1.348612938076257 7.8385336697101584 3.0648143887519819 5.4723799005150795 7.3922316730022422 32.321265712380409 329.38430185616016 246.71949987113476 314.97959902882576 76.837878435850143 1.2898321710526941 39.384916037321091
leaf_count=23 42 23 34 66 210 2606 1853 2420 561 19 271
internal_value=2.70516e-06 -0.000159216 0.00804013 -0.000225904 -0.000185696 -0.000244252 -0.000221261 -0.000333907 -2.12708e-05 -0.0161817 6.50772e-05
internal_weight=1066.03 1058.2 8.53719 1049.66 1047.02 1014.7 1007.31 644.364 362.942 2.63845 116.223
internal_count=8128 8086 57 8029 7987 7777 7711 5026 2685 42 832
is_linear=0
shrinkage=0.05


Tree=42
num_leaves=8
num_cat=0
split_feature=1 4 0 0 0 0 0
split_gain=1.37747 0.221523 0.0453489 0.0224161 0.0180997 0.0118511 0.000513251
threshold=0.75000000000000011 0.44142890280677344 0.19483071565628055 -0.031654927879571908 0.1797473877668381 0.32162870466709143 0.2756995707750321
decision_type=2 2 2 2 2 2 2
left_child=1 2 3 -1 -3 6 -4
right_child=-2 4 5 -5 -6 -7 -8
leaf_value=-0.0032165219262647858 0.021006707332087621 0.005412305069329014 3.9446947246049856e-05 -0.00044395447188778675 0.0096954386399487266 0.00077969763141141814 0.00018974206052004149
leaf_weight=7.3737739473581305 7.7520413696765891 5.8587092757225019 251.66097362339497 642.81479909271002 4.2600226551294327 72.663228750228882 73.363492671400309
leaf_count=66 42 36 1897 5040 20 489 538
internal_value=6.81316e-06 -0.000147055 -0.000218151 -0.000475398 0.00721552 0.000202427 7.33711e-05
internal_weight=1065.75 1058 1047.88 650.189 10.1187 397.688 325.024
internal_count=8128 8086 8030 5106 56 2924 2435
is_linear=0
shrinkage=0.05


Tree=43
num_leaves=12
num_cat=0
split_feature=1 1 0 4 0 0 0 2 0 0 0
split_gain=1.25732 0.204304 0.505303 0.246889 0.038158 0.0239892 0.00627175 0.0353884 0.000332312 0.000214703 2.51448e-05
threshold=0.75000000000000011 0.29166666666666669 0.18587695062160495 0.00078430757646960451 0.3796710073947907 -0.031654927879571908 0.19483071565628055 1.0000000180025095e-35 0.27425320446491247 0.1815120801329613 0.32162870466709143
decision_type=2 2 2 2 2 2 2 2 2 2 2
left_child=1 3 -3 9 5 -5 7 -7 -8 -1 -10
right_child=-2 2 -4 4 -6 6 8 -9 10 -11 -12
leaf_value=-0.016029962646458003 0.020179340488666282 0.0036706431558742297 0.010019805140700534 -0.0030631783928909131 0.0015255877193402247 -0.00071062189043122467 -6.4110788435711055e-05 -0.00016121605906887696 2.1771032758065421e-05 -0.015121360444231312 7.089383084857756e-05
leaf_weight=1.3288461118936532 7.6685575246810904 3.0720712840557081 5.5091919600963593 7.3562198728322974 32.370653927326202 329.12411458045244 246.72219264507294 314.84745928645134 76.850650295615196 1.273057125508785 39.410064846277237
leaf_count=23 42 23 34 66 210 2606 1853 2420 561 19 271
internal_value=6.50454e-06 -0.00013973 0.00754385 -0.000202568 -0.000164329 -0.000218261 -0.000197477 -0.000291162 -3.12701e-05 -0.0155854 3.84227e-05
internal_weight=1065.53 1057.86 8.58126 1049.28 1046.68 1014.31 1006.95 643.972 362.983 2.6019 116.261
internal_count=8128 8086 57 8029 7987 7777 7711 5026 2685 42 832
is_linear=0
shrinkage=0.05


Tree=44
num_leaves=10
num_cat=0
split_feature=1 4 0 2 0 0 0 0 0
split_gain=1.14679 0.197725 0.0370095 0.0342819 0.0580239 0.0243163 0.015335 0.00928117 0.000432578
threshold=0.75000000000000011 0.44142890280677344 0.19483071565628055 1.0000000180025095e-35 -0.031654927879571908 0.041949767619371421 0.1797473877668381 0.32162870466709143 0.2756995707750321
decision_type=2 2 2 2 2 2 2 2 2
left_child=1 2 3 4 -1 -5 -3 8 -4
right_child=-2 6 7 5 -6 -7 -8 -9 -10
leaf_value=-0.0090232316806843401 0.019379096791881118 0.0051576715391041519 3.88505689510344e-05 -0.00045510850051720713 -0.00073493542147676249 -0.00012193695788687746 0.0090931038807756295 0.00069479612748789103 0.00017682105616419061
leaf_weight=2.1253021955490103 7.5880571007728568 5.875301241874693 251.66050124540925 43.483232788741589 328.08857289329171 276.05155789107084 4.2775889486074448 72.739011518657207 73.374823622405529
leaf_count=22 42 36 1897 343 2618 2123 20 489 538
internal_value=1.06696e-05 -0.000128285 -0.000195588 -0.000428124 -0.00078828 -0.000121937 0.00681574 0.000184251 6.99966e-05
internal_weight=1065.26 1057.68 1047.52 649.749 330.214 319.535 10.1529 397.774 325.035
internal_count=8128 8086 8030 5106 2640 2466 56 2924 2435
is_linear=0
shrinkage=0.05


Tree=45
num_leaves=11
num_cat=0
split_feature=1 1 0 4 4 0 0 0 2 0
split_gain=1.04597 0.180937 0.458914 0.121482 0.505135 0.0448639 0.0195334 0.00431848 0.0215524 0.00119917
threshold=0.75000000000000011 0.29166666666666669 0.18587695062160495 0.0013721345380132632 0.00056184078609067614 0.3796710073947907 -0.031654927879571908 0.19483071565628055 1.0000000180025095e-35 0.27425320446491247
decision_type=2 2 2 2 2 2 2 2 2 2
left_child=1 3 -3 4 -1 6 -5 8 -8 -9
right_child=-2 2 -4 5 -6 -7 7 9 -10 -11
leaf_value=-0.029554709084346244 0.018605246244138479 0.003457097112821746 0.0092425152633701293 -0.0027767919959672959 -0.0043911280443646892 0.0016900132695215704 -0.00058712870376613361 -0.00010945932963064562 -0.00015488706548351126 8.5458762002616802e-05
leaf_weight=2.1147468872368336 7.5105037987232199 3.0782283693551999 5.5430017337203026 7.3228192031383506 2.1140331998467436 32.270217552781105 328.47771917283535 246.06104920804501 314.3948592543602 116.1570013910532
leaf_count=38 42 23 34 66 17 209 2603 1848 2417 831
internal_value=1.18329e-05 -0.000120216 0.0070937 -0.000179508 -0.00863698 -0.000145273 -0.000203772 -0.000185026 -0.000262822 -4.69525e-05
internal_weight=1065.04 1057.53 8.62123 1048.91 4.22878 1044.68 1012.41 1005.09 642.873 362.218
internal_count=8128 8086 57 8029 55 7974 7765 7699 5020 2679
is_linear=0
shrinkage=0.05


Tree=46
num_leaves=8
num_cat=0
split_feature=1 4 0 0 0 0 0
split_gain=0.953377 0.176323 0.0300246 0.0151144 0.0130159 0.00702757 0.000344397
threshold=0.75000000000000011 0.44142890280677344 0.19483071565628055 -0.031654927879571908 0.1797473877668381 0.32162870466709143 0.2756995707750321
decision_type=2 2 2 2 2 2 2
left_child=1 2 3 -1 -3 6 -4
right_child=-2 4 5 -5 -6 -7 -8
leaf_value=-0.002643540085762786 0.017857096164847132 0.0049117669879224467 4.1896947180201378e-05 -0.00035672007457090553 0.0085313556741466613 0.00061314874730561484 0.00016499894138584544
leaf_weight=7.3077292293310157 7.4358531832694998 5.8913748264312726 251.6465266533196 642.01146142557263 4.2938834130764008 72.811387822031975 73.384246446192265
leaf_count=66 42 36 1897 5040 20 489 538
internal_value=1.62583e-05 -0.000109208 -0.000172887 -0.000382457 0.00643771 0.000169152 6.96905e-05
internal_weight=1064.78 1057.35 1047.16 649.319 10.1853 397.842 325.031
internal_count=8128 8086 8030 5106 56 2924 2435
is_linear=0
shrinkage=0.05


Tree=47
num_leaves=10
num_cat=0
split_feature=1 1 0 4 4 0 0 0 0
split_gain=0.869209 0.160282 0.416048 0.100456 0.48228 0.0384889 0.0159996 0.00283637 0.000921114
threshold=0.75000000000000011 0.29166666666666669 0.18587695062160495 0.0013721345380132632 0.00056184078609067614 0.3796710073947907 -0.031654927879571908 0.19483071565628055 0.27425320446491247
decision_type=2 2 2 2 2 2 2 2 2
left_child=1 3 -3 4 -1 6 -5 -8 -9
right_child=-2 2 -4 5 -6 -7 7 8 -10
leaf_value=-0.028834487488612032 0.017133995993939635 0.0032556289483092757 0.0085151146574575769 -0.0025164351199575574 -0.0040179750237203399 0.00156983239372108 -0.00022917215315752446 -0.00010900340938760434 6.1811831635716802e-05
leaf_weight=2.0601053237915039 7.3640533089637747 3.0847367495298368 5.5742566287517548 7.2933806329965583 2.1073498874902716 32.316736206412315 642.56382615119219 246.05532886087894 116.19062142074108
leaf_count=38 42 23 34 66 17 209 5020 1848 831
internal_value=1.54692e-05 -0.000103767 0.00667097 -0.000159711 -0.00790715 -0.000128797 -0.000183035 -0.000166098 -5.42143e-05
internal_weight=1064.61 1057.25 8.65899 1048.59 4.16746 1044.42 1012.1 1004.81 362.246
internal_count=8128 8086 57 8029 55 7974 7765 7699 2679
is_linear=0
shrinkage=0.05


Tree=48
num_leaves=10
num_cat=0
split_feature=1 4 0 2 0 0 0 0 0
split_gain=0.792077 0.157129 0.0251464 0.0293307 0.0488163 0.0201854 0.0111271 0.00525641 0.00027566
threshold=0.75000000000000011 0.44142890280677344 0.19483071565628055 1.0000000180025095e-35 -0.031654927879571908 0.041949767619371421 0.1797473877668381 0.32162870466709143 0.2756995707750321
decision_type=2 2 2 2 2 2 2 2 2
left_child=1 2 3 4 -1 -5 -3 8 -4
right_child=-2 6 7 5 -6 -7 -8 -9 -10
leaf_value=-0.0082904846614218399 0.016435320703078397 0.004664475798028098 4.4850860046263359e-05 -0.00039152097677622031 -0.00063771965855039013 -9.6646737269849618e-05 0.0080058052994417244 0.00053955879733980593 0.00015498120380136494
leaf_weight=2.0971962362527838 7.2950459718704215 5.9075888991355878 251.63295262679458 43.415504988282919 327.62372959777713 275.86890545487404 4.3090549260377884 72.876528806984425 73.391967099159956
leaf_count=22 42 36 1897 343 2618 2123 20 489 538
internal_value=1.63343e-05 -9.69706e-05 -0.00015719 -0.000349064 -0.000686395 -9.66467e-05 0.00607374 0.000155771 6.97187e-05
internal_weight=1064.42 1057.12 1046.91 649.005 329.721 319.284 10.2166 397.901 325.025
internal_count=8128 8086 8030 5106 2640 2466 56 2924 2435
is_linear=0
shrinkage=0.05


Tree=49
num_leaves=10
num_cat=0
split_feature=1 0 3 4 4 0 0 0 0
split_gain=0.722527 1.30193 0.554384 0.0820512 0.459871 0.0331384 0.0129241 0.00192836 0.000609576
threshold=0.29166666666666669 0.19682161509990695 1.0000000180025095e-35 0.0013721345380132632 0.00056184078609067614 0.3796710073947907 -0.031654927879571908 0.27425320446491247 0.19483071565628055
decision_type=2 2 2 2 2 2 2 2 2
left_child=3 -2 -3 4 -1 6 -5 8 -8
right_child=1 2 -4 5 -6 -7 7 -9 -10
leaf_value=-0.028113943087018339 0.005222925582600825 0.014856299367606157 0.034721059080715926 -0.0022669571016696046 -0.0036549415297377017 0.0014598384670122845 -0.00020109812881226557 4.1118496753416669e-05 -0.00010854419998412276
leaf_weight=2.0078142322599888 5.9186695963144293 4.1384827420115453 5.8647412210702896 7.264617219567298 2.1011750921607009 32.359362006187439 642.30526551604271 116.21986164152622 246.0498159378767
leaf_count=38 40 26 33 66 17 209 5020 831 1848
internal_value=1.75784e-05 0.0105888 0.0244897 -0.00014298 -0.00719465 -0.000115231 -0.000165603 -0.000150407 -0.000175463
internal_weight=1064.23 15.9219 10.0032 1048.31 4.10899 1044.2 1011.84 1004.57 888.355
internal_count=8128 99 59 8029 55 7974 7765 7699 6868
is_linear=0
shrinkage=0.05


Tree=50
num_leaves=10
num_cat=0
split_feature=1 4 0 2 0 0 0 0 0
split_gain=0.619245 0.135645 0.0204819 0.0268366 0.0432626 0.0182877 0.00818301 0.00373155 0.000216537
threshold=0.75000000000000011 0.44142890280677344 0.19483071565628055 1.0000000180025095e-35 -0.031654927879571908 0.041949767619371421 0.1797473877668381 0.32162870466709143 0.2756995707750321
decision_type=2 2 2 2 2 2 2 2 2
left_child=1 2 3 4 -1 -5 -3 8 -4
right_child=-2 6 7 5 -6 -7 -8 -9 -10
leaf_value=-0.0078296324005794615 0.014702855950155773 0.0044294272434085786 4.5079067563846011e-05 -0.0003646558137145438 -0.00059548525934336231 -8.8164038350900531e-05 0.0072896415923964708 0.00046283949412442957 0.00014268257977651042
leaf_weight=2.079830825328826 7.1254344135522834 5.9230454564094526 251.62790501117706 43.387806039303541 327.42158328741789 275.80377791821957 4.3278544098138809 72.943713814020157 73.401593923568726
leaf_count=22 42 36 1897 343 2618 2123 20 489 538
internal_value=1.23607e-05 -8.66785e-05 -0.000142735 -0.000315979 -0.000641148 -8.8164e-05 0.00563699 0.000139651 6.71209e-05
internal_weight=1064.04 1056.92 1046.67 648.693 329.501 319.192 10.2509 397.973 325.029
internal_count=8128 8086 8030 5106 2640 2466 56 2924 2435
is_linear=0
shrinkage=0.05


Tree=51
num_leaves=10
num_cat=0
split_feature=1 0 2 4 4 0 0 0 0
split_gain=0.563915 1.19356 0.323271 0.0661597 0.438015 0.0286038 0.0103818 0.00133648 0.000326293
threshold=0.29166666666666669 0.19682161509990695 1.0000000180025095e-35 0.0013721345380132632 0.00056184078609067614 0.3796710073947907 -0.031654927879571908 0.27425320446491247 0.19483071565628055
decision_type=2 2 2 2 2 2 2 2 2
left_child=3 -2 -3 4 -1 6 -5 8 -8
right_child=1 2 -4 5 -6 -7 7 -9 -10
leaf_value=-0.027395941459378188 0.0046281866503089632 0.013808049143782173 0.030504752679919762 -0.0020364009464363501 -0.00330282869374692 0.0013596969596706078 -0.00017560220630594847 2.3449913164789741e-05 -0.00010788322072285324
leaf_weight=1.957951311022043 5.9052531421184531 4.0179413780570012 5.8956763744354248 7.2381720244884482 2.0955601260066024 32.398220509290695 642.07032894343138 116.24467487633228 246.04390721023083
leaf_count=38 40 25 34 66 17 209 5020 831 1848
internal_value=1.39372e-05 0.00938386 0.0229879 -0.000127489 -0.00650292 -0.000102735 -0.000149572 -0.000135974 -0.000156841
internal_weight=1063.87 15.8189 9.91362 1048.05 4.05351 1044 1011.6 1004.36 888.114
internal_count=8128 99 59 8029 55 7974 7765 7699 6868
is_linear=0
shrinkage=0.05


Tree=52
num_leaves=10
num_cat=0
split_feature=1 4 0 2 0 0 0 0 0
split_gain=0.48469 0.117349 0.0166386 0.0245417 0.0383692 0.0165537 0.00596762 0.0025866 0.000172706
threshold=0.75000000000000011 0.44142890280677344 0.19483071565628055 1.0000000180025095e-35 -0.031654927879571908 0.041949767619371421 0.1797473877668381 0.32162870466709143 0.2756995707750321
decision_type=2 2 2 2 2 2 2 2 2
left_child=1 2 3 4 -1 -5 -3 8 -4
right_child=-2 6 7 5 -6 -7 -8 -9 -10
leaf_value=-0.0073956256703494976 0.01314652365492406 0.0042060091808135084 4.4923094980860264e-05 -0.00033981402015955124 -0.00055644393359392829 -8.0323364655202935e-05 0.0065346501988972419 0.00039396063347472873 0.00013208675250906031
leaf_weight=2.0636934489011756 6.9751324802637091 5.9377780854701978 251.62402415275574 43.362606804817915 327.23472427204251 275.74556752294302 4.3442704677581787 73.003797836601734 73.409604799002409
leaf_count=22 42 36 1897 343 2618 2123 20 489 538
internal_value=9.49037e-06 -7.72233e-05 -0.000129452 -0.000285662 -0.000599305 -8.03234e-05 0.00523831 0.000125015 6.46092e-05
internal_weight=1063.7 1056.73 1046.44 648.407 329.298 319.108 10.282 398.037 325.034
internal_count=8128 8086 8030 5106 2640 2466 56 2924 2435
is_linear=0
shrinkage=0.05


Tree=53
num_leaves=8
num_cat=0
split_feature=1 4 0 0 0 0 0
split_gain=0.440785 0.105655 0.014731 0.00706372 0.00541859 0.00233349 0.000155834
threshold=0.75000000000000011 0.44142890280677344 0.19483071565628055 -0.031654927879571908 0.1797473877668381 0.32162870466709143 0.2756995707750321
decision_type=2 2 2 2 2 2 2
left_child=1 2 3 -1 -3 6 -4
right_child=-2 4 5 -5 -6 -7 -8
leaf_value=-0.0018235420373623489 0.012587543330384985 0.003985672426059207 4.2675210718038484e-05 -0.00025016526790353014 0.0062582545324595153 0.00037416442074914106 0.00012546867278582713
leaf_weight=7.2138686776161185 6.9220230877399436 5.9523464143276197 251.63176841288805 641.02644850686193 4.3543356359004974 73.022003665566444 73.416119396686554
leaf_count=66 42 36 1897 5040 20 489 538
internal_value=1.13538e-05 -7.10343e-05 -0.000120658 -0.000267674 0.00496661 0.000118753 6.13751e-05
internal_weight=1063.54 1056.62 1046.31 648.24 10.3067 398.07 325.048
internal_count=8128 8086 8030 5106 56 2924 2435
is_linear=0
shrinkage=0.05


Tree=54
num_leaves=10
num_cat=0
split_feature=1 0 2 4 4 0 0 0 0
split_gain=0.410311 1.08441 0.284919 0.0525512 0.416739 0.0238653 0.00747216 0.000684794 6.82686e-05
threshold=0.29166666666666669 0.19682161509990695 1.0000000180025095e-35 0.0013721345380132632 0.00056184078609067614 0.3796710073947907 -0.031654927879571908 0.27425320446491247 0.19483071565628055
decision_type=2 2 2 2 2 2 2 2 2
left_child=3 -2 -3 4 -1 6 -5 8 -8
right_child=1 2 -4 5 -6 -7 7 -9 -10
leaf_value=-0.026678629138365818 0.0039648693773218632 0.012669474663155279 0.028574978004893059 -0.0017347867275650849 -0.0029581838346473413 0.0012474734806848498 -0.00014225719134760572 -4.6341227553968831e-06 -0.00011127991700059387
leaf_weight=1.9102451503276823 5.8767747431993476 4.0518484711647016 5.7518067061901093 7.2040527611970893 2.090390406548976 32.44156751036644 641.7610821351409 116.28369723260403 246.04877178370953
leaf_count=38 40 25 34 66 17 209 5020 831 1848
internal_value=1.08094e-05 0.00803908 0.0213741 -0.000109341 -0.00582895 -8.74182e-05 -0.00013024 -0.000118728 -0.000133672
internal_weight=1063.42 15.6804 9.80366 1047.74 4.00064 1043.74 1011.3 1004.09 887.81
internal_count=8128 99 59 8029 55 7974 7765 7699 6868
is_linear=0
shrinkage=0.05


Tree=55
num_leaves=10
num_cat=0
split_feature=1 4 0 2 0 0 0 0 0
split_gain=0.339582 0.0913068 0.0121945 0.0221745 0.0333279 0.0142311 0.00379346 0.00154283 0.000125662
threshold=0.75000000000000011 0.44142890280677344 0.19483071565628055 1.0000000180025095e-35 -0.031654927879571908 0.041949767619371421 0.1797473877668381 0.32162870466709143 0.2756995707750321
decision_type=2 2 2 2 2 2 2 2 2
left_child=1 2 3 4 -1 -5 -3 8 -4
right_child=-2 6 7 5 -6 -7 -8 -9 -10
leaf_value=-0.0069099453509580723 0.011155253753334947 0.0037848224211840514 4.3073114760135401e-05 -0.00030870819924049865 -0.0005083515144784828 -6.9263003758642937e-05 0.0055450971256822178 0.00031412870816350125 0.00011741882240825682
leaf_weight=2.0458794087171546 6.7866439372301093 5.9656589925289136 251.62610520794988 43.32678110897541 327.00613855570555 275.64782238006592 4.3682768046855927 73.074066609144211 73.421704586595297
leaf_count=22 42 36 1897 343 2618 2123 20 489 538
internal_value=6.55762e-06 -6.50595e-05 -0.000111258 -0.000245061 -0.000548153 -6.9263e-05 0.0046118 0.000106535 5.98663e-05
internal_weight=1063.27 1056.48 1046.15 648.027 329.052 318.975 10.3339 398.122 325.048
internal_count=8128 8086 8030 5106 2640 2466 56 2924 2435
is_linear=0
shrinkage=0.05


Tree=56
num_leaves=10
num_cat=0
split_feature=1 0 2 4 4 0 0 0 0
split_gain=0.315407 0.999389 0.261818 0.0409977 0.39605 0.0207294 0.00589126 0.000433941 1.07255e-05
threshold=0.29166666666666669 0.19682161509990695 1.0000000180025095e-35 0.0013721345380132632 0.00056184078609067614 0.3796710073947907 -0.031654927879571908 0.27425320446491247 0.19483071565628055
decision_type=2 2 2 2 2 2 2 2 2
left_child=3 -2 -3 4 -1 6 -5 8 -8
right_child=1 2 -4 5 -6 -7 7 -9 -10
leaf_value=-0.025967508698467798 0.003484773984023368 0.011809672787404104 0.027145068751561859 -0.0015438678198781784 -0.0026285554332651602 0.0011664371386131745 -0.00012206796918976913 -1.59495630266448e-05 -0.00010978893342083272
leaf_weight=1.8649411424994471 5.8664547353982917 4.0825449526309949 5.6518831253051758 7.182381033897399 2.0858457013964644 32.473105981945992 641.57485865056515 116.29927536845207 246.04087944328785
leaf_count=38 40 25 34 66 17 209 5020 831 1848
internal_value=8.81725e-06 0.00706583 0.0201346 -9.62839e-05 -0.00518007 -7.70375e-05 -0.000116974 -0.000106765 -0.000118664
internal_weight=1063.12 15.6009 9.73443 1047.52 3.95079 1043.57 1011.1 1003.92 887.616
internal_count=8128 99 59 8029 55 7974 7765 7699 6868
is_linear=0
shrinkage=0.05


Tree=57
num_leaves=10
num_cat=0
split_feature=1 4 0 2 0 0 0 0 0
split_gain=0.25807 0.0788539 0.00985869 0.0202745 0.0296321 0.0128658 0.00248136 0.000968053 0.000101942
threshold=0.75000000000000011 0.44142890280677344 0.19483071565628055 1.0000000180025095e-35 -0.031654927879571908 0.041949767619371421 0.1797473877668381 0.32162870466709143 0.2756995707750321
decision_type=2 2 2 2 2 2 2 2 2
left_child=1 2 3 4 -1 -5 -3 8 -4
right_child=-2 6 7 5 -6 -7 -8 -9 -10
leaf_value=-0.0065323245768606269 0.0098147907162099823 0.0035938462074545509 4.352921316375078e-05 -0.00028790192552707194 -0.00047594088210397352 -6.2439896475618392e-05 0.0048788085344425901 0.00026000882690016953 0.00011049011189057643
leaf_weight=2.0322054773569098 6.6619398146867743 5.9783469140529615 251.62029126659036 43.306806568056345 326.85089533776045 275.60421555116773 4.3805243968963623 73.120742231607437 73.426253814250231
leaf_count=22 42 36 1897 343 2618 2123 20 489 538
internal_value=4.69609e-06 -5.71736e-05 -0.000100165 -0.000220512 -0.000513364 -6.24399e-05 0.00428378 9.56325e-05 5.86553e-05
internal_weight=1062.98 1056.32 1045.96 647.794 328.883 318.911 10.3589 398.167 325.047
internal_count=8128 8086 8030 5106 2640 2466 56 2924 2435
is_linear=0
shrinkage=0.05


Tree=58
num_leaves=9
num_cat=0
split_feature=1 0 2 4 4 0 0 0
split_gain=0.239308 0.9218 0.240526 0.031298 0.375972 0.0180567 0.00460463 0.000261443
threshold=0.29166666666666669 0.19682161509990695 1.0000000180025095e-35 0.0013721345380132632 0.00056184078609067614 0.3796710073947907 -0.031654927879571908 0.27425320446491247
decision_type=2 2 2 2 2 2 2 2
left_child=3 -2 -3 4 -1 6 -5 -8
right_child=1 2 -4 5 -6 -7 7 -9
leaf_value=-0.025260675288064551 0.0030423401238639717 0.011011114853396599 0.025797306137176953 -0.0013680284925934225 -0.0023102134856593324 0.0010925375606044684 -0.00010499712630669862 -2.5272890083811243e-05
leaf_weight=1.8217610493302347 5.8573070913553229 4.1111443638801557 5.5590589195489883 7.1624915301799765 2.0818036198616019 32.501907780766487 887.43891642987728 116.31201983988285
leaf_count=38 40 25 34 66 17 209 6868 831
internal_value=7.1577e-06 0.00616888 0.0189799 -8.41957e-05 -0.00455295 -6.74775e-05 -0.000104773 -9.57589e-05
internal_weight=1062.85 15.5275 9.6702 1047.32 3.90356 1043.42 1010.91 1003.75
internal_count=8128 99 59 8029 55 7974 7765 7699
is_linear=0
shrinkage=0.05


Tree=59
num_leaves=8
num_cat=0
split_feature=1 4 0 0 0 0 0
split_gain=0.193075 0.0681396 0.00794413 0.00352094 0.00139211 0.000564135 8.36151e-05
threshold=0.75000000000000011 0.44142890280677344 0.19483071565628055 -0.031654927879571908 0.1797473877668381 0.32162870466709143 0.2756995707750321
decision_type=2 2 2 2 2 2 2
left_child=1 2 3 -1 -3 6 -4
right_child=-2 4 5 -5 -6 -7 -8
leaf_value=-0.0013009927262256919 0.0085628682060134315 0.0034123261995802749 4.3878179391467483e-05 -0.00018566513919307374 0.0042564787595554812 0.00021125169743346114 0.00010452098862528573
leaf_weight=7.1551618427038184 6.5473285317420951 5.9904323816299421 251.61495884135365 640.42548448219895 4.3912308216094971 73.162554696202278 73.429918572306633
leaf_count=66 42 36 1897 5040 20 489 538
internal_value=3.15207e-06 -4.99107e-05 -8.99249e-05 -0.000197988 0.00398089 8.58123e-05 5.75778e-05
internal_weight=1062.72 1056.17 1045.79 647.581 10.3817 398.207 325.045
internal_count=8128 8086 8030 5106 56 2924 2435
is_linear=0
shrinkage=0.05


Tree=60
num_leaves=9
num_cat=0
split_feature=1 0 2 4 4 0 0 0
split_gain=0.178713 0.851322 0.220958 0.0232667 0.356533 0.0158527 0.00374806 0.000161215
threshold=0.29166666666666669 0.19682161509990695 1.0000000180025095e-35 0.0013721345380132632 0.00056184078609067614 0.3796710073947907 -0.031654927879571908 0.27425320446491247
decision_type=2 2 2 2 2 2 2 2
left_child=3 -2 -3 4 -1 6 -5 -8
right_child=1 2 -4 5 -6 -7 7 -9
leaf_value=-0.024561217804156044 0.0026319238702337063 0.010268074127393721 0.024527361731986705 -0.0012371786317032006 -0.0020061172404493861 0.0010251083676093011 -9.5445248812433579e-05 -3.2842941334419852e-05
leaf_weight=1.7807563468813898 5.8499091863632193 4.1377927511930448 5.4729872941970825 7.1481955498456946 2.0783203020691863 32.528218567371368 887.31470244377851 116.3222754150629
leaf_count=38 40 25 34 66 17 209 6868 831
internal_value=3.10278e-06 0.00533953 0.0179042 -7.56855e-05 -0.00395088 -6.13516e-05 -9.63152e-05 -8.81896e-05
internal_weight=1062.63 15.4607 9.61078 1047.17 3.85908 1043.31 1010.79 1003.64
internal_count=8128 99 59 8029 55 7974 7765 7699
is_linear=0
shrinkage=0.05


Tree=61
num_leaves=9
num_cat=0
split_feature=1 0 0 2 0 0 0 0
split_gain=0.141853 0.0600935 0.00825355 0.0381493 0.0238014 0.00195642 0.00140527 0.000890972
threshold=0.75000000000000011 0.3796710073947907 0.19483071565628055 1.0000000180025095e-35 -0.031654927879571908 0.32162870466709143 0.39872649312019354 0.041949767619371421
decision_type=2 2 2 2 2 2 2 2
left_child=1 2 3 4 -1 -4 -3 -5
right_child=-2 6 5 7 -6 -7 -8 -9
leaf_value=-0.0060626641954655454 0.0073962549720110989 0.0015264667526713278 3.4294207293764518e-05 -0.00035904278646857311 -0.00061259191263622593 0.00039896987994760463 0.002246345566668452 -7.2634890872508585e-05
leaf_weight=2.0154104828834525 6.4422128498554221 9.4623829275369626 327.19869105890393 43.605031929910183 332.26773530617356 41.435560137033463 23.907832458615303 276.17689729854465
leaf_count=22 42 61 2445 345 2651 283 152 2127
internal_value=-6.65387e-07 -4.57879e-05 -0.000113919 -0.000220555 -0.000645451 7.52848e-05 0.00204222 -7.26349e-05
internal_weight=1062.51 1056.07 1022.7 654.065 334.283 368.634 33.3702 319.782
internal_count=8128 8086 7873 5145 2673 2728 213 2472
is_linear=0
shrinkage=0.05


Tree=62
num_leaves=9
num_cat=0
split_feature=1 0 2 4 4 0 0 0
split_gain=0.131121 0.786599 0.203377 0.0167386 0.337645 0.0114159 0.00286858 6.21082e-05
threshold=0.29166666666666669 0.19682161509990695 1.0000000180025095e-35 0.0013721345380132632 0.00056184078609067614 0.3796710073947907 -0.031654927879571908 0.27425320446491247
decision_type=2 2 2 2 2 2 2 2
left_child=3 -2 -3 4 -1 6 -5 -8
right_child=1 2 -4 5 -6 -7 7 -9
leaf_value=-0.023862540090323528 0.0022608958618587044 0.009583600079771654 0.023341647938812233 -0.0010798845748804971 -0.001709478244337126 0.00087021805881126865 -7.7966085791767427e-05 -3.9110507767009994e-05
leaf_weight=1.7414116449654105 5.8424058556556693 4.1627801060676557 5.3932456821203232 7.130520671606063 2.0753203555941573 32.58930966258049 887.09710945934057 116.33165697753429
leaf_count=38 40 25 34 66 17 209 6868 831
internal_value=4.41386e-06 0.00458474 0.0169063 -6.29522e-05 -0.0033681 -5.08591e-05 -8.05627e-05 -7.34614e-05
internal_weight=1062.36 15.3984 9.55603 1046.97 3.81673 1043.15 1010.56 1003.43
internal_count=8128 99 59 8029 55 7974 7765 7699
is_linear=0
shrinkage=0.05


Tree=63
num_leaves=6
num_cat=0
split_feature=0 0 1 2 0
split_gain=0.119831 0.0103068 0.0877873 0.0690847 0.0197944
threshold=0.39872649312019354 0.19682161509990695 0.29166666666666669 1.0000000180025095e-35 -0.031654927879571908
decision_type=2 2 2 2 2
left_child=1 3 -3 4 -1
right_child=-2 2 -4 -5 -6
leaf_value=-0.0057391108327213801 0.0034539373453455939 -3.5091418841220014e-05 0.0016864413983165535 -3.5091418841220014e-05 -0.00075507986346966325
leaf_weight=2.0039756000041953 24.54058101773262 365.31245055049658 8.2554136216640455 324.76368113979697 337.37748904898763
leaf_count=22 156 2700 52 2507 2691
internal_value=6.1216e-07 -8.10545e-05 0.000129053 -0.000199235 -0.00078451
internal_weight=1062.25 1037.71 373.568 664.145 339.381
internal_count=8128 7972 2752 5220 2713
is_linear=0
shrinkage=0.05


Tree=64
num_leaves=6
num_cat=0
split_feature=0 0 1 2 0
split_gain=0.107333 0.00903008 0.0827903 0.0642548 0.0179737
threshold=0.39872649312019354 0.19682161509990695 0.29166666666666669 1.0000000180025095e-35 -0.031654927879571908
decision_type=2 2 2 2 2
left_child=1 3 -3 4 -1
right_child=-2 2 -4 -5 -6
leaf_value=-0.0054778335373506281 0.0032746141443692357 -2.4741399804564034e-05 0.0016034336439967396 -2.4741399804564034e-05 -0.00071771701176590887
leaf_weight=1.9948212355375279 24.588986277580261 365.30380802974105 8.2557077258825284 324.75583984702826 337.19820232316852
leaf_count=22 156 2700 52 2507 2691
internal_value=9.63331e-06 -6.77469e-05 0.000128909 -0.000178392 -0.000745712
internal_weight=1062.1 1037.51 373.56 663.949 339.193
internal_count=8128 7972 2752 5220 2713
is_linear=0
shrinkage=0.05


Tree=65
num_leaves=5
num_cat=0
split_feature=1 4 0 0
split_gain=0.0973335 0.0551114 0.00250027 0.00163169
threshold=0.75000000000000011 0.44142890280677344 0.19483071565628055 -0.031654927879571908
decision_type=2 2 2 2
left_child=1 2 3 -1
right_child=-2 -3 -4 -5
leaf_value=-0.00086975979014680595 0.0061967083690583936 0.0030887748188403773 4.2922155100013047e-05 -0.00010793449861802595
leaf_weight=7.1066628396511069 6.3357461392879477 10.399679839611052 398.39887730777264 639.71191494166851
leaf_count=66 42 56 2924 5040
internal_value=1.79259e-05 -1.91587e-05 -5.56132e-05 -0.000116305
internal_weight=1061.95 1055.62 1045.22 646.819
internal_count=8128 8086 8030 5106
is_linear=0
shrinkage=0.05


Tree=66
num_leaves=6
num_cat=0
split_feature=0 0 1 2 0
split_gain=0.0953201 0.00737063 0.0766334 0.0592812 0.0160383
threshold=0.39872649312019354 0.19682161509990695 0.29166666666666669 1.0000000180025095e-35 -0.031654927879571908
decision_type=2 2 2 2 2
left_child=1 3 -3 4 -1
right_child=-2 2 -4 -5 -6
leaf_value=-0.0051874989362245176 0.0030912867022169221 -1.6864467229328845e-05 0.0015177937398985375 -1.6864467229328845e-05 -0.00067961180948385917
leaf_weight=1.9847310930490483 24.633612588047981 365.31142367422581 8.2416381835937482 324.71772122010589 337.01279893517494
leaf_count=22 156 2700 52 2507 2691
internal_value=1.73034e-05 -5.56992e-05 0.000121962 -0.00015569 -0.000706004
internal_weight=1061.9 1037.27 373.553 663.715 338.998
internal_count=8128 7972 2752 5220 2713
is_linear=0
shrinkage=0.05


Tree=67
num_leaves=5
num_cat=0
split_feature=1 4 0 0
split_gain=0.0863212 0.0502426 0.00152329 0.00125949
threshold=0.75000000000000011 0.44142890280677344 0.19483071565628055 -0.031654927879571908
decision_type=2 2 2 2
left_child=1 2 3 -1
right_child=-2 -3 -4 -5
leaf_value=-0.00075475854775894358 0.0058573086638153641 0.0029237022898093348 3.2101635226281498e-05 -8.483555379847268e-05
leaf_weight=7.0937450379133216 6.3063936978578559 10.413229882717131 398.45157827809453 639.50320649892092
leaf_count=66 42 56 2924 5040
internal_value=2.49443e-05 -9.90408e-06 -4.47977e-05 -9.21852e-05
internal_weight=1061.77 1055.46 1045.05 646.597
internal_count=8128 8086 8030 5106
is_linear=0
shrinkage=0.05


Tree=68
num_leaves=6
num_cat=0
split_feature=0 0 1 2 0
split_gain=0.0846915 0.00600921 0.0709802 0.0547524 0.0143227
threshold=0.39872649312019354 0.19682161509990695 0.29166666666666669 1.0000000180025095e-35 -0.031654927879571908
decision_type=2 2 2 2 2
left_child=1 3 -3 4 -1
right_child=-2 2 -4 -5 -6
leaf_value=-0.0049143961045545591 0.0029189837539764052 -9.8569475831109511e-06 0.0014370383829560782 -9.8569475831109511e-06 -0.00064433441476111921
leaf_weight=1.9753184020519245 24.675629451870918 365.31815986335278 8.2283424586057645 324.68714290484786 336.84119985252619
leaf_count=22 156 2700 52 2507 2691
internal_value=2.3977e-05 -4.4907e-05 0.000115502 -0.000135216 -0.000669229
internal_weight=1061.73 1037.05 373.547 663.504 338.817
internal_count=8128 7972 2752 5220 2713
is_linear=0
shrinkage=0.05


Tree=69
num_leaves=8
num_cat=0
split_feature=1 0 2 4 4 0 0
split_gain=0.0782917 0.695373 0.182326 0.01159 0.318927 0.00192441 0.0011191
threshold=0.29166666666666669 0.19682161509990695 1.0000000180025095e-35 0.0013721345380132632 0.00056184078609067614 0.3796710073947907 -0.031654927879571908
decision_type=2 2 2 2 2 2 2
left_child=3 -2 -3 4 -1 6 -5
right_child=1 2 -4 5 -6 -7 -8
leaf_value=-0.023139241292496636 0.0017798024455402202 0.0086436002362586771 0.021710525976503733 -0.00064947083912802637 -0.0013986507826520475 0.00036607799358069366 -1.8721643735882822e-05
leaf_weight=1.7022773250937464 5.8228138983249655 4.200866833329199 5.2876415699720383 7.0819302052259436 2.072701968252658 32.78822335600853 1002.6452863514423
leaf_count=38 40 25 34 66 17 209 7699
internal_value=3.10251e-05 0.00358052 0.0155074 -2.09179e-05 -0.0027864 -1.0904e-05 -2.31455e-05
internal_weight=1061.6 15.3113 9.48851 1046.29 3.77498 1042.52 1009.73
internal_count=8128 99 59 8029 55 7974 7765
is_linear=0
shrinkage=0.05


Tree=70
num_leaves=5
num_cat=0
split_feature=0 0 2 0
split_gain=0.0721752 0.00446888 0.0499834 0.0128119
threshold=0.39872649312019354 0.19682161509990695 1.0000000180025095e-35 -0.031654927879571908
decision_type=2 2 2 2
left_child=1 2 3 -1
right_child=-2 -3 -4 -5
leaf_value=-0.0046575359945607809 0.0026961970242813226 0.00010062949054721854 -7.4854590319700957e-06 -0.0006099972903949656
leaf_weight=1.9665343165397633 24.71689373254776 373.49961467832327 324.66931184381247 336.67315885052085
leaf_count=22 156 2752 2507 2691
internal_value=2.59512e-05 -3.77058e-05 -0.0001156 -0.000633502
internal_weight=1061.53 1036.81 663.309 338.64
internal_count=8128 7972 5220 2713
is_linear=0
shrinkage=0.05


Tree=71
num_leaves=5
num_cat=0
split_feature=0 0 2 0
split_gain=0.0646951 0.00362927 0.0462672 0.0116204
threshold=0.39872649312019354 0.19682161509990695 1.0000000180025095e-35 -0.031654927879571908
decision_type=2 2 2 2
left_child=1 2 3 -1
right_child=-2 -3 -4 -5
leaf_value=-0.0044416493060884851 0.0025573711394852009 9.5591914241684053e-05 -1.8407783459580755e-06 -0.00057975320553672112
leaf_weight=1.9592028260231007 24.754705205559731 373.52442805096507 324.66765223443508 336.52846359089017
leaf_count=22 156 2752 2507 2691
internal_value=3.12588e-05 -2.90618e-05 -9.92735e-05 -0.000602106
internal_weight=1061.43 1036.68 663.155 338.488
internal_count=8128 7972 5220 2713
is_linear=0
shrinkage=0.05


Tree=72
num_leaves=5
num_cat=0
split_feature=0 0 2 0
split_gain=0.0579813 0.00291663 0.0428339 0.0105372
threshold=0.39872649312019354 0.19682161509990695 1.0000000180025095e-35 -0.031654927879571908
decision_type=2 2 2 2
left_child=1 2 3 -1
right_child=-2 -3 -4 -5
leaf_value=-0.0042350377386288695 0.0024258956646134502 9.080793623915898e-05 3.4617622801922744e-06 -0.00055099612936947769
leaf_weight=1.9522296488285054 24.790576204657555 373.54799132421613 324.66724631562829 336.39100256934762
leaf_count=22 156 2752 2507 2691
internal_value=3.6222e-05 -2.093e-05 -8.38844e-05 -0.000572253
internal_weight=1061.35 1036.56 663.01 338.343
internal_count=8128 7972 5220 2713
is_linear=0
shrinkage=0.05


Tree=73
num_leaves=5
num_cat=0
split_feature=1 4 0 0
split_gain=0.0564806 0.0419177 0.0004879 2.34004e-08
threshold=0.75000000000000011 0.44142890280677344 -0.031654927879571908 0.19483071565628055
decision_type=2 2 2 2
left_child=1 2 -1 -4
right_child=-2 -3 3 -5
leaf_value=-0.00043414385959349329 0.0047937655676019769 0.0024033146005055009 -1.7191918696397655e-05 -1.6703757138265948e-05
leaf_weight=7.0575183480978003 6.2139852046966544 10.424039795994757 638.88634219765663 398.68708242475986
leaf_count=66 42 56 5040 2924
internal_value=4.0857e-05 1.28636e-05 -1.98225e-05 -1.70043e-05
internal_weight=1061.27 1055.05 1044.63 1037.57
internal_count=8128 8086 8030 7964
is_linear=0
shrinkage=0.05


Tree=74
num_leaves=8
num_cat=0
split_feature=1 0 2 4 4 0 0
split_gain=0.0522768 0.638666 0.16583 0.00754649 0.301058 0.000495219 5.21383e-05
threshold=0.29166666666666669 0.19682161509990695 1.0000000180025095e-35 0.0013721345380132632 0.00056184078609067614 -0.031654927879571908 0.3796710073947907
decision_type=2 2 2 2 2 2 2
left_child=3 -2 -3 4 -1 -5 -7
right_child=1 2 -4 5 -6 6 -8
leaf_value=-0.02244187999388313 0.0014709046181226528 0.0080399900222072711 0.02058910763800879 -0.00041257170864253872 -0.0011205673188055966 5.7230320262588075e-06 6.9685792568217769e-05
leaf_weight=1.6660368815064432 5.8146677464246741 4.2222100943326932 5.219881683588028 7.0552157014608374 2.0708072781562796 1002.2927613332868 32.905734807252884
leaf_count=38 40 25 34 66 17 7699 209
internal_value=3.92515e-05 0.00294494 0.0146091 -3.13071e-06 -0.00224605 4.91093e-06 7.75621e-06
internal_weight=1061.25 15.2568 9.44209 1045.99 3.73684 1042.25 1035.2
internal_count=8128 99 59 8029 55 7974 7908
is_linear=0
shrinkage=0.05


Tree=75
